{"learner":{"attributes":{"scikit_learn":"{\"_estimator_type\": \"regressor\"}"},"feature_names":["temperature_2m_mean","precipitation_sum","wind_speed_10m_max","wind_direction_10m_dominant"],"feature_types":["float","float","float","float"],"gradient_booster":{"model":{"gbtree_model_param":{"num_parallel_tree":"1","num_trees":"100"},"iteration_indptr":[0,1,2,3,4,5,6,7,8,9,10,11,12,13,14,15,16,17,18,19,20,21,22,23,24,25,26,27,28,29,30,31,32,33,34,35,36,37,38,39,40,41,42,43,44,45,46,47,48,49,50,51,52,53,54,55,56,57,58,59,60,61,62,63,64,65,66,67,68,69,70,71,72,73,74,75,76,77,78,79,80,81,82,83,84,85,86,87,88,89,90,91,92,93,94,95,96,97,98,99,100],"tree_info":[0,0,0,0,0,0,0,0,0,0,0,0,0,0,0,0,0,0,0,0,0,0,0,0,0,0,0,0,0,0,0,0,0,0,0,0,0,0,0,0,0,0,0,0,0,0,0,0,0,0,0,0,0,0,0,0,0,0,0,0,0,0,0,0,0,0,0,0,0,0,0,0,0,0,0,0,0,0,0,0,0,0,0,0,0,0,0,0,0,0,0,0,0,0,0,0,0,0,0,0],"trees":[{"base_weights":[4.7240833E-9,4.1012368E-1,-9.314955E-1,-8.8128406E-1,7.851996E-1,-6.2659794E-1,-1.3408494E0,-1.012372E0,4.1169608E-1,1.5287274E0,2.1084543E-1,-6.990741E-1,6.3559943E-1,-1.4452841E0,8.9237547E-1,-2.6592737E-1,-1.197538E0,5.6070125E-1,-2.4547212E-1,2.0568056E0,3.5765925E-1,3.0601632E-3,8.62113E-1,-5.136958E-1,-9.7238505E-1,7.6913005E-1,-2.051041E-1,-7.2773236E-1,-1.5819001E0,1.6255329E0,-1.658885E-1,1.5649883E-1,-1.1775366E0,-7.113377E-2,-1.2286044E0,3.272756E-1,8.1939596E-1,1.0194869E0,2.6443102E0,-1.3839405E0,4.7886583E-1,7.0279276E-1,-9.966224E-2,6.549217E-1,2.1549745E0,-1.1166872E-1,-7.063846E-1,2.5737548E-1,-1.0867811E0,-6.988852E-2,1.0805813E0,2.2511946E-1,-9.399549E-1,-1.6424416E0,-7.337175E-1,-3.2604076E-2,5.9823346E-1,-1.7210409E-1,7.9479516E-2,-2.8396285E-1,1.6420016E-1,-3.7812188E-1,-2.6041032E-3,-1.5656653E-1,3.2739595E-1,-3.136165E-1,-4.2567632E-1,-2.1390614E-1,1.6208118E-1,-6.0936008E-3,4.2799774E-1,9.1779333E-1,5.4400165E-2,-4.56607E-1,-6.2604085E-2,-9.4661705E-2,2.1323101E-1,-2.8698716E-2,3.9820698E-1,3.6839E-2,-1.0510943E-1,-1.277771E-1,3.0070585E-1,3.8503715E-1,8.598179E-1,8.646841E-2,-1.0661382E-1,-2.5447768E-1,5.3291037E-3,-1.0284016E-1,2.778335E-1,-3.4215218E-1,-6.532129E-2,5.234385E-2,-1.5710409E-1,4.708216E-1,5.403347E-2,-1.6436654E-1,4.3152785E-1,1.3239592E-1,-3.022375E-1,-3.9020336E-1,-5.270836E-1,-2.842874E-1,-4.656136E-3,8.352788E-2,-7.760411E-2],"categories":[],"categories_nodes":[],"categories_segments":[],"categories_sizes":[],"default_left":[0,0,0,0,0,0,0,0,0,0,0,0,0,0,0,0,0,0,0,0,0,0,0,0,0,0,0,0,0,0,0,0,0,0,0,0,0,0,0,0,0,0,0,0,0,0,0,0,0,0,0,0,0,0,0,0,0,0,0,0,0,0,0,0,0,0,0,0,0,0,0,0,0,0,0,0,0,0,0,0,0,0,0,0,0,0,0,0,0,0,0,0,0,0,0,0,0,0,0,0,0,0,0,0,0,0,0],"id":0,"left_children":[1,3,5,7,9,11,13,15,17,19,21,23,25,27,29,31,33,35,-1,37,39,41,43,45,47,49,-1,51,53,55,57,59,61,63,65,67,-1,69,71,73,75,77,79,81,83,85,87,89,91,93,95,97,99,101,103,-1,-1,-1,105,-1,-1,-1,-1,-1,-1,-1,-1,-1,-1,-1,-1,-1,-1,-1,-1,-1,-1,-1,-1,-1,-1,-1,-1,-1,-1,-1,-1,-1,-1,-1,-1,-1,-1,-1,-1,-1,-1,-1,-1,-1,-1,-1,-1,-1,-1,-1,-1],"loss_changes":[6.173578E2,5.4416174E2,6.0816467E1,4.3298843E1,3.7120966E2,2.65159E1,5.0267303E1,3.1471237E1,4.857193E0,2.336438E2,6.6576675E1,1.3180298E1,3.3444676E0,1.8552643E1,8.028398E0,1.82834E1,6.3513794E0,1.0253021E1,0E0,1.5636548E2,2.5782833E1,2.6952494E1,3.0465141E1,1.2548092E1,1.5473137E1,3.9952202E0,0E0,7.0869656E0,7.4217834E0,4.0518847E0,5.4589117E-1,1.4744615E1,1.4420013E0,3.7134354E0,4.7582397E0,5.0383577E0,0E0,4.067318E1,1.6911987E2,9.8064995E-1,2.0857567E1,2.4063913E1,1.8280142E1,3.948093E1,6.2371063E0,5.3652225E0,1.131625E1,4.3310657E0,4.374016E0,6.4583236E-1,4.5592146E0,7.3533673E0,3.055355E0,3.819519E0,1.9824486E0,0E0,0E0,0E0,3.4112662E-1,0E0,0E0,0E0,0E0,0E0,0E0,0E0,0E0,0E0,0E0,0E0,0E0,0E0,0E0,0E0,0E0,0E0,0E0,0E0,0E0,0E0,0E0,0E0,0E0,0E0,0E0,0E0,0E0,0E0,0E0,0E0,0E0,0E0,0E0,0E0,0E0,0E0,0E0,0E0,0E0,0E0,0E0,0E0,0E0,0E0,0E0,0E0,0E0],"parents":[2147483647,0,0,1,1,2,2,3,3,4,4,5,5,6,6,7,7,8,8,9,9,10,10,11,11,12,12,13,13,14,14,15,15,16,16,17,17,19,19,20,20,21,21,22,22,23,23,24,24,25,25,27,27,28,28,29,29,30,30,31,31,32,32,33,33,34,34,35,35,37,37,38,38,39,39,40,40,41,41,42,42,43,43,44,44,45,45,46,46,47,47,48,48,49,49,50,50,51,51,52,52,53,53,54,54,58,58],"right_children":[2,4,6,8,10,12,14,16,18,20,22,24,26,28,30,32,34,36,-1,38,40,42,44,46,48,50,-1,52,54,56,58,60,62,64,66,68,-1,70,72,74,76,78,80,82,84,86,88,90,92,94,96,98,100,102,104,-1,-1,-1,106,-1,-1,-1,-1,-1,-1,-1,-1,-1,-1,-1,-1,-1,-1,-1,-1,-1,-1,-1,-1,-1,-1,-1,-1,-1,-1,-1,-1,-1,-1,-1,-1,-1,-1,-1,-1,-1,-1,-1,-1,-1,-1,-1,-1,-1,-1,-1,-1],"split_conditions":[2.4317711E2,7.607254E1,2.7809973E2,1.6651499E1,7.1765003E0,1.7572336E1,1.838275E1,1.2904882E1,2.5071098E1,4.7E0,1.6932753E1,1.2684834E1,2.7500568E2,1.3556282E1,1.2620554E1,7.8785834E0,-8.040166E0,2.3749088E1,-2.4547212E-1,2.3556669E0,9.546422E1,8.549417E0,2.1045248E1,2.5329097E2,1.3039754E1,1.1901798E1,-2.051041E-1,1.1183201E1,1.7105667E1,9.531505E0,1.9147333E1,1.7209663E1,5.896419E1,5.896419E1,1.8532133E1,1.7736917E1,8.1939596E-1,-9.6725005E-1,2.272501E2,4.2910833E0,1.935314E1,1.1E0,2.0123473E2,1.3833617E2,5E-1,1.5E0,3.5768856E1,2.6583105E2,1.6932753E1,2.012025E1,1.8472595E1,3.3521655E2,-3.646417E0,2.9001022E2,8.000001E-1,-3.2604076E-2,5.9823346E-1,-1.7210409E-1,2.0689001E1,-2.8396285E-1,1.6420016E-1,-3.7812188E-1,-2.6041032E-3,-1.5656653E-1,3.2739595E-1,-3.136165E-1,-4.2567632E-1,-2.1390614E-1,1.6208118E-1,-6.0936008E-3,4.2799774E-1,9.1779333E-1,5.4400165E-2,-4.56607E-1,-6.2604085E-2,-9.4661705E-2,2.1323101E-1,-2.8698716E-2,3.9820698E-1,3.6839E-2,-1.0510943E-1,-1.277771E-1,3.0070585E-1,3.8503715E-1,8.598179E-1,8.646841E-2,-1.0661382E-1,-2.5447768E-1,5.3291037E-3,-1.0284016E-1,2.778335E-1,-3.4215218E-1,-6.532129E-2,5.234385E-2,-1.5710409E-1,4.708216E-1,5.403347E-2,-1.6436654E-1,4.3152785E-1,1.3239592E-1,-3.022375E-1,-3.9020336E-1,-5.270836E-1,-2.842874E-1,-4.656136E-3,8.352788E-2,-7.760411E-2],"split_indices":[3,3,3,0,0,0,0,2,2,1,0,0,3,2,2,0,0,2,0,0,3,0,0,3,2,2,0,2,0,2,0,3,3,3,2,0,0,0,3,0,2,1,3,3,1,1,2,3,0,0,2,3,0,3,1,0,0,0,0,0,0,0,0,0,0,0,0,0,0,0,0,0,0,0,0,0,0,0,0,0,0,0,0,0,0,0,0,0,0,0,0,0,0,0,0,0,0,0,0,0,0,0,0,0,0,0,0],"split_type":[0,0,0,0,0,0,0,0,0,0,0,0,0,0,0,0,0,0,0,0,0,0,0,0,0,0,0,0,0,0,0,0,0,0,0,0,0,0,0,0,0,0,0,0,0,0,0,0,0,0,0,0,0,0,0,0,0,0,0,0,0,0,0,0,0,0,0,0,0,0,0,0,0,0,0,0,0,0,0,0,0,0,0,0,0,0,0,0,0,0,0,0,0,0,0,0,0,0,0,0,0,0,0,0,0,0,0],"sum_hessian":[1.614E3,1.121E3,4.93E2,2.52E2,8.69E2,2.84E2,2.09E2,2.29E2,2.3E1,3.78E2,4.91E2,2.69E2,1.5E1,2E2,9E0,4.6E1,1.83E2,2.1E1,2E0,2.6E2,1.18E2,3.73E2,1.18E2,1.62E2,1.07E2,1.4E1,1E0,3.3E1,1.67E2,5E0,4E0,3.2E1,1.4E1,5E0,1.78E2,2E1,1E0,9.5E1,1.65E2,7E0,1.11E2,4.7E1,3.26E2,1.03E2,1.5E1,5.3E1,1.09E2,9E0,9.8E1,4E0,1E1,6E0,2.7E1,1.55E2,1.2E1,1E0,4E0,1E0,3E0,8E0,2.4E1,1.3E1,1E0,4E0,1E0,9.4E1,8.4E1,3E0,1.7E1,2.7E1,6.8E1,1.41E2,2.4E1,6E0,1E0,2.5E1,8.6E1,2.1E1,2.6E1,1.73E2,1.53E2,2.5E1,7.8E1,8E0,7E0,2E1,3.3E1,9.1E1,1.8E1,5E0,4E0,9.2E1,6E0,3E0,1E0,6E0,4E0,4E0,2E0,1E0,2.6E1,4.2E1,1.13E2,9E0,3E0,2E0,1E0],"tree_param":{"num_deleted":"0","num_feature":"4","num_nodes":"107","size_leaf_vector":"1"}},{"base_weights":[7.240786E-4,2.7445033E-1,-6.9559866E-1,-4.5861602E-1,5.878976E-1,-7.5581115E-1,4.7082824E-1,-5.927573E-1,2.2231029E-1,1.2038841E0,1.380648E-1,-5.269896E-1,-1.0284189E0,2.552494E-1,5.4688126E-1,9.913561E-2,-7.0986027E-1,9.014917E-2,2.6152143E0,1.9304577E0,6.620475E-1,-7.399688E-3,6.329851E-1,-2.2240621E-1,-6.886541E-1,-5.278702E-1,-1.1222959E0,-6.976833E-2,1.0794219E0,7.1210355E-1,-6.413827E-1,-1.0963775E0,-5.702198E-1,-2.876383E-2,6.601601E-1,1.0984232E0,7.842322E-2,2.1660132E0,-2.7112862E-1,3.4690924E-2,1.2173759E0,2.2173193E-1,-2.1960899E-1,4.8127535E-1,1.6063945E0,-3.876271E-1,2.9171488E-1,-8.646661E-1,-2.7828032E-1,1.9554007E-1,-6.640342E-1,1.5981536E-1,-1.1390077E0,2.1612655E-1,-5.822809E-1,1.2859014E-1,3.8929728E-1,-6.940767E-2,4.5846447E-1,-3.0383766E-2,-2.773251E-1,-3.7876433E-1,1.3824752E-1,-1.2083022E-1,-3.2930246E-1,-1.256078E-1,2.1346876E-1,5.5700374E-1,1.3365126E0,-3.6706832E-1,2.97648E-1,7.5356704E-1,-4.8825968E-2,9.8119164E-1,1.8047246E-1,1.8699235E-1,-7.70842E-2,4.0584567E-1,-8.6144686E-2,-1.7825621E-1,1.8928963E-1,8.4875757E-1,-6.17184E-3,9.134524E-2,-1.5643033E-1,2.911847E-1,5.6684846E-3,4.3234244E-2,-2.6845828E-1,1.5987894E-2,-1.9230095E-1,-2.6759884E-1,2.8869215E-1,-1.2947959E-1,-3.3203286E-1,1.1095845E-1,-3.9041538E-2,-2.943216E-1,-4.0044644E-1,1.4595607E-1,-1.1360773E-1,-2.731052E-1,1.4771748E-2],"categories":[],"categories_nodes":[],"categories_segments":[],"categories_sizes":[],"default_left":[0,0,0,0,0,0,0,0,0,0,0,0,0,0,0,0,0,0,0,0,0,0,0,0,0,0,0,0,0,0,0,0,0,0,0,0,0,0,0,0,0,0,0,0,0,0,0,0,0,0,0,0,0,0,0,0,0,0,0,0,0,0,0,0,0,0,0,0,0,0,0,0,0,0,0,0,0,0,0,0,0,0,0,0,0,0,0,0,0,0,0,0,0,0,0,0,0,0,0,0,0,0,0],"id":1,"left_children":[1,3,5,7,9,11,13,15,17,19,21,23,25,27,-1,29,31,33,35,37,39,41,43,45,47,49,51,53,55,57,59,61,63,65,-1,-1,-1,67,69,71,73,75,77,79,81,83,85,87,89,91,93,95,97,99,101,-1,-1,-1,-1,-1,-1,-1,-1,-1,-1,-1,-1,-1,-1,-1,-1,-1,-1,-1,-1,-1,-1,-1,-1,-1,-1,-1,-1,-1,-1,-1,-1,-1,-1,-1,-1,-1,-1,-1,-1,-1,-1,-1,-1,-1,-1,-1,-1],"loss_changes":[3.0801285E2,2.6681168E2,3.2382294E1,3.1918213E1,2.251087E2,2.653032E1,6.2388763E0,2.364798E1,1.8106674E1,1.3375565E2,3.391354E1,1.1566048E1,8.664612E0,5.7005935E0,0E0,1.9975033E1,1.2814209E1,1.4116616E1,6.4304924E0,7.630231E1,6.893877E1,1.7796406E1,1.5028183E1,7.248335E0,1.0955132E1,3.3804255E0,3.7174225E0,2.4702418E0,2.9593086E-1,1.8832851E1,2.9637308E0,1.7401253E1,1.5897762E1,1.5886353E1,0E0,0E0,0E0,8.5194275E1,1.9261923E1,4.6385014E1,1.3079459E2,3.399194E1,2.0566788E1,1.5507608E1,2.7910519E1,6.08578E0,3.8712308E0,3.4186401E0,5.807082E0,5.861696E0,2.4037666E0,2.3084423E-1,3.7313538E0,1.9534295E0,1.2879207E0,0E0,0E0,0E0,0E0,0E0,0E0,0E0,0E0,0E0,0E0,0E0,0E0,0E0,0E0,0E0,0E0,0E0,0E0,0E0,0E0,0E0,0E0,0E0,0E0,0E0,0E0,0E0,0E0,0E0,0E0,0E0,0E0,0E0,0E0,0E0,0E0,0E0,0E0,0E0,0E0,0E0,0E0,0E0,0E0,0E0,0E0,0E0,0E0],"parents":[2147483647,0,0,1,1,2,2,3,3,4,4,5,5,6,6,7,7,8,8,9,9,10,10,11,11,12,12,13,13,15,15,16,16,17,17,18,18,19,19,20,20,21,21,22,22,23,23,24,24,25,25,26,26,27,27,28,28,29,29,30,30,31,31,32,32,33,33,37,37,38,38,39,39,40,40,41,41,42,42,43,43,44,44,45,45,46,46,47,47,48,48,49,49,50,50,51,51,52,52,53,53,54,54],"right_children":[2,4,6,8,10,12,14,16,18,20,22,24,26,28,-1,30,32,34,36,38,40,42,44,46,48,50,52,54,56,58,60,62,64,66,-1,-1,-1,68,70,72,74,76,78,80,82,84,86,88,90,92,94,96,98,100,102,-1,-1,-1,-1,-1,-1,-1,-1,-1,-1,-1,-1,-1,-1,-1,-1,-1,-1,-1,-1,-1,-1,-1,-1,-1,-1,-1,-1,-1,-1,-1,-1,-1,-1,-1,-1,-1,-1,-1,-1,-1,-1,-1,-1,-1,-1,-1,-1],"split_conditions":[2.4685712E2,1.0709823E2,1.802025E1,1.5011917E1,7.1765003E0,2.7809973E2,2.1045248E1,1.1726277E1,2.1734833E1,1.5E0,1.6932753E1,3E-1,1.3556282E1,8E-1,5.4688126E-1,5.848334E-1,3.511208E1,2.6525429E1,6E-1,2.6064596E1,4.2535834E0,1.2274417E1,2.2467995E2,2.429133E1,3.1319998E1,1.1043261E1,-3.646417E0,1.4618837E1,1.838275E1,9.793059E0,2.9494169E0,2.4E0,2.2101183E1,7E-1,6.601601E-1,1.0984232E0,7.842322E-2,1.0000001E0,3.7806666E0,1.1693304E2,1.8208069E2,2.0181393E2,1.0966713E1,1.7295252E1,2.371845E2,1.2475961E1,2.6717722E1,1.3039754E1,7.7015004E0,-9.6725005E-1,3.324143E2,-8.040166E0,3.1142792E2,2.0689001E1,1.9147333E1,1.2859014E-1,3.8929728E-1,-6.940767E-2,4.5846447E-1,-3.0383766E-2,-2.773251E-1,-3.7876433E-1,1.3824752E-1,-1.2083022E-1,-3.2930246E-1,-1.256078E-1,2.1346876E-1,5.5700374E-1,1.3365126E0,-3.6706832E-1,2.97648E-1,7.5356704E-1,-4.8825968E-2,9.8119164E-1,1.8047246E-1,1.8699235E-1,-7.70842E-2,4.0584567E-1,-8.6144686E-2,-1.7825621E-1,1.8928963E-1,8.4875757E-1,-6.17184E-3,9.134524E-2,-1.5643033E-1,2.911847E-1,5.6684846E-3,4.3234244E-2,-2.6845828E-1,1.5987894E-2,-1.9230095E-1,-2.6759884E-1,2.8869215E-1,-1.2947959E-1,-3.3203286E-1,1.1095845E-1,-3.9041538E-2,-2.943216E-1,-4.0044644E-1,1.4595607E-1,-1.1360773E-1,-2.731052E-1,1.4771748E-2],"split_indices":[3,3,0,0,0,3,0,2,0,1,0,1,2,1,0,0,3,2,1,2,0,0,3,2,2,2,0,2,0,2,0,1,2,1,0,0,0,1,0,3,3,3,2,0,3,2,2,2,0,0,3,0,3,0,0,0,0,0,0,0,0,0,0,0,0,0,0,0,0,0,0,0,0,0,0,0,0,0,0,0,0,0,0,0,0,0,0,0,0,0,0,0,0,0,0,0,0,0,0,0,0,0,0],"split_type":[0,0,0,0,0,0,0,0,0,0,0,0,0,0,0,0,0,0,0,0,0,0,0,0,0,0,0,0,0,0,0,0,0,0,0,0,0,0,0,0,0,0,0,0,0,0,0,0,0,0,0,0,0,0,0,0,0,0,0,0,0,0,0,0,0,0,0,0,0,0,0,0,0,0,0,0,0,0,0,0,0,0,0,0,0,0,0,0,0,0,0,0,0,0,0,0,0,0,0,0,0,0,0],"sum_hessian":[1.614E3,1.159E3,4.55E2,3.47E2,8.12E2,4.33E2,2.2E1,2.9E2,5.7E1,3.42E2,4.7E2,2.37E2,1.96E2,2E1,2E0,4.2E1,2.48E2,5.5E1,2E0,1.45E2,1.97E2,3.64E2,1.06E2,8.3E1,1.54E2,3.2E1,1.64E2,1.5E1,5E0,2.3E1,1.9E1,6.4E1,1.84E2,5.3E1,2E0,1E0,1E0,1.31E2,1.4E1,9.3E1,1.04E2,1.75E2,1.89E2,9.3E1,1.3E1,6.3E1,2E1,1.07E2,4.7E1,5E0,2.7E1,2E0,1.62E2,1E1,5E0,2E0,3E0,1.1E1,1.2E1,7E0,1.2E1,5.8E1,6E0,1.41E2,4.3E1,3.5E1,1.8E1,1.17E2,1.4E1,8E0,6E0,6E0,8.7E1,2.3E1,8.1E1,9.5E1,8E1,7E0,1.82E2,1.1E1,8.2E1,7E0,6E0,1E1,5.3E1,5E0,1.5E1,3E0,1.04E2,2.5E1,2.2E1,2E0,3E0,1.9E1,8E0,1E0,1E0,9.3E1,6.9E1,7E0,3E0,3E0,2E0],"tree_param":{"num_deleted":"0","num_feature":"4","num_nodes":"103","size_leaf_vector":"1"}},{"base_weights":[4.157067E-3,2.183343E-1,-4.5635298E-1,-4.373886E-1,4.2621493E-1,-5.117649E-1,2.1168712E-1,-5.1266795E-1,3.0881116E-1,8.449583E-1,1.09075636E-1,-3.374318E-1,-7.274624E-1,1.0769566E-1,4.3750498E-1,-1.4618333E-1,-6.0975975E-1,4.2486596E-1,-2.0516379E-1,1.1660113E0,1.4804487E-1,6.646465E-2,1.4199039E0,-1.2953408E-1,-4.4422066E-1,-1.2653947E-1,-7.932142E-1,4.6410772E-1,-1.7260891E-1,-3.1830975E-1,1.5354669E0,-3.384487E-1,-7.0882255E-1,2.2741207E-1,7.1532774E-1,4.2741728E-1,1.5509069E0,2.8204557E-2,1.5563636E0,-4.0614048E-1,1.812791E-1,2.036839E0,6.254808E-1,-1.7980145E-1,3.0261946E-1,-2.7920163E-1,-6.79682E-1,-3.1035262E-1,3.4231842E-1,-8.5181355E-1,-4.7726062E-1,4.3790434E-2,8.328575E-1,-3.2585603E-1,2.9035947E-1,-4.0577413E-4,-2.406046E-1,6.2785393E-1,1.3987954E-1,-2.4015693E-1,-1.02436E-2,-1.9454889E-1,-3.6033875E-1,9.9384286E-2,-2.930751E-1,3.0469978E-1,-7.289815E-2,6.6266525E-1,3.0398E-1,1.7637685E-1,-1.11612566E-1,7.7212864E-1,-1.0764745E-1,2.0170416E-1,-1.7354165E-1,1.705315E-1,-2.7694842E-2,7.2638243E-1,1.7670637E-1,-8.080497E-2,4.7629467E-1,5.0605666E-2,-1.0357204E-1,-2.6606423E-1,-4.7590908E-2,-2.9149005E-1,-1.7727853E-1,-2.498919E-1,-8.062314E-3,-1.946469E-1,-2.8952694E-1,3.945608E-3,-2.3164976E-1,4.3903604E-2,-1.1649734E-1,3.7634158E-1,-2.3335398E-3,3.6899615E-2,-1.42028E-1,-6.6766026E-3,1.3566922E-1],"categories":[],"categories_nodes":[],"categories_segments":[],"categories_sizes":[],"default_left":[0,0,0,0,0,0,0,0,0,0,0,0,0,0,0,0,0,0,0,0,0,0,0,0,0,0,0,0,0,0,0,0,0,0,0,0,0,0,0,0,0,0,0,0,0,0,0,0,0,0,0,0,0,0,0,0,0,0,0,0,0,0,0,0,0,0,0,0,0,0,0,0,0,0,0,0,0,0,0,0,0,0,0,0,0,0,0,0,0,0,0,0,0,0,0,0,0,0,0,0,0],"id":2,"left_children":[1,3,5,7,9,11,13,15,17,19,21,23,25,27,-1,29,31,33,-1,35,37,39,41,43,45,47,49,51,53,55,57,59,61,63,-1,65,67,69,71,73,75,77,79,81,-1,83,85,87,-1,89,91,93,95,97,99,-1,-1,-1,-1,-1,-1,-1,-1,-1,-1,-1,-1,-1,-1,-1,-1,-1,-1,-1,-1,-1,-1,-1,-1,-1,-1,-1,-1,-1,-1,-1,-1,-1,-1,-1,-1,-1,-1,-1,-1,-1,-1,-1,-1,-1,-1],"loss_changes":[1.5938834E2,1.5053867E2,1.9098259E1,1.5100456E1,1.1119423E2,1.7578453E1,5.028634E0,8.521866E0,3.1707187E0,8.059973E1,2.6604647E1,5.803564E0,8.23661E0,3.8764584E0,0E0,1.5540489E1,4.89357E0,8.356974E0,0E0,6.955466E1,1.936504E1,2.5251144E1,6.077608E0,5.3881745E0,6.571106E0,5.4801683E0,3.1112518E0,2.5983913E0,1.655484E0,7.357984E0,2.003934E0,7.4250383E0,3.3492355E0,3.0756645E0,0E0,3.4162487E1,5.507013E1,2.4189432E1,1.8460115E1,1.7301971E1,3.9668392E1,3.0265617E0,7.3154535E0,5.1317215E0,0E0,7.4788704E0,1.2655678E0,2.9406443E0,0E0,3.0298767E0,4.638163E0,4.5566905E-1,3.199576E0,1.1842732E0,3.1368458E-1,0E0,0E0,0E0,0E0,0E0,0E0,0E0,0E0,0E0,0E0,0E0,0E0,0E0,0E0,0E0,0E0,0E0,0E0,0E0,0E0,0E0,0E0,0E0,0E0,0E0,0E0,0E0,0E0,0E0,0E0,0E0,0E0,0E0,0E0,0E0,0E0,0E0,0E0,0E0,0E0,0E0,0E0,0E0,0E0,0E0,0E0],"parents":[2147483647,0,0,1,1,2,2,3,3,4,4,5,5,6,6,7,7,8,8,9,9,10,10,11,11,12,12,13,13,15,15,16,16,17,17,19,19,20,20,21,21,22,22,23,23,24,24,25,25,26,26,27,27,28,28,29,29,30,30,31,31,32,32,33,33,35,35,36,36,37,37,38,38,39,39,40,40,41,41,42,42,43,43,45,45,46,46,47,47,49,49,50,50,51,51,52,52,53,53,54,54],"right_children":[2,4,6,8,10,12,14,16,18,20,22,24,26,28,-1,30,32,34,-1,36,38,40,42,44,46,48,50,52,54,56,58,60,62,64,-1,66,68,70,72,74,76,78,80,82,-1,84,86,88,-1,90,92,94,96,98,100,-1,-1,-1,-1,-1,-1,-1,-1,-1,-1,-1,-1,-1,-1,-1,-1,-1,-1,-1,-1,-1,-1,-1,-1,-1,-1,-1,-1,-1,-1,-1,-1,-1,-1,-1,-1,-1,-1,-1,-1,-1,-1,-1,-1,-1,-1],"split_conditions":[2.409757E2,7.9719055E1,1.718067E1,1.6651499E1,7.1765003E0,2.741072E2,2.1045248E1,1.2904882E1,2.5071098E1,4.7E0,2.1045248E1,4E-1,1.2475961E1,2.7500568E2,4.3750498E-1,1.255879E1,-2.1416605E-2,2.3749088E1,-2.0516379E-1,2.1994166E0,6.4910836E0,1.3833617E2,1.3896187E1,3.6764088E1,1.2726501E1,1.2245293E1,2.95551E1,2.6232864E2,8.000001E-1,2.9494169E0,1.2620554E1,3.8106228E1,5.2E0,2.1288757E1,7.1532774E-1,1.4071062E2,5E-1,2.2702845E1,2.064175E2,8.658218E1,1.4000002E0,6E-1,1E-1,2.5193994E2,3.0261946E-1,3.5285828E0,1E0,1.9973334E0,3.4231842E-1,1.6904673E1,1E-1,1.9016087E1,1.8472595E1,1.7674417E1,1.7572336E1,-4.0577413E-4,-2.406046E-1,6.2785393E-1,1.3987954E-1,-2.4015693E-1,-1.02436E-2,-1.9454889E-1,-3.6033875E-1,9.9384286E-2,-2.930751E-1,3.0469978E-1,-7.289815E-2,6.6266525E-1,3.0398E-1,1.7637685E-1,-1.11612566E-1,7.7212864E-1,-1.0764745E-1,2.0170416E-1,-1.7354165E-1,1.705315E-1,-2.7694842E-2,7.2638243E-1,1.7670637E-1,-8.080497E-2,4.7629467E-1,5.0605666E-2,-1.0357204E-1,-2.6606423E-1,-4.7590908E-2,-2.9149005E-1,-1.7727853E-1,-2.498919E-1,-8.062314E-3,-1.946469E-1,-2.8952694E-1,3.945608E-3,-2.3164976E-1,4.3903604E-2,-1.1649734E-1,3.7634158E-1,-2.3335398E-3,3.6899615E-2,-1.42028E-1,-6.6766026E-3,1.3566922E-1],"split_indices":[3,3,0,0,0,3,0,2,2,1,0,1,2,3,0,2,0,2,0,0,0,3,2,2,0,2,2,3,1,0,2,3,1,2,0,3,1,2,3,3,1,1,1,3,0,0,1,0,0,2,1,0,2,0,0,0,0,0,0,0,0,0,0,0,0,0,0,0,0,0,0,0,0,0,0,0,0,0,0,0,0,0,0,0,0,0,0,0,0,0,0,0,0,0,0,0,0,0,0,0,0],"split_type":[0,0,0,0,0,0,0,0,0,0,0,0,0,0,0,0,0,0,0,0,0,0,0,0,0,0,0,0,0,0,0,0,0,0,0,0,0,0,0,0,0,0,0,0,0,0,0,0,0,0,0,0,0,0,0,0,0,0,0,0,0,0,0,0,0,0,0,0,0,0,0,0,0,0,0,0,0,0,0,0,0,0,0,0,0,0,0,0,0,0,0,0,0,0,0,0,0,0,0,0,0],"sum_hessian":[1.614E3,1.102E3,5.12E2,2.65E2,8.37E2,4.73E2,3.9E1,2.41E2,2.4E1,3.6E2,4.77E2,2.63E2,2.1E2,3.7E1,2E0,5.1E1,1.9E2,2.2E1,2E0,2.46E2,1.14E2,4.63E2,1.4E1,9E1,1.73E2,2.1E1,1.89E2,1.6E1,2.1E1,4.7E1,4E0,5.2E1,1.38E2,2.1E1,1E0,8.5E1,1.61E2,1.06E2,8E0,9E1,3.73E2,7E0,7E0,8.7E1,3E0,1.03E2,7E1,1.9E1,2E0,1.58E2,3.1E1,8E0,8E0,1.6E1,5E0,2.9E1,1.8E1,2E0,2E0,2E1,3.2E1,1.25E2,1.3E1,2E1,1E0,4.5E1,4E1,7.1E1,9E1,4.4E1,6.2E1,5E0,3E0,1.2E1,7.8E1,1.54E2,2.19E2,5E0,2E0,4E0,3E0,2.8E1,5.9E1,1.6E1,8.7E1,1.4E1,5.6E1,6E0,1.3E1,5.9E1,9.9E1,1.2E1,1.9E1,7E0,1E0,5E0,3E0,4E0,1.2E1,2E0,3E0],"tree_param":{"num_deleted":"0","num_feature":"4","num_nodes":"101","size_leaf_vector":"1"}},{"base_weights":[4.790867E-3,1.7669582E-1,-3.0560142E-1,-2.5289598E-1,3.921666E-1,6.6096854E-1,-3.6367348E-1,-2.797464E-1,1.3242036E0,7.633799E-1,1.1017944E-1,4.9111443E0,7.224613E-2,-6.273154E-1,-2.8021052E-1,-4.407871E-1,-9.709731E-2,8.247025E-1,1.4683233E-1,1.7699041E0,7.0892775E-1,-3.454511E-1,2.6373643E-1,2.1441216E0,-2.6949573E-1,3.8308623E-1,-5.940994E-2,8.3295524E-2,-6.6843385E-1,-5.9002526E-2,-3.8318035E-1,4.032494E-1,-5.4164565E-1,7.3483236E-2,-6.1920506E-1,9.7586584E-1,9.39265E-2,-6.787424E-1,5.358246E-1,9.919132E-1,3.3805974E-2,-1.3272214E-1,2.8800297E-1,1.687033E-1,-3.1660262E-1,-1.069366E0,-6.028473E-1,1.6334534E-1,-4.313669E-1,-4.753536E-1,-1.1151271E-1,-3.4819048E-2,5.953202E-1,-1.1889026E-1,-3.1301448E-1,-6.1852913E-2,2.2651634E-1,-2.320448E-1,2.8879905E-1,1.5301421E-1,4.657785E-1,4.8847118E-1,-2.207286E-2,2.4419816E-1,-2.3312247E-1,-1.9316532E-1,4.011124E-1,5.6317174E-1,7.76564E-2,-6.421417E-3,4.1021267E-1,-6.766736E-2,9.625996E-2,-2.2543208E-1,-6.0099456E-3,-3.539043E-1,8.780369E-2,1.5010755E-1,-1.9173984E-1,-1.2445809E-2,1.8656173E-1,-1.8748236E-1,-5.653148E-3,-1.4808825E-1,2.8685284E-1,6.2186293E-2,-1.1391156E-1],"categories":[],"categories_nodes":[],"categories_segments":[],"categories_sizes":[],"default_left":[0,0,0,0,0,0,0,0,0,0,0,0,0,0,0,0,0,0,0,0,0,0,0,0,0,0,0,0,0,0,0,0,0,0,0,0,0,0,0,0,0,0,0,0,0,0,0,0,0,0,0,0,0,0,0,0,0,0,0,0,0,0,0,0,0,0,0,0,0,0,0,0,0,0,0,0,0,0,0,0,0,0,0,0,0,0,0],"id":3,"left_children":[1,3,5,7,9,11,13,15,17,19,21,23,25,27,29,31,33,-1,-1,-1,35,37,39,-1,-1,-1,41,43,45,47,49,51,53,55,57,59,61,63,65,67,69,71,-1,-1,73,75,77,79,81,83,85,-1,-1,-1,-1,-1,-1,-1,-1,-1,-1,-1,-1,-1,-1,-1,-1,-1,-1,-1,-1,-1,-1,-1,-1,-1,-1,-1,-1,-1,-1,-1,-1,-1,-1,-1,-1],"loss_changes":[8.622712E1,9.636623E1,3.2571667E1,1.5106789E1,7.245731E1,8.221692E1,1.1794579E1,1.0046183E1,5.790763E0,7.944261E1,2.7727386E1,5.8378494E1,4.834077E0,3.8541756E0,9.430157E0,1.5711765E1,1.4473453E1,0E0,0E0,0E0,4.8666016E1,2.9735842E1,4.9525757E1,0E0,0E0,0E0,2.22002E0,1.7106055E0,2.5897179E0,1.1082119E1,7.033451E0,1.6652563E1,1.1473232E1,2.3600449E1,1.05064745E1,5.4818863E1,2.3506907E1,1.1347797E1,2.7326569E1,4.559276E1,1.6669039E1,1.2093229E0,0E0,0E0,6.29744E-1,2.7493286E0,4.64307E0,7.915141E0,3.980917E0,5.9916573E0,6.3201976E0,0E0,0E0,0E0,0E0,0E0,0E0,0E0,0E0,0E0,0E0,0E0,0E0,0E0,0E0,0E0,0E0,0E0,0E0,0E0,0E0,0E0,0E0,0E0,0E0,0E0,0E0,0E0,0E0,0E0,0E0,0E0,0E0,0E0,0E0,0E0,0E0],"parents":[2147483647,0,0,1,1,2,2,3,3,4,4,5,5,6,6,7,7,8,8,9,9,10,10,11,11,12,12,13,13,14,14,15,15,16,16,20,20,21,21,22,22,26,26,27,27,28,28,29,29,30,30,31,31,32,32,33,33,34,34,35,35,36,36,37,37,38,38,39,39,40,40,41,41,44,44,45,45,46,46,47,47,48,48,49,49,50,50],"right_children":[2,4,6,8,10,12,14,16,18,20,22,24,26,28,30,32,34,-1,-1,-1,36,38,40,-1,-1,-1,42,44,46,48,50,52,54,56,58,60,62,64,66,68,70,72,-1,-1,74,76,78,80,82,84,86,-1,-1,-1,-1,-1,-1,-1,-1,-1,-1,-1,-1,-1,-1,-1,-1,-1,-1,-1,-1,-1,-1,-1,-1,-1,-1,-1,-1,-1,-1,-1,-1,-1,-1,-1,-1],"split_conditions":[2.3227835E2,1.0709823E2,1.1901798E1,2.0689001E1,7.1765003E0,2.3860562E2,4.6389995E0,1E-1,1.0464797E1,1.08673004E2,1E-1,1E-1,2.4317711E2,-2.7485E0,1E-1,1.024578E1,3.8000002E0,8.247025E-1,1.4683233E-1,1.7699041E0,5.3E0,2.0676654E2,1.4000002E0,2.1441216E0,-2.6949573E-1,3.8308623E-1,2.1045248E1,1.5379206E1,2.4425111E2,2.9001022E2,3.1003918E1,9.931042E0,7.690808E1,7.607254E1,1.718067E1,4.018167E0,9.09833E-1,9.793059E0,1.5049418E1,1.8258398E2,2.012025E1,1.1E0,2.8800297E-1,1.687033E-1,-6.336E0,4.4119167E0,2.4584581E2,2.1203358E1,1.29035845E1,1.82265E1,7.7015004E0,-3.4819048E-2,5.953202E-1,-1.1889026E-1,-3.1301448E-1,-6.1852913E-2,2.2651634E-1,-2.320448E-1,2.8879905E-1,1.5301421E-1,4.657785E-1,4.8847118E-1,-2.207286E-2,2.4419816E-1,-2.3312247E-1,-1.9316532E-1,4.011124E-1,5.6317174E-1,7.76564E-2,-6.421417E-3,4.1021267E-1,-6.766736E-2,9.625996E-2,-2.2543208E-1,-6.0099456E-3,-3.539043E-1,8.780369E-2,1.5010755E-1,-1.9173984E-1,-1.2445809E-2,1.8656173E-1,-1.8748236E-1,-5.653148E-3,-1.4808825E-1,2.8685284E-1,6.2186293E-2,-1.1391156E-1],"split_indices":[3,3,2,0,0,3,0,1,2,3,1,1,3,0,1,2,1,0,0,0,1,3,1,0,0,0,0,2,3,3,2,2,3,3,0,0,0,2,0,3,0,1,0,0,0,0,3,2,0,0,0,0,0,0,0,0,0,0,0,0,0,0,0,0,0,0,0,0,0,0,0,0,0,0,0,0,0,0,0,0,0,0,0,0,0,0,0],"split_type":[0,0,0,0,0,0,0,0,0,0,0,0,0,0,0,0,0,0,0,0,0,0,0,0,0,0,0,0,0,0,0,0,0,0,0,0,0,0,0,0,0,0,0,0,0,0,0,0,0,0,0,0,0,0,0,0,0,0,0,0,0,0,0,0,0,0,0,0,0,0,0,0,0,0,0,0,0,0,0,0,0,0,0,0,0,0,0],"sum_hessian":[1.614E3,1.039E3,5.75E2,3.47E2,6.92E2,3.2E1,5.43E2,3.42E2,5E0,2.98E2,3.94E2,3E0,2.9E1,1.29E2,4.14E2,1.81E2,1.61E2,1E0,4E0,2E0,2.96E2,9.9E1,2.95E2,2E0,1E0,2E0,2.7E1,7E0,1.22E2,1.32E2,2.82E2,1.9E1,1.62E2,1.22E2,3.9E1,2.06E2,9E1,7.2E1,2.7E1,7E1,2.25E2,2.6E1,1E0,3E0,4E0,1.5E1,1.07E2,8.3E1,4.9E1,2.1E2,7.2E1,1.5E1,4E0,1.27E2,3.5E1,8.7E1,3.5E1,3.6E1,3E0,1.15E2,9.1E1,8E0,8.2E1,4E0,6.8E1,1.1E1,1.6E1,3.1E1,3.9E1,2.17E2,8E0,2.2E1,4E0,1E0,3E0,1.4E1,1E0,3E0,1.04E2,5.8E1,2.5E1,3.3E1,1.6E1,2.08E2,2E0,3.3E1,3.9E1],"tree_param":{"num_deleted":"0","num_feature":"4","num_nodes":"87","size_leaf_vector":"1"}},{"base_weights":[8.12892E-3,1.2891811E-1,-2.0997679E-1,-1.4383504E-1,3.2066104E-1,3.920848E-1,-2.6669994E-1,-2.847765E-1,1.5645254E-1,6.5602815E-1,1.04914695E-1,2.4482925E0,1.092108E-1,-3.125952E-1,6.43184E-2,-2.0237187E-1,-1.0574499E0,5.4464436E-1,-3.72561E-1,2.608446E0,4.658144E-1,-2.6478305E-1,2.3945798E-1,-6.1580443E-1,1.7152973E0,1.9454741E-1,-6.123916E-1,-8.6085963E-1,-2.8976703E-1,2.7235135E-1,-1.726323E-1,-2.293989E-1,1.6252488E0,-1.5806354E0,-4.2136195E-1,-1.9714466E-1,1.0179628E0,-1.3213596E0,-2.9813683E-1,1.2509112E0,8.065241E0,-2.434773E-2,1.0712631E0,-1.0944029E0,1.2380562E-1,4.1705287E-1,-3.3799413E-1,-4.3128848E-2,-2.1756922E-1,-3.7817395E-1,3.235834E-1,1.2572233E-1,-2.9250804E-1,-9.178727E-1,1.625433E-2,-1.713521E-1,-4.0954986E-1,7.485005E-1,-4.303226E-2,-3.641428E-1,1.2054706E-1,-1.5050611E-1,-3.8412645E-2,1.827681E-1,7.009971E-1,-6.045343E-1,-1.7791942E-1,1.295725E-1,-1.798698E-1,2.1088865E-1,-1.4318793E-1,4.6334204E-1,-4.934843E-2,-4.5709863E-1,-1.07167825E-1,2.293999E-1,-1.25198E-1,6.844742E-1,-3.5720718E-1,4.143245E-1,2.94988E0,7.3338616E-1,-6.571581E-2,5.749316E-1,1.0413357E-1,4.5981705E-1,-3.9619064E-1,6.1385494E-1,1.6266162E-3,2.762439E-1,2.8080096E-2,8.0762185E-2,-1.283815E-1,-2.1002237E-1,-1.3505596E-2,6.75427E-2,3.0168176E-1,-1.6678807E-1,-3.1942132E-1,-1.3002142E-1,-3.379997E-2,-1.3812883E-1,-1.7044628E-2,1.1170441E-1,4.0533164E-1,-4.9022406E-2,1.618532E-1,-1.3107619E-1,5.089369E-2,3.384591E-1,-4.9567614E-2],"categories":[],"categories_nodes":[],"categories_segments":[],"categories_sizes":[],"default_left":[0,0,0,0,0,0,0,0,0,0,0,0,0,0,0,0,0,0,0,0,0,0,0,0,0,0,0,0,0,0,0,0,0,0,0,0,0,0,0,0,0,0,0,0,0,0,0,0,0,0,0,0,0,0,0,0,0,0,0,0,0,0,0,0,0,0,0,0,0,0,0,0,0,0,0,0,0,0,0,0,0,0,0,0,0,0,0,0,0,0,0,0,0,0,0,0,0,0,0,0,0,0,0,0,0,0,0,0,0,0,0],"id":4,"left_children":[1,3,5,7,9,11,13,15,17,19,21,23,25,27,29,31,33,35,37,39,41,43,45,47,-1,49,51,53,55,57,59,61,63,65,67,69,71,73,75,77,79,81,83,85,87,89,91,-1,-1,93,95,-1,-1,97,-1,99,101,103,105,107,109,-1,-1,-1,-1,-1,-1,-1,-1,-1,-1,-1,-1,-1,-1,-1,-1,-1,-1,-1,-1,-1,-1,-1,-1,-1,-1,-1,-1,-1,-1,-1,-1,-1,-1,-1,-1,-1,-1,-1,-1,-1,-1,-1,-1,-1,-1,-1,-1,-1,-1],"loss_changes":[4.2573944E1,5.4436554E1,1.9775448E1,1.8243431E1,4.4139603E1,2.8815004E1,8.026375E0,1.844186E1,2.854242E1,8.754395E1,1.8616554E1,6.362687E1,2.8901987E0,5.545395E0,3.251098E0,1.3511945E1,8.652155E0,2.8288883E1,3.772255E0,1.4547464E2,6.501829E1,3.237358E1,2.824036E1,1.0235369E-1,0E0,3.152339E0,2.2788377E0,9.887781E-1,6.2559204E0,5.288148E0,1.784451E0,7.1941004E0,1.4676704E0,5.241085E0,2.3877442E0,8.40475E0,3.0760307E1,2.358942E-1,7.4129343E0,4.801336E1,3.3682037E1,5.9183376E1,5.931421E1,2.1043095E1,1.5691781E1,3.4131733E1,3.6651292E0,0E0,0E0,8.2642686E-1,2.0563223E0,0E0,0E0,3.1163692E-1,0E0,3.426756E0,3.9401207E0,2.6703176E0,1.6308889E0,8.1223273E-1,3.929868E0,0E0,0E0,0E0,0E0,0E0,0E0,0E0,0E0,0E0,0E0,0E0,0E0,0E0,0E0,0E0,0E0,0E0,0E0,0E0,0E0,0E0,0E0,0E0,0E0,0E0,0E0,0E0,0E0,0E0,0E0,0E0,0E0,0E0,0E0,0E0,0E0,0E0,0E0,0E0,0E0,0E0,0E0,0E0,0E0,0E0,0E0,0E0,0E0,0E0,0E0],"parents":[2147483647,0,0,1,1,2,2,3,3,4,4,5,5,6,6,7,7,8,8,9,9,10,10,11,11,12,12,13,13,14,14,15,15,16,16,17,17,18,18,19,19,20,20,21,21,22,22,23,23,25,25,26,26,27,27,28,28,29,29,30,30,31,31,32,32,33,33,34,34,35,35,36,36,37,37,38,38,39,39,40,40,41,41,42,42,43,43,44,44,45,45,46,46,49,49,50,50,53,53,55,55,56,56,57,57,58,58,59,59,60,60],"right_children":[2,4,6,8,10,12,14,16,18,20,22,24,26,28,30,32,34,36,38,40,42,44,46,48,-1,50,52,54,56,58,60,62,64,66,68,70,72,74,76,78,80,82,84,86,88,90,92,-1,-1,94,96,-1,-1,98,-1,100,102,104,106,108,110,-1,-1,-1,-1,-1,-1,-1,-1,-1,-1,-1,-1,-1,-1,-1,-1,-1,-1,-1,-1,-1,-1,-1,-1,-1,-1,-1,-1,-1,-1,-1,-1,-1,-1,-1,-1,-1,-1,-1,-1,-1,-1,-1,-1,-1,-1,-1,-1,-1,-1],"split_conditions":[2.3227835E2,1.2955962E2,1.2475961E1,1E0,6.5598335E0,2.3860562E2,1.5822331E1,1.13622284E2,1.935314E1,1.2849528E1,1.5137133E1,2.3677872E2,3.5079565E2,2.3484978E2,1.8472595E1,2.0689001E1,7.2723336E0,1.4689588E1,1.4E0,2.0332909E2,4.2535834E0,1.2051498E1,2.5153671E1,2.424417E0,1.7152973E0,1.0829959E1,1.024578E1,1.4200002E1,2.6777612E2,2.741072E2,1.7105667E1,3.382833E1,1E-1,1.2025637E2,8.409833E0,1.7702502E0,3.5E0,1.0983335E-1,1.8000002E0,3.264E0,3.7264996E0,1.3344772E2,3.3999991E0,1.3344772E2,1.2274417E1,1.1936919E1,1.7151622E2,-4.3128848E-2,-2.1756922E-1,1.718067E1,3.223466E2,1.2572233E-1,-2.9250804E-1,6E-1,1.625433E-2,4.2535834E0,3.255363E1,2.5969516E2,1.9361914E1,5.3E0,2.4981857E2,-1.5050611E-1,-3.8412645E-2,1.827681E-1,7.009971E-1,-6.045343E-1,-1.7791942E-1,1.295725E-1,-1.798698E-1,2.1088865E-1,-1.4318793E-1,4.6334204E-1,-4.934843E-2,-4.5709863E-1,-1.07167825E-1,2.293999E-1,-1.25198E-1,6.844742E-1,-3.5720718E-1,4.143245E-1,2.94988E0,7.3338616E-1,-6.571581E-2,5.749316E-1,1.0413357E-1,4.5981705E-1,-3.9619064E-1,6.1385494E-1,1.6266162E-3,2.762439E-1,2.8080096E-2,8.0762185E-2,-1.283815E-1,-2.1002237E-1,-1.3505596E-2,6.75427E-2,3.0168176E-1,-1.6678807E-1,-3.1942132E-1,-1.3002142E-1,-3.379997E-2,-1.3812883E-1,-1.7044628E-2,1.1170441E-1,4.0533164E-1,-4.9022406E-2,1.618532E-1,-1.3107619E-1,5.089369E-2,3.384591E-1,-4.9567614E-2],"split_indices":[3,3,2,1,0,3,0,3,2,2,2,3,3,3,2,0,0,2,1,3,0,0,2,0,0,2,2,1,3,3,0,3,1,3,0,0,1,0,1,0,0,3,1,3,0,0,3,0,0,0,3,0,0,1,0,0,2,3,0,1,3,0,0,0,0,0,0,0,0,0,0,0,0,0,0,0,0,0,0,0,0,0,0,0,0,0,0,0,0,0,0,0,0,0,0,0,0,0,0,0,0,0,0,0,0,0,0,0,0,0,0],"split_type":[0,0,0,0,0,0,0,0,0,0,0,0,0,0,0,0,0,0,0,0,0,0,0,0,0,0,0,0,0,0,0,0,0,0,0,0,0,0,0,0,0,0,0,0,0,0,0,0,0,0,0,0,0,0,0,0,0,0,0,0,0,0,0,0,0,0,0,0,0,0,0,0,0,0,0,0,0,0,0,0,0,0,0,0,0,0,0,0,0,0,0,0,0,0,0,0,0,0,0,0,0,0,0,0,0,0,0,0,0,0,0],"sum_hessian":[1.614E3,1.039E3,5.75E2,4.29E2,6.1E2,4.9E1,5.26E2,2.92E2,1.37E2,2.38E2,3.72E2,5E0,4.4E1,4.62E2,6.4E1,2.65E2,2.7E1,7.9E1,5.8E1,2E1,2.18E2,9.9E1,2.73E2,3E0,2E0,4E1,4E0,1.7E1,4.45E2,3.4E1,3E1,2.62E2,3E0,1.4E1,1.3E1,3.1E1,4.8E1,3E0,5.5E1,1.7E1,3E0,1.21E2,9.7E1,3.1E1,6.8E1,2.09E2,6.4E1,1E0,2E0,7E0,3.3E1,1E0,3E0,1.6E1,1E0,2.25E2,2.2E2,1.3E1,2.1E1,1.8E1,1.2E1,7E1,1.92E2,2E0,1E0,9E0,5E0,2E0,1.1E1,7E0,2.4E1,3.3E1,1.5E1,2E0,1E0,5E0,5E1,1.2E1,5E0,1E0,2E0,8E0,1.13E2,4.4E1,5.3E1,2E0,2.9E1,3E0,6.5E1,8.1E1,1.28E2,8E0,5.6E1,3E0,4E0,3E1,3E0,6E0,1E1,4E1,1.85E2,1.92E2,2.8E1,9E0,4E0,1.8E1,3E0,1.6E1,2E0,2E0,1E1],"tree_param":{"num_deleted":"0","num_feature":"4","num_nodes":"111","size_leaf_vector":"1"}},{"base_weights":[1.0235681E-2,1.1862771E-1,-1.3126068E-1,-4.734124E-2,4.3338323E-1,1.5620835E0,-1.5554129E-1,-2.0058836E-1,7.1237184E-2,1.3530453E0,1.9902846E-1,3.9782295E0,-4.172613E-2,-1.134389E0,-1.3659929E-1,-2.3206435E-1,1.1810647E0,2.2304964E-1,-2.149798E-1,-2.9393256E-1,1.6634845E0,-1.531414E-2,6.891533E-1,1.4527785E0,2.0777003E-1,-1.626906E-1,1.3208683E-1,-1.3183315E0,1.6093805E-1,3.016386E-1,-1.7336681E-1,-1.875928E-1,-1.2095557E0,-4.158086E-1,8.749623E-1,-1.5443866E-1,4.7210494E-1,-4.5362416E-1,4.693971E-1,1.2811556E0,-1.0447351E0,-3.9422208E-1,1.8644011E0,-6.062668E-1,1.243227E-1,2.0627308E0,1.3722731E-1,-4.9172048E-2,2.2406693E-1,-6.833301E-1,-5.0228566E-1,4.133442E0,7.032394E-2,-3.4212565E-1,-9.428725E-2,-7.472311E-2,3.4624988E-1,-6.183646E-1,2.388456E-1,-1.9796903E-1,4.746838E-2,-7.66125E-2,3.853229E-1,4.3314376E-1,3.4196407E-2,1.276521E-1,-1.7940995E-1,9.130499E-2,4.5221335E-1,1.163682E0,-2.633257E-1,-4.5709607E-1,-5.5471E-2,9.935001E-1,4.291911E-1,5.001279E-2,-5.603233E-1,-2.410247E-1,7.645028E-2,1.16779655E-1,1.9381281E0,-3.0324212E-1,9.655829E-2,9.791117E-2,1.4122296E-2,-2.8857988E-1,1.0645259E-1,1.8599279E0,1.2094975E-4,-9.046903E-2,1.2361786E-1,-3.6312467E-1,-8.98928E-2,3.567474E-1,-4.0221788E-2],"categories":[],"categories_nodes":[],"categories_segments":[],"categories_sizes":[],"default_left":[0,0,0,0,0,0,0,0,0,0,0,0,0,0,0,0,0,0,0,0,0,0,0,0,0,0,0,0,0,0,0,0,0,0,0,0,0,0,0,0,0,0,0,0,0,0,0,0,0,0,0,0,0,0,0,0,0,0,0,0,0,0,0,0,0,0,0,0,0,0,0,0,0,0,0,0,0,0,0,0,0,0,0,0,0,0,0,0,0,0,0,0,0,0,0],"id":5,"left_children":[1,3,5,7,9,11,13,15,17,19,21,23,25,27,29,31,33,35,37,39,41,43,45,-1,-1,-1,47,49,-1,51,53,55,57,59,-1,61,63,65,67,69,71,-1,73,75,77,79,81,-1,83,85,-1,87,89,91,93,-1,-1,-1,-1,-1,-1,-1,-1,-1,-1,-1,-1,-1,-1,-1,-1,-1,-1,-1,-1,-1,-1,-1,-1,-1,-1,-1,-1,-1,-1,-1,-1,-1,-1,-1,-1,-1,-1,-1,-1],"loss_changes":[2.4784952E1,4.781979E1,2.9064884E1,1.091737E1,6.783731E1,3.8916374E1,1.267565E1,1.1668177E1,1.4777944E1,3.321128E1,2.6589378E1,8.006233E0,6.8067694E-1,4.702654E0,1.1009083E1,1.0945026E1,1.7840736E1,2.0944345E1,1.9485004E1,1.434685E1,3.475496E1,1.4681193E1,5.8091637E1,0E0,0E0,0E0,2.0007923E-1,1.5682831E0,0E0,4.6685993E1,8.348639E0,2.0664234E1,2.0431019E1,6.6487616E-1,0E0,1.3253659E1,4.64654E1,1.1426456E1,4.8520174E0,2.5838255E1,3.0125856E0,0E0,2.727858E1,3.3464497E1,1.764034E1,1.5939178E2,1.2195422E1,0E0,7.517126E-2,2.07676E0,0E0,2.5618015E1,6.6057067E0,7.014818E0,2.206518E1,0E0,0E0,0E0,0E0,0E0,0E0,0E0,0E0,0E0,0E0,0E0,0E0,0E0,0E0,0E0,0E0,0E0,0E0,0E0,0E0,0E0,0E0,0E0,0E0,0E0,0E0,0E0,0E0,0E0,0E0,0E0,0E0,0E0,0E0,0E0,0E0,0E0,0E0,0E0,0E0],"parents":[2147483647,0,0,1,1,2,2,3,3,4,4,5,5,6,6,7,7,8,8,9,9,10,10,11,11,12,12,13,13,14,14,15,15,16,16,17,17,18,18,19,19,20,20,21,21,22,22,26,26,27,27,29,29,30,30,31,31,32,32,33,33,35,35,36,36,37,37,38,38,39,39,40,40,42,42,43,43,44,44,45,45,46,46,48,48,49,49,51,51,52,52,53,53,54,54],"right_children":[2,4,6,8,10,12,14,16,18,20,22,24,26,28,30,32,34,36,38,40,42,44,46,-1,-1,-1,48,50,-1,52,54,56,58,60,-1,62,64,66,68,70,72,-1,74,76,78,80,82,-1,84,86,-1,88,90,92,94,-1,-1,-1,-1,-1,-1,-1,-1,-1,-1,-1,-1,-1,-1,-1,-1,-1,-1,-1,-1,-1,-1,-1,-1,-1,-1,-1,-1,-1,-1,-1,-1,-1,-1,-1,-1,-1,-1,-1,-1],"split_conditions":[2.156651E2,1.6989838E2,1.024578E1,1E-1,1.8208069E2,2.3860562E2,2.1775667E2,1.6798756E2,3.8000002E0,1E-1,2.0559045E2,1.5661919E1,8.654986E0,1.4603585E1,1.2620554E1,1.6319589E2,1.7533146E1,7.607254E1,1.3957752E1,1.57908325E1,1.0556666E0,1.4512064E1,4.5785837E0,1.4527785E0,2.0777003E-1,-1.626906E-1,-2.4985E0,1.8289274E1,1.6093805E-1,2.1973943E2,5.830666E0,1.5367055E2,1.82265E1,1.1936919E1,8.749623E-1,3.4999998E0,2.6598332E0,1.0983335E-1,2.5488914E1,2.753583E0,1.8043148E1,-3.9422208E-1,1.2000002E0,1.3004921E1,1E-1,4.3410835E0,1.337825E1,-4.9172048E-2,1.9361914E1,1.6E0,-5.0228566E-1,4.093167E0,1.3643168E1,2.2467995E2,6.134834E0,-7.472311E-2,3.4624988E-1,-6.183646E-1,2.388456E-1,-1.9796903E-1,4.746838E-2,-7.66125E-2,3.853229E-1,4.3314376E-1,3.4196407E-2,1.276521E-1,-1.7940995E-1,9.130499E-2,4.5221335E-1,1.163682E0,-2.633257E-1,-4.5709607E-1,-5.5471E-2,9.935001E-1,4.291911E-1,5.001279E-2,-5.603233E-1,-2.410247E-1,7.645028E-2,1.16779655E-1,1.9381281E0,-3.0324212E-1,9.655829E-2,9.791117E-2,1.4122296E-2,-2.8857988E-1,1.0645259E-1,1.8599279E0,1.2094975E-4,-9.046903E-2,1.2361786E-1,-3.6312467E-1,-8.98928E-2,3.567474E-1,-4.0221788E-2],"split_indices":[3,3,2,1,3,3,3,3,1,1,3,0,2,0,2,3,2,3,0,2,0,2,0,0,0,0,0,2,0,3,0,3,0,0,0,1,0,0,2,0,2,0,1,2,1,0,2,0,0,1,0,0,0,3,0,0,0,0,0,0,0,0,0,0,0,0,0,0,0,0,0,0,0,0,0,0,0,0,0,0,0,0,0,0,0,0,0,0,0,0,0,0,0,0,0],"split_type":[0,0,0,0,0,0,0,0,0,0,0,0,0,0,0,0,0,0,0,0,0,0,0,0,0,0,0,0,0,0,0,0,0,0,0,0,0,0,0,0,0,0,0,0,0,0,0,0,0,0,0,0,0,0,0,0,0,0,0,0,0,0,0,0,0,0,0,0,0,0,0,0,0,0,0,0,0,0,0,0,0,0,0,0,0,0,0,0,0,0,0,0,0,0,0],"sum_hessian":[1.614E3,9.14E2,7E2,5.99E2,3.15E2,9E0,6.91E2,2.61E2,3.38E2,6.3E1,2.52E2,3E0,6E0,1.2E1,6.79E2,2.56E2,5E0,2.21E2,1.17E2,1E1,5.3E1,1.76E2,7.6E1,2E0,1E0,1E0,5E0,1.1E1,1E0,5.2E1,6.27E2,2.46E2,1E1,3E0,2E0,8.8E1,1.33E2,8.7E1,3E1,3E0,7E0,3E0,5E1,3.3E1,1.43E2,2.1E1,5.5E1,1E0,4E0,5E0,6E0,2E0,5E1,1.99E2,4.28E2,2.36E2,1E1,7E0,3E0,2E0,1E0,8.3E1,5E0,3.5E1,9.8E1,1.2E1,7.5E1,2.7E1,3E0,1E0,2E0,4E0,3E0,1E1,4E1,2.1E1,1.2E1,1.7E1,1.26E2,1.6E1,5E0,7E0,4.8E1,2E0,2E0,4E0,1E0,1E0,1E0,2.4E1,2.6E1,8E0,1.91E2,1.2E1,4.16E2],"tree_param":{"num_deleted":"0","num_feature":"4","num_nodes":"95","size_leaf_vector":"1"}},{"base_weights":[1.16651645E-2,6.495298E-2,-1.5089858E-1,-5.0667126E-2,1.5973696E-1,-1.656001E-1,6.960445E-1,-7.032662E-2,6.538993E-1,6.247817E-1,6.3088514E-2,-7.8352906E-2,-2.2644727E-1,2.0689487E-2,2.3671909E-1,-2.0042358E-1,1.9772943E-2,-7.8627266E-2,7.726439E-1,1.235057E0,1.8481122E-1,1.8970922E0,3.2797612E-2,4.7675338E-2,-2.551229E-1,-8.619358E-2,-2.9466075E-1,1.721063E-1,-4.819429E-1,2.4089832E0,-3.0442115E-3,1.27453E-1,-1.6283527E-1,5.907181E-1,5.0885427E-1,3.8844934E-1,2.506803E0,3.6326665E-2,3.3898678E0,7.788003E-1,1.1622227E0,2.935695E-1,-7.013481E-2,-2.9315197E-1,1.7845623E-1,3.7045005E-1,-2.8969473E-1,-2.5605905E-1,1.04365304E-1,-4.140759E-1,-1.5835392E-1,2.6229762E-2,1.219716E0,-4.414627E-1,-6.2155217E-2,-9.17189E-2,1.1757613E0,-5.8850642E-2,5.8515545E-2,5.78158E-2,3.278833E-1,4.3086982E-1,-2.734816E-1,-1.2938546E-1,9.9571365E-1,-2.1274064E-1,2.1505624E-1,1.7801234E0,-2.546828E-1,-9.1359824E-2,3.8191202E-1,3.0660683E-1,9.392195E-3,-2.1342616E-1,-2.8122365E-3,6.887088E-2,-1.2671621E-1,1.2007096E-2,1.2781018E-1,1.2743573E-1,3.111645E-2,-1.9317141E-1,-7.075303E-2,7.282067E-2,-1.09767415E-1,-9.262332E-3,2.4247493E-1,-9.238402E-2,-1.6645443E-1,8.974011E-2,-6.789013E-2],"categories":[],"categories_nodes":[],"categories_segments":[],"categories_sizes":[],"default_left":[0,0,0,0,0,0,0,0,0,0,0,0,0,0,0,0,0,0,0,0,0,0,0,0,0,0,0,0,0,0,0,0,0,0,0,0,0,0,0,0,0,0,0,0,0,0,0,0,0,0,0,0,0,0,0,0,0,0,0,0,0,0,0,0,0,0,0,0,0,0,0,0,0,0,0,0,0,0,0,0,0,0,0,0,0,0,0,0,0,0,0],"id":6,"left_children":[1,3,5,7,9,11,13,15,17,19,21,23,25,-1,-1,27,29,31,33,35,37,39,41,43,45,47,49,51,53,55,57,-1,-1,-1,59,61,63,65,67,69,-1,71,73,75,77,79,81,83,85,87,89,-1,-1,-1,-1,-1,-1,-1,-1,-1,-1,-1,-1,-1,-1,-1,-1,-1,-1,-1,-1,-1,-1,-1,-1,-1,-1,-1,-1,-1,-1,-1,-1,-1,-1,-1,-1,-1,-1,-1,-1],"loss_changes":[1.4000007E1,1.3345116E1,5.083358E0,7.6504164E0,3.002936E1,2.068594E0,3.5389495E-1,6.2750616E0,1.3655047E0,3.0649609E1,3.0770039E1,3.6434789E0,2.1846237E0,0E0,0E0,2.305043E1,1.7288582E1,9.316663E-1,3.100865E0,5.070639E1,3.223816E1,1.688047E1,1.4703099E1,4.33139E0,1.5779672E0,2.5191655E0,2.4573793E0,3.0964773E1,3.3682766E1,1.3497667E1,1.2089285E1,0E0,0E0,0E0,2.0051835E0,4.2174545E1,4.677381E1,3.3990635E1,3.738644E1,4.1356654E0,0E0,2.9580091E1,1.53065605E1,1.9209285E0,2.3820457E0,1.3912082E-2,1.0879922E0,2.3349488E0,3.5471005E0,1.0542183E0,2.3679607E0,0E0,0E0,0E0,0E0,0E0,0E0,0E0,0E0,0E0,0E0,0E0,0E0,0E0,0E0,0E0,0E0,0E0,0E0,0E0,0E0,0E0,0E0,0E0,0E0,0E0,0E0,0E0,0E0,0E0,0E0,0E0,0E0,0E0,0E0,0E0,0E0,0E0,0E0,0E0,0E0],"parents":[2147483647,0,0,1,1,2,2,3,3,4,4,5,5,6,6,7,7,8,8,9,9,10,10,11,11,12,12,15,15,16,16,17,17,18,18,19,19,20,20,21,21,22,22,23,23,24,24,25,25,26,26,27,27,28,28,29,29,30,30,34,34,35,35,36,36,37,37,38,38,39,39,41,41,42,42,43,43,44,44,45,45,46,46,47,47,48,48,49,49,50,50],"right_children":[2,4,6,8,10,12,14,16,18,20,22,24,26,-1,-1,28,30,32,34,36,38,40,42,44,46,48,50,52,54,56,58,-1,-1,-1,60,62,64,66,68,70,-1,72,74,76,78,80,82,84,86,88,90,-1,-1,-1,-1,-1,-1,-1,-1,-1,-1,-1,-1,-1,-1,-1,-1,-1,-1,-1,-1,-1,-1,-1,-1,-1,-1,-1,-1,-1,-1,-1,-1,-1,-1,-1,-1,-1,-1,-1,-1],"split_conditions":[2.5329097E2,1.5963719E2,2.0403584E1,2.1045248E1,1.8208069E2,1E-1,9.531505E0,1.6075521E1,1.0182337E1,6.9181676E0,1.024578E1,2.990407E2,2.653788E2,2.0689487E-2,2.3671909E-1,3.264E0,1.61198E1,1E-1,1.0464797E1,4.19525E0,1.49E1,2.1910707E2,5E-1,2.6583105E2,-3.646417E0,2.6826641E1,1.0468166E1,3.2410834E0,6.018167E0,1.7702502E0,8.8472496E1,1.27453E-1,-1.6283527E-1,5.907181E-1,1.3499988E2,2.8598335E0,1.2E0,1.4895252E1,1.1528583E1,9.531505E0,1.1622227E0,4.8494163E0,1.1E0,5.2244163E0,2.2461807E1,1.424163E1,3.0967538E2,3E-1,2.6287503E2,5.3160825E0,1.1245251E1,2.6229762E-2,1.219716E0,-4.414627E-1,-6.2155217E-2,-9.17189E-2,1.1757613E0,-5.8850642E-2,5.8515545E-2,5.78158E-2,3.278833E-1,4.3086982E-1,-2.734816E-1,-1.2938546E-1,9.9571365E-1,-2.1274064E-1,2.1505624E-1,1.7801234E0,-2.546828E-1,-9.1359824E-2,3.8191202E-1,3.0660683E-1,9.392195E-3,-2.1342616E-1,-2.8122365E-3,6.887088E-2,-1.2671621E-1,1.2007096E-2,1.2781018E-1,1.2743573E-1,3.111645E-2,-1.9317141E-1,-7.075303E-2,7.282067E-2,-1.09767415E-1,-9.262332E-3,2.4247493E-1,-9.238402E-2,-1.6645443E-1,8.974011E-2,-6.789013E-2],"split_indices":[3,3,0,0,3,1,2,2,2,0,2,3,3,0,0,0,2,1,2,0,1,3,1,3,0,2,0,0,0,0,3,0,0,0,3,0,1,0,0,2,0,0,1,0,2,2,3,1,3,0,0,0,0,0,0,0,0,0,0,0,0,0,0,0,0,0,0,0,0,0,0,0,0,0,0,0,0,0,0,0,0,0,0,0,0,0,0,0,0,0,0],"split_type":[0,0,0,0,0,0,0,0,0,0,0,0,0,0,0,0,0,0,0,0,0,0,0,0,0,0,0,0,0,0,0,0,0,0,0,0,0,0,0,0,0,0,0,0,0,0,0,0,0,0,0,0,0,0,0,0,0,0,0,0,0,0,0,0,0,0,0,0,0,0,0,0,0,0,0,0,0,0,0,0,0,0,0,0,0,0,0,0,0,0,0],"sum_hessian":[1.614E3,1.216E3,3.98E2,5.48E2,6.68E2,3.92E2,6E0,5.34E2,1.4E1,1.14E2,5.54E2,1.62E2,2.3E2,1E0,5E0,2.18E2,3.16E2,2E0,1.2E1,4.7E1,6.7E1,8E0,5.46E2,9.5E1,6.7E1,7.6E1,1.54E2,9.4E1,1.24E2,2E0,3.14E2,1E0,1E0,1E0,1.1E1,2.9E1,1.8E1,6.5E1,2E0,6E0,2E0,1.54E2,3.92E2,2.6E1,6.9E1,3E0,6.4E1,4E1,3.6E1,8.1E1,7.3E1,9.3E1,1E0,2.6E1,9.8E1,1E0,1E0,1.59E2,1.55E2,8E0,3E0,1.6E1,1.3E1,4E0,1.4E1,3.1E1,3.4E1,1E0,1E0,2E0,4E0,4E1,1.14E2,3.3E1,3.59E2,5E0,2.1E1,4.5E1,2.4E1,2E0,1E0,7E0,5.7E1,7E0,3.3E1,3.1E1,5E0,4.8E1,3.3E1,9E0,6.4E1],"tree_param":{"num_deleted":"0","num_feature":"4","num_nodes":"91","size_leaf_vector":"1"}},{"base_weights":[1.2539812E-2,2.3035043E-1,-1.753302E-2,6.054554E-1,2.8047508E-3,-4.0711156E-1,1.154397E-3,4.071491E-1,3.2606525E0,-1.9260316E-1,7.765079E-1,-5.2572757E-1,1.533215E0,6.811684E-1,-1.3696175E-2,-7.3247975E-1,6.0929525E-1,1.9187769E0,-2.8845054E-1,-2.9518166E-1,1.0111251E0,-5.632129E-2,1.0424708E0,-1.0269443E-1,-8.0878526E-1,5.743511E-1,5.8402456E-2,2.813386E-1,2.1669595E0,-4.1236246E-1,1.1171663E-2,-2.6918057E-1,-5.6346524E-1,-2.0535576E-1,1.1212502E0,-1.6050552E0,-1.3380916E-1,7.117284E-1,-2.801422E-1,-2.727715E-1,9.696086E-2,1.3102108E0,3.0756783E-2,3.956269E-1,-7.170382E-1,-1.2622482E0,-2.6000506E-1,1.1022265E0,-5.3525496E-2,3.1627333E-1,1.1736664E0,-1.3197261E-1,-7.040367E-1,1.10302664E-1,-9.971964E-2,-2.6007733E-1,5.225362E-2,1.5116624E-2,-2.9429623E-1,5.5169225E-1,-5.676695E-2,-6.7063606E-1,-3.0178437E-2,-9.439397E-2,6.413171E-2,-1.8481457E-1,1.5952249E-1,2.1716096E-2,-1.1314736E-1,5.0709915E-1,1.3749287E-1,-1.9667824E-1,2.1205664E-1,2.0948441E-1,-1.8337297E-1,-3.8513264E-1,1.9098455E-2,-1.7448519E-1,-5.654152E-1,-2.1120021E-2,-2.7180678E-1,8.742106E-2,8.950747E-1,-1.20935805E-1,1.3015701E-1,-1.1611727E-1,2.0392086E-1,9.020733E-2,-7.891677E-2,-3.1310505E-1,-3.409985E-2,7.208833E-2,-5.4624695E-2,-1.3069473E-1,-1.6997613E-2],"categories":[],"categories_nodes":[],"categories_segments":[],"categories_sizes":[],"default_left":[0,0,0,0,0,0,0,0,0,0,0,0,0,0,0,0,0,0,0,0,0,0,0,0,0,0,0,0,0,0,0,0,0,0,0,0,0,0,0,0,0,0,0,0,0,0,0,0,0,0,0,0,0,0,0,0,0,0,0,0,0,0,0,0,0,0,0,0,0,0,0,0,0,0,0,0,0,0,0,0,0,0,0,0,0,0,0,0,0,0,0,0,0,0,0],"id":7,"left_children":[1,3,5,7,9,11,13,15,17,19,21,23,25,27,29,31,33,-1,-1,35,37,39,41,43,45,-1,-1,47,49,51,53,55,-1,57,59,61,63,-1,65,67,-1,69,71,73,75,77,79,81,83,85,-1,87,89,91,93,-1,-1,-1,-1,-1,-1,-1,-1,-1,-1,-1,-1,-1,-1,-1,-1,-1,-1,-1,-1,-1,-1,-1,-1,-1,-1,-1,-1,-1,-1,-1,-1,-1,-1,-1,-1,-1,-1,-1,-1],"loss_changes":[1.0582582E1,1.672759E1,1.0338378E1,3.763656E1,1.8745647E1,1.5766054E1,1.3703027E1,1.6572308E1,7.233767E1,1.2522653E1,5.596257E0,7.340994E0,1.6687737E0,1.661819E1,1.3170358E1,5.3334327E0,2.525413E1,0E0,0E0,1.9231968E1,1.4727063E1,6.631971E-1,5.106352E0,8.243336E0,8.879316E0,0E0,0E0,6.656259E0,1.8142262E1,6.2861214E0,1.376295E1,2.5361373E0,0E0,4.8101554E0,3.5148624E1,9.259216E0,5.2842884E0,0E0,1.6911632E0,2.0745051E-1,0E0,4.082674E0,2.7836149E0,4.9978256E0,5.391145E0,7.377249E0,2.1410024E0,9.8087E0,3.2418406E0,1.2856355E0,0E0,2.4044125E0,7.50103E0,2.5166801E1,8.524389E0,0E0,0E0,0E0,0E0,0E0,0E0,0E0,0E0,0E0,0E0,0E0,0E0,0E0,0E0,0E0,0E0,0E0,0E0,0E0,0E0,0E0,0E0,0E0,0E0,0E0,0E0,0E0,0E0,0E0,0E0,0E0,0E0,0E0,0E0,0E0,0E0,0E0,0E0,0E0,0E0],"parents":[2147483647,0,0,1,1,2,2,3,3,4,4,5,5,6,6,7,7,8,8,9,9,10,10,11,11,12,12,13,13,14,14,15,15,16,16,19,19,20,20,21,21,22,22,23,23,24,24,27,27,28,28,29,29,30,30,31,31,33,33,34,34,35,35,36,36,38,38,39,39,41,41,42,42,43,43,44,44,45,45,46,46,47,47,48,48,49,49,51,51,52,52,53,53,54,54],"right_children":[2,4,6,8,10,12,14,16,18,20,22,24,26,28,30,32,34,-1,-1,36,38,40,42,44,46,-1,-1,48,50,52,54,56,-1,58,60,62,64,-1,66,68,-1,70,72,74,76,78,80,82,84,86,-1,88,90,92,94,-1,-1,-1,-1,-1,-1,-1,-1,-1,-1,-1,-1,-1,-1,-1,-1,-1,-1,-1,-1,-1,-1,-1,-1,-1,-1,-1,-1,-1,-1,-1,-1,-1,-1,-1,-1,-1,-1,-1,-1],"split_conditions":[1.2758432E1,4.52025E0,1.3493999E1,3.9952497E0,2.4999998E0,5E0,1.3797912E1,9.085988E0,1E-1,1.255879E1,9.931042E0,1.3039754E1,1.9361914E1,1.7295252E1,-3.3599997E-1,9.2147514E1,-9.6725005E-1,1.9187769E0,-2.8845054E-1,6.9931664E0,1.7151622E2,1.5191083E1,1.2397806E1,1.8471838E2,1.9903145E2,5.743511E-1,5.8402456E-2,-5.130833E-1,1.3627795E1,7.607254E1,2.156651E2,8.654986E0,-5.6346524E-1,-2.2151668E0,1.1726277E1,2.272501E2,2.3677872E2,7.117284E-1,1.3070249E1,8.652461E0,9.696086E-2,4.5E0,4.9E0,1.2459834E1,2.3051917E2,8.063758E1,1.52765E1,-1.3464168E0,2.172535E2,1.7736917E1,1.1736664E0,1.6055353E1,2.1973943E2,1.2459834E1,2.2526897E2,-2.6007733E-1,5.225362E-2,1.5116624E-2,-2.9429623E-1,5.5169225E-1,-5.676695E-2,-6.7063606E-1,-3.0178437E-2,-9.439397E-2,6.413171E-2,-1.8481457E-1,1.5952249E-1,2.1716096E-2,-1.1314736E-1,5.0709915E-1,1.3749287E-1,-1.9667824E-1,2.1205664E-1,2.0948441E-1,-1.8337297E-1,-3.8513264E-1,1.9098455E-2,-1.7448519E-1,-5.654152E-1,-2.1120021E-2,-2.7180678E-1,8.742106E-2,8.950747E-1,-1.20935805E-1,1.3015701E-1,-1.1611727E-1,2.0392086E-1,9.020733E-2,-7.891677E-2,-3.1310505E-1,-3.409985E-2,7.208833E-2,-5.4624695E-2,-1.3069473E-1,-1.6997613E-2],"split_indices":[2,0,2,0,1,1,2,2,1,2,2,2,0,0,0,3,0,0,0,0,3,0,2,3,3,0,0,0,2,3,3,2,0,0,2,3,3,0,0,3,0,1,1,0,3,3,0,0,3,0,0,2,3,0,3,0,0,0,0,0,0,0,0,0,0,0,0,0,0,0,0,0,0,0,0,0,0,0,0,0,0,0,0,0,0,0,0,0,0,0,0,0,0,0,0],"split_type":[0,0,0,0,0,0,0,0,0,0,0,0,0,0,0,0,0,0,0,0,0,0,0,0,0,0,0,0,0,0,0,0,0,0,0,0,0,0,0,0,0,0,0,0,0,0,0,0,0,0,0,0,0,0,0,0,0,0,0,0,0,0,0,0,0,0,0,0,0,0,0,0,0,0,0,0,0,0,0,0,0,0,0,0,0,0,0,0,0,0,0,0,0,0,0],"sum_hessian":[1.614E3,1.95E2,1.419E3,7.3E1,1.22E2,6.4E1,1.355E3,6.9E1,4E0,9.8E1,2.4E1,6.1E1,3E0,2.8E1,1.327E3,1E1,5.9E1,2E0,2E0,9.1E1,7E0,6E0,1.8E1,2.5E1,3.6E1,2E0,1E0,2.3E1,5E0,7.7E1,1.25E3,8E0,2E0,2.3E1,3.6E1,9E0,8.2E1,3E0,4E0,4E0,2E0,1.4E1,4E0,1.4E1,1.1E1,1.9E1,1.7E1,6E0,1.7E1,3E0,2E0,4E1,3.7E1,6.6E2,5.9E2,3E0,5E0,1.8E1,5E0,2.3E1,1.3E1,6E0,3E0,5.4E1,2.8E1,3E0,1E0,1E0,3E0,9E0,5E0,2E0,2E0,1.1E1,3E0,6E0,5E0,1E1,9E0,1.4E1,3E0,5E0,1E0,1E1,7E0,1E0,2E0,9E0,3.1E1,2.3E1,1.4E1,4.57E2,2.03E2,6.6E1,5.24E2],"tree_param":{"num_deleted":"0","num_feature":"4","num_nodes":"95","size_leaf_vector":"1"}},{"base_weights":[1.0476142E-2,-3.658894E-3,3.1344864E-1,3.0829223E-2,-1.1799894E-1,2.0676626E-2,7.4684584E-1,-7.5855315E-2,1.1130924E-1,-9.193687E-2,-2.5990567E-1,8.696056E-1,-6.265002E-2,1.1008471E0,-3.200135E-1,-1.8193097E-1,3.388883E-2,7.410924E-1,5.7725534E-2,3.216015E-3,-1.400003E-1,-3.9269605E-1,1.2365445E-2,-2.1160055E-2,1.2064965E0,-2.3414418E-1,3.7130624E-1,2.3961165E0,7.7021956E-1,-3.699674E-1,-1.3379812E-2,-6.706975E-2,-7.4427086E-1,8.4442407E-1,-2.0973839E-2,2.3903337E0,1.4533065E-1,1.324802E0,3.2867808E-2,1.4348504E-1,-2.0392434E-1,-6.478522E-2,-2.367018E-1,-4.843766E-1,-1.3196234E-1,-9.7796E-2,2.9929072E-1,5.085711E-1,3.4352377E-2,1.8480428E-1,-2.8470185E-1,7.134826E-2,2.8601554E-1,1.3203132E-1,8.704257E-1,-1.7226529E-1,1.119126E0,-1.799645E-1,1.4791925E-1,-3.9998572E-2,8.3069116E-1,-2.7075326E-1,-8.584198E-3,-4.1510455E-2,7.5164175E-1,-3.853706E-2,1.748124E-1,-4.8560467E-2,9.3033123E-1,-4.7136173E-2,5.656223E-1,7.675578E-1,-1.0060288E-1,-3.1787E-1,1.9160604E-2,-7.571259E-2,1.01399675E-1,-1.2883893E-1,5.6825254E-2,-2.5982449E-2,1.6873598E-1,-3.8728695E-2,-1.1446042E-1,-3.8179673E-2,-1.884123E-1,-9.908243E-2,8.9295916E-2,-7.034396E-2,9.134339E-2,-1.3279696E-1,1.7903278E-2,6.004911E-2,-1.4387628E-1,1.524409E-1,-1.9185007E-1,7.078603E-1,2.1472903E-1,-9.0607144E-2,-1.302867E-2],"categories":[],"categories_nodes":[],"categories_segments":[],"categories_sizes":[],"default_left":[0,0,0,0,0,0,0,0,0,0,0,0,0,0,0,0,0,0,0,0,0,0,0,0,0,0,0,0,0,0,0,0,0,0,0,0,0,0,0,0,0,0,0,0,0,0,0,0,0,0,0,0,0,0,0,0,0,0,0,0,0,0,0,0,0,0,0,0,0,0,0,0,0,0,0,0,0,0,0,0,0,0,0,0,0,0,0,0,0,0,0,0,0,0,0,0,0,0,0],"id":8,"left_children":[1,3,5,7,9,11,13,15,17,19,21,23,25,27,29,31,33,35,37,39,41,43,45,-1,47,49,51,53,55,-1,57,59,61,63,65,67,69,71,73,75,77,79,81,83,85,87,-1,-1,-1,-1,89,91,-1,-1,-1,93,95,97,-1,-1,-1,-1,-1,-1,-1,-1,-1,-1,-1,-1,-1,-1,-1,-1,-1,-1,-1,-1,-1,-1,-1,-1,-1,-1,-1,-1,-1,-1,-1,-1,-1,-1,-1,-1,-1,-1,-1,-1,-1],"loss_changes":[6.917428E0,6.092205E0,9.12039E0,1.0199995E1,1.3001261E0,3.1669707E0,1.1304705E1,5.9548097E0,2.280334E1,1.3907557E0,1.993381E0,1.351996E0,3.1381986E0,7.576004E0,2.22367E0,1.6743755E1,1.1223679E1,5.1728012E1,1.9641857E1,3.0219638E0,1.4538944E0,8.2053614E-1,2.159802E0,0E0,1.4069786E0,1.4648415E0,2.0271683E0,2.6765862E0,6.440727E0,0E0,6.7929476E-1,4.1146244E1,4.9569798E0,2.6466125E1,1.5452728E1,2.5898384E1,2.1347775E1,2.5435907E1,2.0861652E1,4.8593225E0,3.8073282E0,1.6228545E0,1.322218E0,1.3052835E0,1.035486E0,1.0611122E0,0E0,0E0,0E0,0E0,1.6039102E0,7.347174E-1,0E0,0E0,0E0,2.2323978E0,5.315811E0,8.687608E-2,0E0,0E0,0E0,0E0,0E0,0E0,0E0,0E0,0E0,0E0,0E0,0E0,0E0,0E0,0E0,0E0,0E0,0E0,0E0,0E0,0E0,0E0,0E0,0E0,0E0,0E0,0E0,0E0,0E0,0E0,0E0,0E0,0E0,0E0,0E0,0E0,0E0,0E0,0E0,0E0,0E0],"parents":[2147483647,0,0,1,1,2,2,3,3,4,4,5,5,6,6,7,7,8,8,9,9,10,10,11,11,12,12,13,13,14,14,15,15,16,16,17,17,18,18,19,19,20,20,21,21,22,22,24,24,25,25,26,26,27,27,28,28,30,30,31,31,32,32,33,33,34,34,35,35,36,36,37,37,38,38,39,39,40,40,41,41,42,42,43,43,44,44,45,45,50,50,51,51,55,55,56,56,57,57],"right_children":[2,4,6,8,10,12,14,16,18,20,22,24,26,28,30,32,34,36,38,40,42,44,46,-1,48,50,52,54,56,-1,58,60,62,64,66,68,70,72,74,76,78,80,82,84,86,88,-1,-1,-1,-1,90,92,-1,-1,-1,94,96,98,-1,-1,-1,-1,-1,-1,-1,-1,-1,-1,-1,-1,-1,-1,-1,-1,-1,-1,-1,-1,-1,-1,-1,-1,-1,-1,-1,-1,-1,-1,-1,-1,-1,-1,-1,-1,-1,-1,-1,-1,-1],"split_conditions":[1.9147333E1,2.5730365E2,5E-1,1.5963719E2,2.3999996E0,1.9361914E1,1.8472595E1,1.7414476E1,1.2758432E1,2.741072E2,8.7E0,1.1901798E1,2.1045248E1,6E-1,1.9361914E1,1.3344772E2,1.7873556E1,4.52025E0,1.6319589E2,1.3314002E1,1.9483284E1,1.3643168E1,3.735683E1,-2.1160055E-2,1.5192682E1,8.654986E0,1.7470103E2,4.354123E1,1.7000002E0,-3.699674E-1,2.5772078E1,1.3196588E2,1.5367055E2,6.7723336E0,1.3833617E2,1.0182337E1,3.6E0,9.691084E0,1.6798756E2,1.8875126E1,1.5661919E1,1.933639E1,6.08275E0,4.8494163E0,3.3999996E0,1.5093169E1,2.9929072E-1,5.085711E-1,3.4352377E-2,1.8480428E-1,2.123924E2,1.6706364E2,2.8601554E-1,1.3203132E-1,8.704257E-1,6.634375E1,2.6000001E0,1.9661917E1,1.4791925E-1,-3.9998572E-2,8.3069116E-1,-2.7075326E-1,-8.584198E-3,-4.1510455E-2,7.5164175E-1,-3.853706E-2,1.748124E-1,-4.8560467E-2,9.3033123E-1,-4.7136173E-2,5.656223E-1,7.675578E-1,-1.0060288E-1,-3.1787E-1,1.9160604E-2,-7.571259E-2,1.01399675E-1,-1.2883893E-1,5.6825254E-2,-2.5982449E-2,1.6873598E-1,-3.8728695E-2,-1.1446042E-1,-3.8179673E-2,-1.884123E-1,-9.908243E-2,8.9295916E-2,-7.034396E-2,9.134339E-2,-1.3279696E-1,1.7903278E-2,6.004911E-2,-1.4387628E-1,1.524409E-1,-1.9185007E-1,7.078603E-1,2.1472903E-1,-9.0607144E-2,-1.302867E-2],"split_indices":[0,3,1,3,1,0,2,2,2,3,1,2,0,1,0,3,2,0,3,0,2,0,2,0,2,2,3,3,1,0,2,3,3,0,3,2,1,0,3,2,0,2,0,0,1,0,0,0,0,0,3,3,0,0,0,3,1,0,0,0,0,0,0,0,0,0,0,0,0,0,0,0,0,0,0,0,0,0,0,0,0,0,0,0,0,0,0,0,0,0,0,0,0,0,0,0,0,0,0],"split_type":[0,0,0,0,0,0,0,0,0,0,0,0,0,0,0,0,0,0,0,0,0,0,0,0,0,0,0,0,0,0,0,0,0,0,0,0,0,0,0,0,0,0,0,0,0,0,0,0,0,0,0,0,0,0,0,0,0,0,0,0,0,0,0,0,0,0,0,0,0,0,0,0,0,0,0,0,0,0,0,0,0,0,0,0,0,0,0,0,0,0,0,0,0,0,0,0,0,0,0],"sum_hessian":[1.614E3,1.543E3,7.1E1,1.186E3,3.57E2,4.3E1,2.8E1,5.1E2,6.76E2,3.03E2,5.4E1,3E0,4E1,2.1E1,7E0,2.59E2,2.51E2,5.2E1,6.24E2,1.02E2,2.01E2,3.6E1,1.8E1,1E0,2E0,2.9E1,1.1E1,3E0,1.8E1,1E0,6E0,2.16E2,4.3E1,1.5E1,2.36E2,1.3E1,3.9E1,1.1E1,6.13E2,6.1E1,4.1E1,1.14E2,8.7E1,2.6E1,1E1,1.7E1,1E0,1E0,1E0,1E0,2.8E1,8E0,3E0,1E0,2E0,5E0,1.3E1,5E0,1E0,2.12E2,4E0,3.5E1,8E0,1E1,5E0,2.01E2,3.5E1,3E0,1E1,3.4E1,5E0,6E0,5E0,1.6E1,5.97E2,2E1,4.1E1,2.6E1,1.5E1,1.11E2,3E0,5.1E1,3.6E1,8E0,1.8E1,7E0,3E0,1.3E1,4E0,1.9E1,9E0,7E0,1E0,2E0,3E0,2E0,1.1E1,2E0,3E0],"tree_param":{"num_deleted":"0","num_feature":"4","num_nodes":"99","size_leaf_vector":"1"}},{"base_weights":[1.0743362E-2,2.7793169E-2,-2.2278166E-1,8.23568E-2,-5.009922E-2,-7.7657855E-1,1.4373185E-2,-9.296442E-2,1.8212862E-1,5.3460542E-2,-1.9504939E-1,-1.2797567E0,-4.668187E-1,8.84807E-1,-3.224159E-2,-1.1320818E-1,6.2920773E-1,1.518927E-1,1.6911111E0,-3.349602E-3,7.078722E-1,-7.7072847E-1,-1.1626729E-1,-1.4478947E-1,-1.3909185E0,-6.088736E-1,1.3794279E-1,5.674404E-1,-8.1236005E-2,-6.0131516E-2,6.571604E-1,-1.5994035E-1,7.8469914E-1,1.8537298E-1,-8.572342E-1,2.2027829E0,-3.8062274E-1,-1.330215E-1,1.7168555E-1,1.161807E0,2.06746E-1,-1.890578E0,-2.9901654E-1,-3.0241513E-1,-2.1825137E-2,-5.538595E-1,-2.7961686E-1,-1.2802403E-1,-7.839678E-1,-2.514599E-1,5.915283E-1,8.685447E-2,-1.2341068E-1,-5.1274914E-3,-3.3930802E-1,2.5627914E-1,3.9443046E-2,-3.6010105E-2,-3.3729762E-1,6.7509425E-1,-1.815775E-1,8.53619E-3,1.186153E-1,-4.8201117E-1,-7.02705E-2,-4.3863174E-1,2.3309545E-1,4.2316678E-1,-4.9445327E-2,1.6852279E-1,4.42598E-3,9.111326E-3,6.444051E-1,-7.58469E-2,1.3854384E-1,-4.728293E-2,-6.2624943E-1,-2.0483124E-1,8.044231E-2,-2.4130814E-1,-6.4647764E-2,1.2874123E-1,-4.197945E-2,-1.7494346E-1,1.5644354E-1,-2.648334E-1,-1.347948E-1,2.9370937E-1,-8.564705E-2,6.9986455E-2,-5.1757276E-2,-1.35791665E-2,-1.1807714E-1],"categories":[],"categories_nodes":[],"categories_segments":[],"categories_sizes":[],"default_left":[0,0,0,0,0,0,0,0,0,0,0,0,0,0,0,0,0,0,0,0,0,0,0,0,0,0,0,0,0,0,0,0,0,0,0,0,0,0,0,0,0,0,0,0,0,0,0,0,0,0,0,0,0,0,0,0,0,0,0,0,0,0,0,0,0,0,0,0,0,0,0,0,0,0,0,0,0,0,0,0,0,0,0,0,0,0,0,0,0,0,0,0,0],"id":9,"left_children":[1,3,5,7,9,11,13,15,17,19,21,23,25,27,29,31,-1,33,35,37,39,41,43,-1,45,47,49,-1,51,53,55,57,59,61,63,-1,65,67,69,71,73,75,77,79,81,-1,-1,83,85,-1,87,-1,-1,89,91,-1,-1,-1,-1,-1,-1,-1,-1,-1,-1,-1,-1,-1,-1,-1,-1,-1,-1,-1,-1,-1,-1,-1,-1,-1,-1,-1,-1,-1,-1,-1,-1,-1,-1,-1,-1,-1,-1],"loss_changes":[6.4364057E0,6.404764E0,1.4458078E1,1.5514946E1,9.332262E0,4.54611E0,3.1933835E0,1.4515046E1,2.5521528E1,1.3497703E1,1.1656871E1,3.9201736E-1,1.9739952E0,4.0435667E0,1.4815686E0,1.3553073E1,0E0,1.8910055E1,1.3158716E2,7.62638E0,6.356679E0,1.5810324E1,4.019266E0,0E0,3.6834526E-1,1.4151244E0,2.7096388E0,0E0,4.8628867E-1,1.1192358E0,1.9852626E-1,1.1603086E1,3.39563E1,1.7718418E1,8.028196E0,0E0,1.2403431E1,9.70492E0,8.745106E0,1.667226E1,1.8750687E0,2.7422943E0,5.189008E0,3.1862063E0,8.209065E0,0E0,0E0,2.07771E0,3.3224106E-2,0E0,1.6388924E0,0E0,0E0,2.5146687E0,1.7372179E-1,0E0,0E0,0E0,0E0,0E0,0E0,0E0,0E0,0E0,0E0,0E0,0E0,0E0,0E0,0E0,0E0,0E0,0E0,0E0,0E0,0E0,0E0,0E0,0E0,0E0,0E0,0E0,0E0,0E0,0E0,0E0,0E0,0E0,0E0,0E0,0E0,0E0,0E0],"parents":[2147483647,0,0,1,1,2,2,3,3,4,4,5,5,6,6,7,7,8,8,9,9,10,10,11,11,12,12,13,13,14,14,15,15,17,17,18,18,19,19,20,20,21,21,22,22,24,24,25,25,26,26,28,28,29,29,30,30,31,31,32,32,33,33,34,34,36,36,37,37,38,38,39,39,40,40,41,41,42,42,43,43,44,44,47,47,48,48,50,50,53,53,54,54],"right_children":[2,4,6,8,10,12,14,16,18,20,22,24,26,28,30,32,-1,34,36,38,40,42,44,-1,46,48,50,-1,52,54,56,58,60,62,64,-1,66,68,70,72,74,76,78,80,82,-1,-1,84,86,-1,88,-1,-1,90,92,-1,-1,-1,-1,-1,-1,-1,-1,-1,-1,-1,-1,-1,-1,-1,-1,-1,-1,-1,-1,-1,-1,-1,-1,-1,-1,-1,-1,-1,-1,-1,-1,-1,-1,-1,-1,-1,-1],"split_conditions":[3.3121956E1,2.156651E2,2.2216313E2,1E-1,2.1924562E1,8.399999E0,2.272501E2,2.7558228E1,2.1310208E2,2.1142147E1,2.2526897E2,8.000001E-1,3.8332817E1,3.5285828E0,1.94E1,2.0676654E2,6.2920773E-1,2.0919739E2,4.4119167E0,1.3643168E1,1.2274417E1,2.5999997E0,5.5431666E0,-1.4478947E-1,1.9787094E2,3.4567497E1,1.5600001E1,5.674404E-1,5.663999E0,2.818618E2,4.8869166E0,2.5071098E1,2.1078937E2,1.6107143E2,4.6765E0,2.2027829E0,2.1129883E1,1.024578E1,2.4317711E2,6.018167E0,1.5191083E1,1.4910833E0,8.7E0,2.3778181E2,8.161917E0,-5.538595E-1,-2.7961686E-1,3.3971867E1,5.42025E0,-2.514599E-1,5.830666E0,8.685447E-2,-1.2341068E-1,2.7E0,3.3667217E1,2.5627914E-1,3.9443046E-2,-3.6010105E-2,-3.3729762E-1,6.7509425E-1,-1.815775E-1,8.53619E-3,1.186153E-1,-4.8201117E-1,-7.02705E-2,-4.3863174E-1,2.3309545E-1,4.2316678E-1,-4.9445327E-2,1.6852279E-1,4.42598E-3,9.111326E-3,6.444051E-1,-7.58469E-2,1.3854384E-1,-4.728293E-2,-6.2624943E-1,-2.0483124E-1,8.044231E-2,-2.4130814E-1,-6.4647764E-2,1.2874123E-1,-4.197945E-2,-1.7494346E-1,1.5644354E-1,-2.648334E-1,-1.347948E-1,2.9370937E-1,-8.564705E-2,6.9986455E-2,-5.1757276E-2,-1.35791665E-2,-1.1807714E-1],"split_indices":[2,3,3,1,2,1,3,2,3,2,3,1,2,0,1,3,0,3,0,0,0,1,0,0,3,2,1,0,0,3,0,2,3,3,0,0,2,2,3,0,0,0,1,3,0,0,0,2,0,0,0,0,0,1,2,0,0,0,0,0,0,0,0,0,0,0,0,0,0,0,0,0,0,0,0,0,0,0,0,0,0,0,0,0,0,0,0,0,0,0,0,0,0],"split_type":[0,0,0,0,0,0,0,0,0,0,0,0,0,0,0,0,0,0,0,0,0,0,0,0,0,0,0,0,0,0,0,0,0,0,0,0,0,0,0,0,0,0,0,0,0,0,0,0,0,0,0,0,0,0,0,0,0,0,0,0,0,0,0,0,0,0,0,0,0,0,0,0,0,0,0,0,0,0,0,0,0,0,0,0,0,0,0,0,0,0,0,0,0],"sum_hessian":[1.614E3,1.505E3,1.09E2,8.85E2,6.2E2,3.2E1,7.7E1,3.21E2,5.64E2,3.62E2,2.58E2,1.1E1,2.1E1,3E0,7.4E1,3.19E2,2E0,5.54E2,1E1,3.34E2,2.8E1,3E1,2.28E2,2E0,9E0,1.7E1,4E0,1E0,2E0,7.2E1,2E0,3.04E2,1.5E1,5.37E2,1.7E1,2E0,8E0,1.92E2,1.42E2,1.4E1,1.4E1,8E0,2.2E1,7.6E1,1.52E2,3E0,6E0,5E0,1.2E1,1E0,3E0,1E0,1E0,6.1E1,1.1E1,1E0,1E0,2.93E2,1.1E1,7E0,8E0,3.08E2,2.29E2,7E0,1E1,4E0,4E0,3E0,1.89E2,4E1,1.02E2,7E0,7E0,5E0,9E0,1E0,7E0,1.3E1,9E0,1E1,6.6E1,3.1E1,1.21E2,3E0,2E0,8E0,4E0,2E0,1E0,2.5E1,3.6E1,2E0,9E0],"tree_param":{"num_deleted":"0","num_feature":"4","num_nodes":"93","size_leaf_vector":"1"}},{"base_weights":[8.660092E-3,6.210927E-2,-6.624516E-2,5.9846025E-3,5.515472E-1,1.1547916E0,-7.711338E-2,4.876053E-2,-3.6825064E-1,1.1313872E0,2.8005196E-2,-2.1395376E-1,2.5948548E0,-6.429373E-1,-5.2276906E-2,1.3513133E-1,-5.358876E-2,2.82148E-1,-5.302353E-1,4.448334E-3,1.7918532E0,-5.6068665E-1,2.596466E-1,-1.9315583E-1,4.3189038E-2,4.808325E-3,1.1628764E0,-1.1158879E0,3.199624E-1,6.3295484E-1,-7.195943E-2,8.09716E-2,1.795356E0,-3.4959942E-1,7.522566E-2,2.2237698E-4,1.2688321E0,-1.0642775E0,-2.4625126E-1,6.134894E-1,-8.335392E-1,-3.788595E-1,2.2598708E0,-3.7257645E-1,-3.603489E-1,8.339325E-1,-1.5114567E-1,-1.2709992E0,-5.6797993E-1,3.39194E-1,-2.4039447E-2,-4.264626E-3,1.1431568E0,-2.1633042E-1,6.0928105E-3,1.06563024E-1,-2.3741905E-2,6.0130212E-2,2.1134856E0,-6.1588734E-3,-1.437676E-1,-1.3956708E-1,4.4231314E-2,7.712843E-2,-3.3388966E-1,2.7542355E-2,4.891713E-1,-4.2251113E-1,-8.228236E-3,9.376125E-3,-1.2136377E-1,3.6028594E-1,-2.1444316E-1,-3.9721954E-1,3.9002132E-1,1.2547487E-1,-3.9461556E-1,9.938009E-1,2.1435072E-1,-1.5153581E-1,8.7177664E-2,5.817604E-1,-6.944645E-3,-1.5555659E-1,2.705354E-3,-5.421084E-1,-2.6276553E-1,-5.8315087E-2,-2.6303452E-1,1.5140808E-1,-5.150155E-2,8.6680666E-2,-5.9706192E-2,-4.4845343E-3,4.3036553E-1,-8.1973866E-2,3.001602E-1,5.522315E-2,-5.5663165E-2],"categories":[],"categories_nodes":[],"categories_segments":[],"categories_sizes":[],"default_left":[0,0,0,0,0,0,0,0,0,0,0,0,0,0,0,0,0,0,0,0,0,0,0,0,0,0,0,0,0,0,0,0,0,0,0,0,0,0,0,0,0,0,0,0,0,0,0,0,0,0,0,0,0,0,0,0,0,0,0,0,0,0,0,0,0,0,0,0,0,0,0,0,0,0,0,0,0,0,0,0,0,0,0,0,0,0,0,0,0,0,0,0,0,0,0,0,0,0,0],"id":10,"left_children":[1,3,5,7,9,11,13,15,17,19,21,23,25,27,29,31,33,35,37,39,41,43,45,-1,-1,-1,-1,47,49,51,53,55,57,59,61,63,65,67,69,71,73,75,77,-1,79,81,83,85,87,-1,89,91,93,95,97,-1,-1,-1,-1,-1,-1,-1,-1,-1,-1,-1,-1,-1,-1,-1,-1,-1,-1,-1,-1,-1,-1,-1,-1,-1,-1,-1,-1,-1,-1,-1,-1,-1,-1,-1,-1,-1,-1,-1,-1,-1,-1,-1,-1],"loss_changes":[6.469967E0,2.5900478E1,9.0201E0,1.3576951E1,2.9414663E1,1.23816595E1,9.353844E0,6.734473E0,9.3154545E0,3.4230053E1,7.236582E0,7.0816416E-1,9.851397E0,1.3108354E1,8.69077E0,3.699048E1,1.3333823E1,5.0068054E0,1.0354084E1,9.698007E0,3.0318192E1,1.5996304E0,9.09071E0,0E0,0E0,0E0,0E0,8.9284706E-1,2.8159485E0,5.856867E0,7.03285E0,1.7635489E1,1.0743298E2,4.511694E0,9.591166E0,4.5753455E0,1.553402E0,8.523918E0,2.0772386E0,9.442062E0,1.0094107E1,5.0292373E0,3.6680183E1,0E0,1.3718647E0,1.5201774E1,1.3580022E0,1.3823452E0,5.217711E-1,0E0,7.111065E-1,5.7142663E-1,3.396103E0,1.5441065E1,1.3882136E1,0E0,0E0,0E0,0E0,0E0,0E0,0E0,0E0,0E0,0E0,0E0,0E0,0E0,0E0,0E0,0E0,0E0,0E0,0E0,0E0,0E0,0E0,0E0,0E0,0E0,0E0,0E0,0E0,0E0,0E0,0E0,0E0,0E0,0E0,0E0,0E0,0E0,0E0,0E0,0E0,0E0,0E0,0E0,0E0],"parents":[2147483647,0,0,1,1,2,2,3,3,4,4,5,5,6,6,7,7,8,8,9,9,10,10,11,11,12,12,13,13,14,14,15,15,16,16,17,17,18,18,19,19,20,20,21,21,22,22,27,27,28,28,29,29,30,30,31,31,32,32,33,33,34,34,35,35,36,36,37,37,38,38,39,39,40,40,41,41,42,42,44,44,45,45,46,46,47,47,48,48,50,50,51,51,52,52,53,53,54,54],"right_children":[2,4,6,8,10,12,14,16,18,20,22,24,26,28,30,32,34,36,38,40,42,44,46,-1,-1,-1,-1,48,50,52,54,56,58,60,62,64,66,68,70,72,74,76,78,-1,80,82,84,86,88,-1,90,92,94,96,98,-1,-1,-1,-1,-1,-1,-1,-1,-1,-1,-1,-1,-1,-1,-1,-1,-1,-1,-1,-1,-1,-1,-1,-1,-1,-1,-1,-1,-1,-1,-1,-1,-1,-1,-1,-1,-1,-1,-1,-1,-1,-1,-1,-1],"split_conditions":[1.5000001E0,1E0,1.7209663E1,6E-1,2.0181393E2,1.5530151E1,1.7E0,1.7313717E1,1.7015E0,1.6676977E1,5.830666E0,2.753583E0,4.5785837E0,2.5260078E2,1.1384198E1,1.7057314E1,4.2535834E0,1.4119167E0,7.10775E0,1.21759476E2,1.0983335E-1,2.123924E2,1.1657749E1,-1.9315583E-1,4.3189038E-2,4.808325E-3,1.1628764E0,1.6000001E0,2.5659647E2,1.024578E1,2.0478907E1,4.6765E0,1E-1,6.48499E1,5.3270847E1,1.1744168E0,1.2397806E1,2.3227835E2,7.0000005E-1,1.2000002E0,1.4000002E0,2.2314192E1,2.3377836E1,-3.7257645E-1,2.9379177E1,2.5634348E2,2.4263782E2,2.0123473E2,4.8494163E0,3.39194E-1,2.8369167E0,1.3643168E1,1.9000002E0,1.49E1,9.780667E0,1.06563024E-1,-2.3741905E-2,6.0130212E-2,2.1134856E0,-6.1588734E-3,-1.437676E-1,-1.3956708E-1,4.4231314E-2,7.712843E-2,-3.3388966E-1,2.7542355E-2,4.891713E-1,-4.2251113E-1,-8.228236E-3,9.376125E-3,-1.2136377E-1,3.6028594E-1,-2.1444316E-1,-3.9721954E-1,3.9002132E-1,1.2547487E-1,-3.9461556E-1,9.938009E-1,2.1435072E-1,-1.5153581E-1,8.7177664E-2,5.817604E-1,-6.944645E-3,-1.5555659E-1,2.705354E-3,-5.421084E-1,-2.6276553E-1,-5.8315087E-2,-2.6303452E-1,1.5140808E-1,-5.150155E-2,8.6680666E-2,-5.9706192E-2,-4.4845343E-3,4.3036553E-1,-8.1973866E-2,3.001602E-1,5.522315E-2,-5.5663165E-2],"split_indices":[1,1,3,1,3,2,1,2,0,2,0,0,0,3,2,2,0,0,0,3,0,3,0,0,0,0,0,1,3,2,2,0,1,3,3,0,2,3,1,1,1,2,2,0,2,3,3,3,0,0,0,0,1,1,0,0,0,0,0,0,0,0,0,0,0,0,0,0,0,0,0,0,0,0,0,0,0,0,0,0,0,0,0,0,0,0,0,0,0,0,0,0,0,0,0,0,0,0,0],"split_type":[0,0,0,0,0,0,0,0,0,0,0,0,0,0,0,0,0,0,0,0,0,0,0,0,0,0,0,0,0,0,0,0,0,0,0,0,0,0,0,0,0,0,0,0,0,0,0,0,0,0,0,0,0,0,0,0,0,0,0,0,0,0,0,0,0,0,0,0,0,0,0,0,0,0,0,0,0,0,0,0,0,0,0,0,0,0,0,0,0,0,0,0,0,0,0,0,0,0,0],"sum_hessian":[1.614E3,9.42E2,6.72E2,8.46E2,9.6E1,5E0,6.67E2,7.6E2,8.6E1,4.5E1,5.1E1,3E0,2E0,2.7E1,6.4E2,4.12E2,3.48E2,1.7E1,6.9E1,1.7E1,2.8E1,1.4E1,3.7E1,1E0,2E0,1E0,1E0,1.8E1,9E0,1.7E1,6.23E2,4E2,1.2E1,1.05E2,2.43E2,1.4E1,3E0,2.3E1,4.6E1,1E1,7E0,5E0,2.3E1,2E0,1.2E1,1.5E1,2.2E1,1.3E1,5E0,2E0,7E0,8E0,9E0,2.18E2,4.05E2,1.47E2,2.53E2,1E1,2E0,3E1,7.5E1,2.8E1,2.15E2,1.2E1,2E0,1E0,2E0,1.7E1,6E0,1.7E1,2.9E1,7E0,3E0,6E0,1E0,3E0,2E0,1.3E1,1E1,1E1,2E0,6E0,9E0,6E0,1.6E1,4E0,9E0,3E0,2E0,1E0,6E0,3E0,5E0,2E0,7E0,2.09E2,9E0,2.1E2,1.95E2],"tree_param":{"num_deleted":"0","num_feature":"4","num_nodes":"99","size_leaf_vector":"1"}},{"base_weights":[8.410218E-3,3.734234E-2,-9.588478E-2,2.552835E-2,1.2687922E0,-3.7285793E-1,-7.571791E-2,-1.1677927E-1,5.3612463E-2,2.7553754E0,-1.8667799E-1,6.8356186E-1,-1.12191506E-1,4.286814E-1,-1.7418583E-1,2.2952813E-1,-1.7865923E-3,9.4730324E-1,1.1157972E-1,-3.3842608E-1,3.8538445E-2,-5.2221096E-1,1.6794087E0,-5.054539E-1,-8.589621E-3,-9.7978175E-2,1.4207603E0,-1.4288647E-1,-9.6308565E-1,2.0586213E-2,9.91398E-1,-4.188834E-1,2.9049579E-2,4.5674365E-2,-1.4974697E-1,-5.69609E-2,-6.6780084E-1,2.3761857E0,6.4674985E-1,-3.61785E-1,-1.0440255E0,-4.4583585E-2,5.498537E-1,-2.1177565E-1,3.9599475E-2,6.8767977E-1,5.8219407E-2,-7.331445E-2,7.4447215E-2,-4.921427E-2,-3.7496743E-1,1.249256E-1,-5.690035E-2,6.7013776E-1,-4.6997752E-2,-3.298932E-1,-4.0832132E-2,1.4409359E-1,2.428059E-3,2.0867927E-2,-4.6500333E-2,-3.8901046E-2,-2.248479E-1,9.3792355E-1,2.5016937E-1,3.8743117E-1,4.8815615E-2,-1.4559586E-1,4.0964815E-1,-3.7688848E-2,-3.8492295E-1,2.0799272E-2,-9.401204E-2,-9.2285894E-2,2.3141855E-1],"categories":[],"categories_nodes":[],"categories_segments":[],"categories_sizes":[],"default_left":[0,0,0,0,0,0,0,0,0,0,0,0,0,0,0,0,0,0,0,0,0,0,0,0,0,0,0,0,0,0,0,0,0,0,0,0,0,0,0,0,0,0,0,0,0,0,0,0,0,0,0,0,0,0,0,0,0,0,0,0,0,0,0,0,0,0,0,0,0,0,0,0,0,0,0],"id":11,"left_children":[1,3,5,7,9,-1,11,13,15,17,19,21,23,25,27,29,31,-1,-1,33,-1,35,37,39,41,43,45,47,49,51,53,55,57,-1,-1,59,61,63,65,67,69,71,73,-1,-1,-1,-1,-1,-1,-1,-1,-1,-1,-1,-1,-1,-1,-1,-1,-1,-1,-1,-1,-1,-1,-1,-1,-1,-1,-1,-1,-1,-1,-1,-1],"loss_changes":[4.8768034E0,1.8371252E1,8.024835E0,5.0179763E0,2.6478502E1,0E0,9.658695E0,6.556466E0,1.0213759E1,4.578743E0,3.782274E-1,2.0089247E1,1.3481501E1,1.0588961E1,4.5044956E0,3.9935417E1,1.0275779E1,0E0,0E0,4.7032678E-1,0E0,5.038471E-1,4.938999E0,4.961231E0,5.310969E0,2.050548E0,7.038656E0,7.284045E0,1.3991389E0,1.6557606E1,7.73723E1,1.0437993E1,7.03188E0,0E0,0E0,4.799417E-2,1.6657925E-1,3.1782131E0,1.3501029E0,1.26119E1,2.9124146E0,7.6152534E0,3.276751E0,0E0,0E0,0E0,0E0,0E0,0E0,0E0,0E0,0E0,0E0,0E0,0E0,0E0,0E0,0E0,0E0,0E0,0E0,0E0,0E0,0E0,0E0,0E0,0E0,0E0,0E0,0E0,0E0,0E0,0E0,0E0,0E0],"parents":[2147483647,0,0,1,1,2,2,3,3,4,4,6,6,7,7,8,8,9,9,10,10,11,11,12,12,13,13,14,14,15,15,16,16,19,19,21,21,22,22,23,23,24,24,25,25,26,26,27,27,28,28,29,29,30,30,31,31,32,32,35,35,36,36,37,37,38,38,39,39,40,40,41,41,42,42],"right_children":[2,4,6,8,10,-1,12,14,16,18,20,22,24,26,28,30,32,-1,-1,34,-1,36,38,40,42,44,46,48,50,52,54,56,58,-1,-1,60,62,64,66,68,70,72,74,-1,-1,-1,-1,-1,-1,-1,-1,-1,-1,-1,-1,-1,-1,-1,-1,-1,-1,-1,-1,-1,-1,-1,-1,-1,-1,-1,-1,-1,-1,-1,-1],"split_conditions":[4.7E0,4.4999995E0,4.7999997E0,1.6306667E0,1.8969995E2,-3.7285793E-1,9.09833E-1,1.0182337E1,5.024417E0,5.9119163E0,5.741083E0,-1.8183337E-1,4.7264996E0,9.793059E0,3.8000002E0,4.3410835E0,5.830666E0,9.4730324E-1,1.1157972E-1,2.0345573E1,3.8538445E-2,-3.646417E0,1.3196588E2,4.2910833E0,1.8843168E1,8.654986E0,8.471885E1,1.0000001E0,6.2362103E1,1.6489416E1,2.1372566E2,1.949645E2,6.176501E0,4.5674365E-2,-1.4974697E-1,-4.1068335E0,1.61198E1,-9.849999E-2,5.8E0,4.2535834E0,1.7340884E2,1.4116084E1,5.9000006E0,-2.1177565E-1,3.9599475E-2,6.8767977E-1,5.8219407E-2,-7.331445E-2,7.4447215E-2,-4.921427E-2,-3.7496743E-1,1.249256E-1,-5.690035E-2,6.7013776E-1,-4.6997752E-2,-3.298932E-1,-4.0832132E-2,1.4409359E-1,2.428059E-3,2.0867927E-2,-4.6500333E-2,-3.8901046E-2,-2.248479E-1,9.3792355E-1,2.5016937E-1,3.8743117E-1,4.8815615E-2,-1.4559586E-1,4.0964815E-1,-3.7688848E-2,-3.8492295E-1,2.0799272E-2,-9.401204E-2,-9.2285894E-2,2.3141855E-1],"split_indices":[1,1,1,0,3,0,0,2,0,0,0,0,0,2,1,0,0,0,0,2,0,0,3,0,0,2,3,1,3,2,3,3,0,0,0,0,2,0,1,0,3,0,1,0,0,0,0,0,0,0,0,0,0,0,0,0,0,0,0,0,0,0,0,0,0,0,0,0,0,0,0,0,0,0,0],"split_type":[0,0,0,0,0,0,0,0,0,0,0,0,0,0,0,0,0,0,0,0,0,0,0,0,0,0,0,0,0,0,0,0,0,0,0,0,0,0,0,0,0,0,0,0,0,0,0,0,0,0,0,0,0,0,0,0,0,0,0,0,0,0,0,0,0,0,0,0,0,0,0,0,0,0,0],"sum_hessian":[1.614E3,1.264E3,3.5E2,1.253E3,1.1E1,5E0,3.45E2,2.06E2,1.047E3,5E0,6E0,1.5E1,3.3E2,1.9E1,1.87E2,2.5E2,7.97E2,4E0,1E0,4E0,2E0,7E0,8E0,6.8E1,2.62E2,1.3E1,6E0,1.81E2,6E0,1.97E2,5.3E1,5.4E1,7.43E2,1E0,3E0,2E0,5E0,4E0,4E0,5.5E1,1.3E1,2.47E2,1.5E1,3E0,1E1,3E0,3E0,1.44E2,3.7E1,2E0,4E0,6.8E1,1.29E2,2.5E1,2.8E1,1.5E1,3.9E1,3.2E1,7.11E2,1E0,1E0,1E0,4E0,2E0,2E0,1E0,3E0,5.2E1,3E0,3E0,1E1,1.74E2,7.3E1,3E0,1.2E1],"tree_param":{"num_deleted":"0","num_feature":"4","num_nodes":"75","size_leaf_vector":"1"}},{"base_weights":[7.4230414E-3,-1.2799397E-2,1.3776298E-1,-1.1768623E-1,2.8437516E-2,4.2668197E-1,8.175245E-2,1.3213598E-2,-3.2262176E-1,3.5915667E-1,-7.28816E-3,3.0257377E-1,8.7988997E-1,-2.2564154E-2,2.504716E-1,-1.3968517E-1,1.8049747E-1,-1.8986781E-1,-1.0000374E0,-1.8188338E-1,5.67466E-1,4.210297E-2,-2.2995308E-1,-3.2241705E-1,4.7963297E-1,1.7734106E0,-2.3360315E-1,3.4264213E-1,-1.8205984E-1,1.425264E0,3.091847E-2,-3.6996227E-2,-4.987676E-1,8.8149E-1,1.3096616E-1,-1.1526284E0,-1.17288195E-1,-1.1312196E0,-2.8526142E-2,5.529692E-1,-5.5907506E-1,2.080363E0,3.958084E-1,-1.2970296E-1,1.4845641E-1,-3.4385353E-1,1.2291296E-1,-1.6820759E-1,1.8218021E-1,8.19589E-1,2.4368382E-1,7.301187E-1,-3.1131668E-2,-4.352506E-1,5.5700883E-2,1.4396996E0,-9.248163E-2,-4.896796E-1,6.808173E-2,2.8346164E0,-2.216324E-1,-3.1779274E-1,8.677648E-2,-2.6754662E-2,9.259704E-1,1.5517882E-1,-1.1270694E-2,-4.4664097E-1,-1.0806275E-1,1.3195919E-1,-8.182965E-2,-1.2895606E-1,-3.9366546E-1,-3.9316043E-2,1.4800238E-2,-2.0450296E-2,6.0750335E-1,-7.998942E-2,-4.7672433E-1,9.44751E-1,-1.183309E-1,-1.9100048E-1,1.924768E-1,-1.0393665E-1,-8.853595E-3,9.756372E-2,1.5249379E-3,3.749055E-2,-1.2871999E-1,3.4744242E-1,-1.5911808E-2,2.2132224E-1,-1.3934115E-1,1.2043924E-1,3.7256378E-1,1.4724584E-1,-6.264687E-2,-1.6553575E-1,-3.0327024E-2,1.6878346E-2,8.4356576E-1,1.18053444E-1,-1.8262346E-1,-2.6637682E-1,3.8116682E-2,2.9551652E-1,-6.261016E-3,1.1058043E0,2.2636415E-1,-3.2302317E-1,2.9771814E-1,-3.6332246E-2,6.515423E-2],"categories":[],"categories_nodes":[],"categories_segments":[],"categories_sizes":[],"default_left":[0,0,0,0,0,0,0,0,0,0,0,0,0,0,0,0,0,0,0,0,0,0,0,0,0,0,0,0,0,0,0,0,0,0,0,0,0,0,0,0,0,0,0,0,0,0,0,0,0,0,0,0,0,0,0,0,0,0,0,0,0,0,0,0,0,0,0,0,0,0,0,0,0,0,0,0,0,0,0,0,0,0,0,0,0,0,0,0,0,0,0,0,0,0,0,0,0,0,0,0,0,0,0,0,0,0,0,0,0,0,0,0,0],"id":12,"left_children":[1,3,5,7,9,11,13,15,17,19,21,23,25,27,29,31,33,35,37,39,41,43,45,47,49,51,53,55,57,59,61,63,-1,-1,65,67,69,71,73,75,77,79,81,83,85,87,89,-1,91,93,95,-1,-1,97,-1,99,101,103,105,107,109,-1,111,-1,-1,-1,-1,-1,-1,-1,-1,-1,-1,-1,-1,-1,-1,-1,-1,-1,-1,-1,-1,-1,-1,-1,-1,-1,-1,-1,-1,-1,-1,-1,-1,-1,-1,-1,-1,-1,-1,-1,-1,-1,-1,-1,-1,-1,-1,-1,-1,-1,-1],"loss_changes":[4.2585664E0,6.054315E0,3.4767218E0,1.0600542E1,1.1876859E1,1.7024074E0,3.22649E0,6.2149673E0,1.3659283E1,1.1148173E1,9.995568E0,3.3637927E0,7.378778E0,6.702748E0,1.8010988E1,1.9799038E1,1.5460505E1,8.948793E0,3.1538544E0,8.070199E0,1.7615295E1,1.3613736E1,6.6738777E0,9.437771E-1,1.6451635E0,5.2107067E0,4.1899395E-1,1.68406E1,6.1892176E0,2.6159876E1,3.7457998E0,1.983602E1,0E0,0E0,7.5064554E0,1.8612423E0,1.06881695E1,2.2287579E0,3.8396634E-2,9.281435E0,5.2994576E0,1.9757727E1,1.6903074E1,6.17902E0,1.1655705E1,5.0473404E0,7.5296116E0,0E0,1.4204196E0,1.0905604E0,1.7799523E0,0E0,0E0,6.1044335E-2,0E0,1.8825153E1,6.7629576E0,8.954796E0,3.6910465E0,7.844528E0,7.2973204E0,0E0,1.598622E0,0E0,0E0,0E0,0E0,0E0,0E0,0E0,0E0,0E0,0E0,0E0,0E0,0E0,0E0,0E0,0E0,0E0,0E0,0E0,0E0,0E0,0E0,0E0,0E0,0E0,0E0,0E0,0E0,0E0,0E0,0E0,0E0,0E0,0E0,0E0,0E0,0E0,0E0,0E0,0E0,0E0,0E0,0E0,0E0,0E0,0E0,0E0,0E0,0E0,0E0],"parents":[2147483647,0,0,1,1,2,2,3,3,4,4,5,5,6,6,7,7,8,8,9,9,10,10,11,11,12,12,13,13,14,14,15,15,16,16,17,17,18,18,19,19,20,20,21,21,22,22,23,23,24,24,25,25,26,26,27,27,28,28,29,29,30,30,31,31,34,34,35,35,36,36,37,37,38,38,39,39,40,40,41,41,42,42,43,43,44,44,45,45,46,46,48,48,49,49,50,50,53,53,55,55,56,56,57,57,58,58,59,59,60,60,62,62],"right_children":[2,4,6,8,10,12,14,16,18,20,22,24,26,28,30,32,34,36,38,40,42,44,46,48,50,52,54,56,58,60,62,64,-1,-1,66,68,70,72,74,76,78,80,82,84,86,88,90,-1,92,94,96,-1,-1,98,-1,100,102,104,106,108,110,-1,112,-1,-1,-1,-1,-1,-1,-1,-1,-1,-1,-1,-1,-1,-1,-1,-1,-1,-1,-1,-1,-1,-1,-1,-1,-1,-1,-1,-1,-1,-1,-1,-1,-1,-1,-1,-1,-1,-1,-1,-1,-1,-1,-1,-1,-1,-1,-1,-1,-1,-1],"split_conditions":[1.6501501E1,1.6055353E1,8.8472496E1,2E-1,1.7313717E1,2.1129883E1,2.2331631E2,1.7262636E2,1.5192682E1,1.0610477E2,1.3314002E1,1.7736917E1,1.8080667E1,1.3910169E1,2.371845E2,1.5446115E2,1.8057367E2,3E-1,2.3227835E2,-2.1416605E-2,1.13622284E2,4.4619164E0,2.7952787E1,6E-1,1.35515E1,3E-1,2.012025E1,1.7874416E1,1.8080667E1,1.7105667E1,2.3778181E2,1.5367055E2,-4.987676E-1,8.8149E-1,1.2475961E1,2.1775667E2,2.424417E0,7.607254E1,-3.3599997E-1,-3.3599997E-1,8.2399796E1,1.6323528E1,1.4719174E2,2.0111729E1,2.1310208E2,1.9107151E1,1.5814651E2,-1.6820759E-1,1.6651499E1,5.590029E1,6.48499E1,7.301187E-1,-3.1131668E-2,1.9016087E1,5.5700883E-2,1.5209558E2,1.6602641E2,2.0111729E1,1.82265E1,2.0150354E1,1.6E0,-3.1779274E-1,1.476439E1,-2.6754662E-2,9.259704E-1,1.5517882E-1,-1.1270694E-2,-4.4664097E-1,-1.0806275E-1,1.3195919E-1,-8.182965E-2,-1.2895606E-1,-3.9366546E-1,-3.9316043E-2,1.4800238E-2,-2.0450296E-2,6.0750335E-1,-7.998942E-2,-4.7672433E-1,9.44751E-1,-1.183309E-1,-1.9100048E-1,1.924768E-1,-1.0393665E-1,-8.853595E-3,9.756372E-2,1.5249379E-3,3.749055E-2,-1.2871999E-1,3.4744242E-1,-1.5911808E-2,2.2132224E-1,-1.3934115E-1,1.2043924E-1,3.7256378E-1,1.4724584E-1,-6.264687E-2,-1.6553575E-1,-3.0327024E-2,1.6878346E-2,8.4356576E-1,1.18053444E-1,-1.8262346E-1,-2.6637682E-1,3.8116682E-2,2.9551652E-1,-6.261016E-3,1.1058043E0,2.2636415E-1,-3.2302317E-1,2.9771814E-1,-3.6332246E-2,6.515423E-2],"split_indices":[0,2,3,1,2,2,3,3,2,3,0,0,0,2,3,3,3,1,3,0,3,0,2,1,2,1,0,0,0,0,3,3,0,0,2,3,0,3,0,0,3,2,3,2,3,2,3,0,0,3,3,0,0,0,0,3,3,2,0,2,1,0,2,0,0,0,0,0,0,0,0,0,0,0,0,0,0,0,0,0,0,0,0,0,0,0,0,0,0,0,0,0,0,0,0,0,0,0,0,0,0,0,0,0,0,0,0,0,0,0,0,0,0],"split_type":[0,0,0,0,0,0,0,0,0,0,0,0,0,0,0,0,0,0,0,0,0,0,0,0,0,0,0,0,0,0,0,0,0,0,0,0,0,0,0,0,0,0,0,0,0,0,0,0,0,0,0,0,0,0,0,0,0,0,0,0,0,0,0,0,0,0,0,0,0,0,0,0,0,0,0,0,0,0,0,0,0,0,0,0,0,0,0,0,0,0,0,0,0,0,0,0,0,0,0,0,0,0,0,0,0,0,0,0,0,0,0,0,0],"sum_hessian":[1.614E3,1.398E3,2.16E2,3.94E2,1.004E3,3.4E1,1.82E2,2.41E2,1.53E2,9.7E1,9.07E2,2.8E1,6E0,1.13E2,6.9E1,1.26E2,1.15E2,1.29E2,2.4E1,2.7E1,7E1,7.43E2,1.64E2,6E0,2.2E1,3E0,3E0,3.4E1,7.9E1,1E1,5.9E1,1.19E2,7E0,1E0,1.14E2,8E0,1.21E2,2.1E1,3E0,9E0,1.8E1,6E0,6.4E1,2.84E2,4.59E2,1.24E2,4E1,4E0,2E0,8E0,1.4E1,2E0,1E0,2E0,1E0,9E0,2.5E1,3.5E1,4.4E1,5E0,5E0,2E0,5.7E1,1.18E2,1E0,3.4E1,8E1,5E0,3E0,2.6E1,9.5E1,5E0,1.6E1,1E0,2E0,7E0,2E0,1.5E1,3E0,4E0,2E0,1.2E1,5.2E1,8.9E1,1.95E2,2.05E2,2.54E2,1.9E1,1.05E2,5E0,3.5E1,1E0,1E0,5E0,3E0,9E0,5E0,1E0,1E0,5E0,4E0,1.3E1,1.2E1,2.1E1,1.4E1,3E0,4.1E1,3E0,2E0,3E0,2E0,2.2E1,3.5E1],"tree_param":{"num_deleted":"0","num_feature":"4","num_nodes":"113","size_leaf_vector":"1"}},{"base_weights":[7.910635E-3,1.8283047E-2,-1.9950564E-1,-2.1708254E-2,7.404341E-2,7.0566016E-1,-3.2968435E-1,3.1128798E-3,-3.7430525E-1,1.5031791E0,5.595044E-2,-2.669308E-1,1.4188468E0,-4.376251E-1,8.088137E-2,3.3822287E-2,-2.0071422E-1,-6.1821324E-1,2.1560818E-1,2.0770326E0,-1.4558734E-1,1.8966896E-2,2.7723688E-1,-5.83013E-1,1.678714E-1,1.5704793E-1,-4.6563664E-1,-1.2745893E-1,3.3719298E-1,-2.213635E-2,1.8533543E-1,-4.7030067E-1,5.8204792E-2,2.697104E-1,-7.187765E-1,2.899527E-1,-1.5723732E-1,-1.00181766E-1,7.878044E-1,4.5852534E-2,-1.11366846E-1,5.5020608E-2,-2.1915089E-1,2.0727797E0,1.7085813E-1,-1.73913E-1,-2.1356113E-1,-5.566149E-1,-1.084099E-1,-2.3702443E-1,6.875405E-2,4.878083E-1,-2.6230196E-2,2.3800295E-3,-1.04721285E-1,2.1485043E-1,1.9868579E-2,-5.1872037E-2,-3.3221963E-1,-8.877482E-3,7.4622047E-1,-5.3282477E-2,1.8813768E-1,-2.4936141E-1,-3.0641144E-2,4.079254E-2,1.8969116E-1,1.30963875E-2,5.486153E-1,-8.673779E-2,3.1281203E-1,1.2732337E0,1.4067559E-1,1.3707367E-1,-2.8210798E-2,-9.1322996E-2,1.3062144E-2,-2.2340581E-1,-9.3750685E-2,1.0989897E-1,-1.1747131E-1,-8.320243E-2,-5.315906E-3,-1.2469447E-2,3.5814583E-2,1.8252616E-1,6.1378E-2,-2.165749E-2,9.8538995E-3],"categories":[],"categories_nodes":[],"categories_segments":[],"categories_sizes":[],"default_left":[0,0,0,0,0,0,0,0,0,0,0,0,0,0,0,0,0,0,0,0,0,0,0,0,0,0,0,0,0,0,0,0,0,0,0,0,0,0,0,0,0,0,0,0,0,0,0,0,0,0,0,0,0,0,0,0,0,0,0,0,0,0,0,0,0,0,0,0,0,0,0,0,0,0,0,0,0,0,0,0,0,0,0,0,0,0,0,0,0],"id":13,"left_children":[1,3,5,7,9,11,13,15,17,19,21,23,-1,25,27,29,31,33,35,37,39,41,43,45,-1,-1,47,49,51,53,55,57,59,61,63,65,-1,-1,-1,-1,-1,67,69,71,73,75,-1,77,79,81,83,85,87,-1,-1,-1,-1,-1,-1,-1,-1,-1,-1,-1,-1,-1,-1,-1,-1,-1,-1,-1,-1,-1,-1,-1,-1,-1,-1,-1,-1,-1,-1,-1,-1,-1,-1,-1,-1],"loss_changes":[3.4781702E0,3.4334688E0,9.305811E0,7.8515816E0,1.6542145E1,4.0397846E1,3.0489368E0,5.258433E0,8.622482E0,7.8715916E0,5.1997385E0,2.6774213E0,0E0,1.697567E0,8.439788E-1,6.1933846E0,7.70549E0,3.944147E0,1.1418824E0,8.818411E0,2.5874692E-1,4.699485E0,1.702754E1,2.452054E-1,0E0,0E0,1.6621485E0,2.0977992E-1,3.959551E-1,5.2524443E0,1.2408052E1,1.0039852E1,1.2230265E1,9.1077507E-1,2.549553E0,8.101672E-1,0E0,0E0,0E0,0E0,0E0,9.4960785E0,6.65897E0,1.5422436E1,6.6353073E0,9.8385215E-2,0E0,1.6955261E0,1.7565782E0,4.8135877E-2,2.7302938E-2,4.63171E-2,1.0516955E-2,0E0,0E0,0E0,0E0,0E0,0E0,0E0,0E0,0E0,0E0,0E0,0E0,0E0,0E0,0E0,0E0,0E0,0E0,0E0,0E0,0E0,0E0,0E0,0E0,0E0,0E0,0E0,0E0,0E0,0E0,0E0,0E0,0E0,0E0,0E0,0E0],"parents":[2147483647,0,0,1,1,2,2,3,3,4,4,5,5,6,6,7,7,8,8,9,9,10,10,11,11,13,13,14,14,15,15,16,16,17,17,18,18,19,19,20,20,21,21,22,22,23,23,26,26,27,27,28,28,29,29,30,30,31,31,32,32,33,33,34,34,35,35,41,41,42,42,43,43,44,44,45,45,47,47,48,48,49,49,50,50,51,51,52,52],"right_children":[2,4,6,8,10,12,14,16,18,20,22,24,-1,26,28,30,32,34,36,38,40,42,44,46,-1,-1,48,50,52,54,56,58,60,62,64,66,-1,-1,-1,-1,-1,68,70,72,74,76,-1,78,80,82,84,86,88,-1,-1,-1,-1,-1,-1,-1,-1,-1,-1,-1,-1,-1,-1,-1,-1,-1,-1,-1,-1,-1,-1,-1,-1,-1,-1,-1,-1,-1,-1,-1,-1,-1,-1,-1,-1],"split_conditions":[1.3600002E1,2.0478907E1,1.8043148E1,6.4000006E0,2.0570463E1,1.7414476E1,2.4140952E2,1.9161337E1,1.7295252E1,1.0547334E1,8.1E0,1.5482753E1,1.4188468E0,1.3514999E0,2.04E1,1.5011917E1,1.9293149E2,6.634375E1,1.944E1,2.1994166E0,1.3811917E1,5.3E0,8.4E0,1.3103273E2,1.678714E-1,1.5704793E-1,2.23E1,3.5768856E1,1.3686916E1,1.3899417E1,1.57244215E1,1.3701631E2,4.9E0,1.2493103E1,2.1775667E2,1.8075441E1,-1.5723732E-1,-1.00181766E-1,7.878044E-1,4.5852534E-2,-1.11366846E-1,5.2E0,1.6651499E1,2.4408424E1,9.780667E0,1.3811917E1,-2.1356113E-1,2.0242131E2,1.7151622E2,1.3011918E1,4.6389995E0,1.1936919E1,1.5093169E1,2.3800295E-3,-1.04721285E-1,2.1485043E-1,1.9868579E-2,-5.1872037E-2,-3.3221963E-1,-8.877482E-3,7.4622047E-1,-5.3282477E-2,1.8813768E-1,-2.4936141E-1,-3.0641144E-2,4.079254E-2,1.8969116E-1,1.30963875E-2,5.486153E-1,-8.673779E-2,3.1281203E-1,1.2732337E0,1.4067559E-1,1.3707367E-1,-2.8210798E-2,-9.1322996E-2,1.3062144E-2,-2.2340581E-1,-9.3750685E-2,1.0989897E-1,-1.1747131E-1,-8.320243E-2,-5.315906E-3,-1.2469447E-2,3.5814583E-2,1.8252616E-1,6.1378E-2,-2.165749E-2,9.8538995E-3],"split_indices":[1,2,2,1,2,2,3,2,0,0,1,0,0,0,1,0,3,3,2,0,0,1,1,3,0,0,1,2,0,0,0,3,1,3,3,2,0,0,0,0,0,1,0,2,0,0,0,3,3,0,0,0,0,0,0,0,0,0,0,0,0,0,0,0,0,0,0,0,0,0,0,0,0,0,0,0,0,0,0,0,0,0,0,0,0,0,0,0,0],"split_type":[0,0,0,0,0,0,0,0,0,0,0,0,0,0,0,0,0,0,0,0,0,0,0,0,0,0,0,0,0,0,0,0,0,0,0,0,0,0,0,0,0,0,0,0,0,0,0,0,0,0,0,0,0,0,0,0,0,0,0,0,0,0,0,0,0,0,0,0,0,0,0,0,0,0,0,0,0,0,0,0,0,0,0,0,0,0,0,0,0],"sum_hessian":[1.614E3,1.538E3,7.6E1,8.96E2,6.42E2,9E0,6.7E1,8.38E2,5.8E1,7E0,6.35E2,8E0,1E0,5.3E1,1.4E1,7.29E2,1.09E2,4.1E1,1.7E1,5E0,2E0,5.45E2,9E1,6E0,2E0,1E0,5.2E1,8E0,6E0,5.33E2,1.96E2,5.3E1,5.6E1,4E0,3.7E1,1.6E1,1E0,1E0,4E0,1E0,1E0,4.74E2,7.1E1,4E0,8.6E1,2E0,4E0,4.1E1,1.1E1,5E0,3E0,4E0,2E0,4.89E2,4.4E1,3.5E1,1.61E2,3.7E1,1.6E1,5.5E1,1E0,2E0,2E0,3.1E1,6E0,1.2E1,4E0,4.72E2,2E0,6.8E1,3E0,1E0,3E0,4.1E1,4.5E1,1E0,1E0,2.2E1,1.9E1,4E0,7E0,4E0,1E0,1E0,2E0,2E0,2E0,1E0,1E0],"tree_param":{"num_deleted":"0","num_feature":"4","num_nodes":"89","size_leaf_vector":"1"}},{"base_weights":[8.410853E-3,-4.5471507E-1,1.2452897E-2,-5.616089E-1,3.7329618E-2,2.5497084E-2,-1.3795827E-1,-2.0577125E-1,-3.7484035E-1,2.0509694E-2,9.374959E-1,-6.748673E-1,1.2253712E-2,-6.7360285E-3,-1.289488E-1,2.5400525E-2,-5.2884096E-1,5.635804E-1,-2.8876066E-3,-1.0535525E0,-1.5688032E-1,3.1567702E-1,-8.668886E-3,-3.7859995E-2,6.1972264E-2,-7.5740796E-1,1.7478687E-1,3.1647775E-1,-9.6387126E-2,-1.437895E-1,-3.6150873E-1,7.1098024E-1,-3.7930772E-1,-4.1398665E-1,3.1075994E-2,9.886252E-2,-1.928702E-2,5.4565016E-2,-3.0744188E-3,-3.3604276E-1,-1.32579E-1,-2.6934076E-2,1.4527324E-1,-1.0742442E-1,2.4983941E-1,-1.2770772E-1,4.4764882E-1,-4.37377E-2,-2.860254E-1,-1.7221746E-1,-7.148237E-2,1.9997534E-1,6.493945E-4],"categories":[],"categories_nodes":[],"categories_segments":[],"categories_sizes":[],"default_left":[0,0,0,0,0,0,0,0,0,0,0,0,0,0,0,0,0,0,0,0,0,0,0,0,0,0,0,0,0,0,0,0,0,0,0,0,0,0,0,0,0,0,0,0,0,0,0,0,0,0,0,0,0],"id":14,"left_children":[1,3,5,7,-1,9,11,-1,13,15,17,19,21,-1,-1,23,25,-1,27,29,31,-1,33,35,37,39,41,43,-1,-1,-1,45,47,49,51,-1,-1,-1,-1,-1,-1,-1,-1,-1,-1,-1,-1,-1,-1,-1,-1,-1,-1],"loss_changes":[3.0289018E0,9.3658376E-1,3.1466281E0,2.1468878E-2,0E0,6.6898E0,1.0331491E1,0E0,1.2599045E-1,3.957627E0,7.085425E0,5.327029E0,2.2068377E0,0E0,0E0,3.3708715E0,2.2231247E0,0E0,6.1011535E-1,8.142071E-1,2.7791476E0,0E0,1.6237956E0,5.206566E0,7.995063E0,6.493225E-1,3.709644E-1,1.343075E0,0E0,0E0,0E0,3.299049E0,1.3356982E0,1.1635506E-1,1.6889102E0,0E0,0E0,0E0,0E0,0E0,0E0,0E0,0E0,0E0,0E0,0E0,0E0,0E0,0E0,0E0,0E0,0E0,0E0],"parents":[2147483647,0,0,1,1,2,2,3,3,5,5,6,6,8,8,9,9,10,10,11,11,12,12,15,15,16,16,18,18,19,19,20,20,22,22,23,23,24,24,25,25,26,26,27,27,31,31,32,32,33,33,34,34],"right_children":[2,4,6,8,-1,10,12,-1,14,16,18,20,22,-1,-1,24,26,-1,28,30,32,-1,34,36,38,40,42,44,-1,-1,-1,46,48,50,52,-1,-1,-1,-1,-1,-1,-1,-1,-1,-1,-1,-1,-1,-1,-1,-1,-1,-1],"split_conditions":[6.78159E0,1.3464002E1,3.2343952E1,1.1792404E1,3.7329618E-2,3.2112724E1,2.0478354E2,-2.0577125E-1,1.2397806E1,3.1491255E1,1.9787094E2,1.2400001E1,2.0559045E2,-6.7360285E-3,-1.289488E-1,1E-1,2.7216043E2,5.635804E-1,5.663999E0,7.607254E1,1.3600002E1,3.1567702E-1,3.279361E1,1.024578E1,1.4000002E0,1.2000002E0,1.0372334E1,3.2410834E0,-9.6387126E-2,-1.437895E-1,-3.6150873E-1,1.0556666E0,2.6999998E1,2.9999998E0,3.3121956E1,9.886252E-2,-1.928702E-2,5.4565016E-2,-3.0744188E-3,-3.3604276E-1,-1.32579E-1,-2.6934076E-2,1.4527324E-1,-1.0742442E-1,2.4983941E-1,-1.2770772E-1,4.4764882E-1,-4.37377E-2,-2.860254E-1,-1.7221746E-1,-7.148237E-2,1.9997534E-1,6.493945E-4],"split_indices":[3,0,2,2,0,2,3,0,2,2,3,1,3,0,0,1,3,0,0,3,1,0,2,2,1,1,0,0,0,0,0,0,1,1,2,0,0,0,0,0,0,0,0,0,0,0,0,0,0,0,0,0,0],"split_type":[0,0,0,0,0,0,0,0,0,0,0,0,0,0,0,0,0,0,0,0,0,0,0,0,0,0,0,0,0,0,0,0,0,0,0,0,0,0,0,0,0,0,0,0,0,0,0,0,0,0,0,0,0],"sum_hessian":[1.614E3,1.3E1,1.601E3,1.1E1,2E0,1.474E3,1.27E2,5E0,6E0,1.467E3,7E0,2.7E1,1E2,1E0,5E0,1.455E3,1.2E1,3E0,4E0,1.5E1,1.2E1,1E0,9.9E1,5.33E2,9.22E2,9E0,3E0,2E0,2E0,4E0,1.1E1,2E0,1E1,8E0,9.1E1,3.5E1,4.98E2,3.46E2,5.76E2,3E0,6E0,2E0,1E0,1E0,1E0,1E0,1E0,8E0,2E0,3E0,5E0,3E0,8.8E1],"tree_param":{"num_deleted":"0","num_feature":"4","num_nodes":"53","size_leaf_vector":"1"}},{"base_weights":[5.790864E-3,-2.293696E-3,1.7907934E-1,-6.749936E-2,2.4421303E-2,2.822412E-1,-3.1082758E-1,9.132645E-3,-2.1581444E-1,1.05976045E-1,-1.9888896E-2,1.1412404E0,1.6566275E-1,-3.739915E-1,-1.2895682E-1,-3.0946724E-2,7.149607E-1,-5.37703E-1,-3.480755E-2,2.6952988E-2,7.3569596E-1,-9.6580064E-1,-8.879599E-4,-4.337677E-2,1.68449E0,3.7135944E-2,6.124119E-1,-2.4014892E-1,1.5346459E-1,4.0546986E-3,-8.188166E-1,1.9853679E0,-2.4582033E-1,-2.1042456E-1,-1.3222924E0,4.0849018E-1,-1.251841E-1,-7.6372705E-2,1.5196326E-1,-4.391239E-1,1.259422E0,-1.0640441E0,4.670477E-2,7.371452E-1,-1.3778076E-2,2.086152E0,1.1676336E-2,3.6192143E-1,-1.6873403E-1,-1.0779333E-1,1.1422433E0,4.8274346E-2,-3.1039613E-1,-5.1736552E-2,1.1536021E-1,-1.0690155E-2,1.6916369E-1,-3.5804284E-1,-7.357333E-2,1.1796396E-1,1.193151E0,-3.1481832E-1,2.5874248E-2,-1.4284922E-1,1.600347E-1,-5.6196654E-1,-2.7562119E-2,4.701755E-2,2.0164058E-1,-2.2840562E-1,-8.2825E-3,-5.102207E-3,-1.918196E-1,7.053628E-1,2.3585968E-2,-3.1433624E-1,4.033446E-1,4.4034722E-1,-3.3164135E-1,-3.5346425E-1,-1.5378253E-1,4.567805E-1,-2.0010425E-1,-3.0109936E-1,-1.0748397E-3,7.171468E-1,1.7597102E-1,-7.804105E-2,1.386615E-1,2.858396E-2,-3.325988E-1,3.602135E-2,-7.552302E-2,4.6832168E-1,1.987492E-1,-1.168598E-1,-1.4597321E-2,1.5679122E-3,-2.4849363E-2],"categories":[],"categories_nodes":[],"categories_segments":[],"categories_sizes":[],"default_left":[0,0,0,0,0,0,0,0,0,0,0,0,0,0,0,0,0,0,0,0,0,0,0,0,0,0,0,0,0,0,0,0,0,0,0,0,0,0,0,0,0,0,0,0,0,0,0,0,0,0,0,0,0,0,0,0,0,0,0,0,0,0,0,0,0,0,0,0,0,0,0,0,0,0,0,0,0,0,0,0,0,0,0,0,0,0,0,0,0,0,0,0,0,0,0,0,0,0,0],"id":15,"left_children":[1,3,5,7,9,11,13,15,17,19,21,23,25,-1,27,29,31,33,35,37,39,41,43,-1,45,47,49,51,53,55,57,59,61,63,65,67,69,71,73,75,77,79,-1,81,83,85,-1,87,89,91,93,-1,95,97,-1,-1,-1,-1,-1,-1,-1,-1,-1,-1,-1,-1,-1,-1,-1,-1,-1,-1,-1,-1,-1,-1,-1,-1,-1,-1,-1,-1,-1,-1,-1,-1,-1,-1,-1,-1,-1,-1,-1,-1,-1,-1,-1,-1,-1],"loss_changes":[2.262963E0,2.6912491E0,3.7265866E0,5.1051626E0,3.9627304E0,5.8193855E0,2.0517933E0,8.424001E0,8.895682E0,1.9188452E1,1.2778093E1,5.1332455E0,3.0778966E0,0E0,4.1369063E-1,7.7799115E0,2.0017374E1,1.3844612E1,4.017445E0,4.4549756E0,2.7010242E1,1.7081518E0,6.650462E0,0E0,3.2236147E0,2.9362025E0,4.7021747E0,3.035096E-1,2.0955731E-1,6.0413365E0,2.2860384E0,2.0634916E1,2.7589185E0,8.161072E0,1.0673874E1,1.0230618E0,5.1311703E0,6.3063045E0,2.4977968E1,1.6607355E1,1.6408092E1,2.1448326E-1,0E0,1.4250467E1,6.929723E0,4.233265E-1,0E0,1.1807342E0,6.8057976E0,2.2703376E-1,3.723135E-1,0E0,1.4675081E-1,5.746633E-3,0E0,0E0,0E0,0E0,0E0,0E0,0E0,0E0,0E0,0E0,0E0,0E0,0E0,0E0,0E0,0E0,0E0,0E0,0E0,0E0,0E0,0E0,0E0,0E0,0E0,0E0,0E0,0E0,0E0,0E0,0E0,0E0,0E0,0E0,0E0,0E0,0E0,0E0,0E0,0E0,0E0,0E0,0E0,0E0,0E0],"parents":[2147483647,0,0,1,1,2,2,3,3,4,4,5,5,6,6,7,7,8,8,9,9,10,10,11,11,12,12,14,14,15,15,16,16,17,17,18,18,19,19,20,20,21,21,22,22,24,24,25,25,26,26,27,27,28,28,29,29,30,30,31,31,32,32,33,33,34,34,35,35,36,36,37,37,38,38,39,39,40,40,41,41,43,43,44,44,45,45,47,47,48,48,49,49,50,50,52,52,53,53],"right_children":[2,4,6,8,10,12,14,16,18,20,22,24,26,-1,28,30,32,34,36,38,40,42,44,-1,46,48,50,52,54,56,58,60,62,64,66,68,70,72,74,76,78,80,-1,82,84,86,-1,88,90,92,94,-1,96,98,-1,-1,-1,-1,-1,-1,-1,-1,-1,-1,-1,-1,-1,-1,-1,-1,-1,-1,-1,-1,-1,-1,-1,-1,-1,-1,-1,-1,-1,-1,-1,-1,-1,-1,-1,-1,-1,-1,-1,-1,-1,-1,-1,-1,-1],"split_conditions":[1.9147333E1,1.6055353E1,1.944E1,4E-1,1.8208069E2,1.9361914E1,1.9361914E1,3E-1,5.2244163E0,1.7151622E2,1.8471838E2,1.1901798E1,1.7000002E0,-3.739915E-1,2.5210283E1,2E-1,1.7151622E2,3.264E0,1.1043261E1,1.0709823E2,4.19525E0,1.870775E1,1.867058E2,-4.337677E-2,1.6704155E1,1.13622284E2,1.39978E2,8.8472496E1,1.7000002E0,1E-1,2.3227835E2,1.5814651E2,2.0743118E2,2.5E0,1.4618837E1,1.0464797E1,1.2031756E1,9.546422E1,1.6323528E1,2.1924562E1,2.968636E1,2.6525429E1,4.670477E-2,9.314E0,1.8767886E2,6E-1,1.1676336E-2,1.5556648E1,2E-1,1.3896187E1,2.6000001E0,4.8274346E-2,2.0362376E2,1.9822336E1,1.1536021E-1,-1.0690155E-2,1.6916369E-1,-3.5804284E-1,-7.357333E-2,1.1796396E-1,1.193151E0,-3.1481832E-1,2.5874248E-2,-1.4284922E-1,1.600347E-1,-5.6196654E-1,-2.7562119E-2,4.701755E-2,2.0164058E-1,-2.2840562E-1,-8.2825E-3,-5.102207E-3,-1.918196E-1,7.053628E-1,2.3585968E-2,-3.1433624E-1,4.033446E-1,4.4034722E-1,-3.3164135E-1,-3.5346425E-1,-1.5378253E-1,4.567805E-1,-2.0010425E-1,-3.0109936E-1,-1.0748397E-3,7.171468E-1,1.7597102E-1,-7.804105E-2,1.386615E-1,2.858396E-2,-3.325988E-1,3.602135E-2,-7.552302E-2,4.6832168E-1,1.987492E-1,-1.168598E-1,-1.4597321E-2,1.5679122E-3,-2.4849363E-2],"split_indices":[0,2,2,1,3,0,0,1,0,3,3,2,1,0,2,1,3,0,2,3,0,0,3,0,2,3,3,3,1,1,3,3,3,1,2,2,2,3,2,2,2,2,0,0,3,1,0,3,1,2,1,0,3,0,0,0,0,0,0,0,0,0,0,0,0,0,0,0,0,0,0,0,0,0,0,0,0,0,0,0,0,0,0,0,0,0,0,0,0,0,0,0,0,0,0,0,0,0,0],"split_type":[0,0,0,0,0,0,0,0,0,0,0,0,0,0,0,0,0,0,0,0,0,0,0,0,0,0,0,0,0,0,0,0,0,0,0,0,0,0,0,0,0,0,0,0,0,0,0,0,0,0,0,0,0,0,0,0,0,0,0,0,0,0,0,0,0,0,0,0,0,0,0,0,0,0,0,0,0,0,0,0,0,0,0,0,0,0,0,0,0,0,0,0,0,0,0,0,0,0,0],"sum_hessian":[1.614E3,1.543E3,7.1E1,4.48E2,1.095E3,5.9E1,1.2E1,2.96E2,1.52E2,3.85E2,7.1E2,6E0,5.3E1,1E0,1.1E1,2.81E2,1.5E1,5.4E1,9.8E1,3.43E2,4.2E1,1.3E1,6.97E2,2E0,4E0,4.2E1,1.1E1,8E0,3E0,2.7E2,1.1E1,6E0,9E0,3.9E1,1.5E1,1.6E1,8.2E1,1.88E2,1.55E2,1.3E1,2.9E1,1.2E1,1E0,1.1E1,6.86E2,3E0,1E0,1.6E1,2.6E1,5E0,6E0,1E0,7E0,2E0,1E0,2.53E2,1.7E1,6E0,5E0,4E0,2E0,2E0,7E0,2.9E1,1E1,1E1,5E0,9E0,7E0,1E1,7.2E1,1.71E2,1.7E1,4E0,1.51E2,1E1,3E0,2.7E1,2E0,9E0,3E0,7E0,4E0,6E0,6.8E2,2E0,1E0,2E0,1.4E1,2.1E1,5E0,2E0,3E0,2E0,4E0,5E0,2E0,1E0,1E0],"tree_param":{"num_deleted":"0","num_feature":"4","num_nodes":"99","size_leaf_vector":"1"}},{"base_weights":[4.854119E-3,6.027478E-2,-2.3118742E-2,-6.278112E-3,4.6843168E-1,-2.74148E-1,-1.5858666E-4,3.0770155E-2,-4.2534328E-1,7.5188375E-1,-2.6149073E-1,-4.4809863E-1,2.2288702E-1,-5.3882763E-2,5.4889716E-2,-1.8886448E-1,7.4733734E-2,1.3222339E0,-6.129137E-1,1.5014038E0,-2.4489297E-2,1.1943465E0,-5.5422014E-1,-7.5610054E-1,-2.0758185E-1,1.0348657E0,-4.525822E-2,1.3998135E0,-7.142992E-2,1.4278948E0,3.1891942E-2,1.5640825E-1,-3.6475936E-1,-1.5913688E-1,1.3294189E-1,-1.7853145E-1,1.0611376E0,-8.692914E-1,-1.1217524E-1,-7.900261E-2,3.3310268E0,-4.723207E-1,1.7825931E-1,-9.452497E-2,8.583954E-1,-7.725022E-1,2.6023552E-1,5.801036E-1,-1.1298975E0,4.267217E-1,-3.3413267E-1,3.2182217E-3,1.237548E0,4.7916222E-1,-2.1704783E-1,8.980594E-1,-1.1917477E0,-2.828429E-1,4.5435645E-2,3.1779225E0,-2.5770628E-1,4.3740585E-1,-6.0257625E-2,-4.856246E-2,8.675343E-2,4.6775783E-3,-1.2583995E-1,1.0885407E-1,-9.8122366E-2,2.2677475E-1,2.433384E-2,6.5932386E-2,-3.3304068E-1,-8.80337E-2,2.9833717E-4,-2.1355964E-1,8.702075E-1,1.3297103E-1,1.3695722E0,-1.5584529E-2,-3.8872477E-1,1.6998535E-1,3.309578E-3,-4.0135816E-1,-1.4869004E-1,-3.6364812E-1,4.6183237E-1,1.9695082E-1,-4.2920482E-1,-1.5800387E-1,-3.7199967E-2,6.177299E-2,4.33194E-1,2.0563696E-1,3.3944156E-2,-9.1844805E-2,1.5455604E-1,-2.5833625E-2,-5.1045287E-1,-5.7072163E-2,-2.2370435E-1,1.9027208E-1,5.4431433E-4,2.8735077E-1,1.0796019E0,-1.1574301E-1,-1.3110138E-2,6.6939473E-1,5.4625258E-2,-4.0945526E-2,1.4987981E-2],"categories":[],"categories_nodes":[],"categories_segments":[],"categories_sizes":[],"default_left":[0,0,0,0,0,0,0,0,0,0,0,0,0,0,0,0,0,0,0,0,0,0,0,0,0,0,0,0,0,0,0,0,0,0,0,0,0,0,0,0,0,0,0,0,0,0,0,0,0,0,0,0,0,0,0,0,0,0,0,0,0,0,0,0,0,0,0,0,0,0,0,0,0,0,0,0,0,0,0,0,0,0,0,0,0,0,0,0,0,0,0,0,0,0,0,0,0,0,0,0,0,0,0,0,0,0,0,0,0,0,0],"id":16,"left_children":[1,3,5,7,9,11,13,15,17,19,21,23,25,27,29,31,33,35,37,39,41,43,45,47,49,51,53,55,57,59,61,63,65,67,69,-1,-1,71,73,75,77,79,81,-1,-1,83,-1,85,87,-1,89,-1,91,93,95,-1,97,99,101,103,105,107,109,-1,-1,-1,-1,-1,-1,-1,-1,-1,-1,-1,-1,-1,-1,-1,-1,-1,-1,-1,-1,-1,-1,-1,-1,-1,-1,-1,-1,-1,-1,-1,-1,-1,-1,-1,-1,-1,-1,-1,-1,-1,-1,-1,-1,-1,-1,-1,-1],"loss_changes":[2.5050864E0,1.47258415E1,6.1901383E0,7.263561E0,1.5920856E1,7.881237E0,2.9160209E0,4.166162E0,1.3266582E1,3.2041664E1,1.003759E1,4.806383E0,5.2723145E0,1.2828598E1,1.5332004E1,4.429734E0,4.908286E0,1.9091747E1,4.3957224E0,8.122651E1,2.626517E0,1.0966257E1,6.566292E0,1.5140055E1,8.520046E0,1.2321715E0,1.8157107E0,2.8348835E1,1.221806E1,2.4417759E1,1.7962965E1,1.1032704E0,1.0053205E0,6.43025E0,9.237679E0,0E0,0E0,6.2767677E0,2.669779E-1,3.2236706E1,4.431047E1,3.0480063E0,1.2926328E0,0E0,0E0,1.997922E0,0E0,1.3901753E1,1.3297668E1,0E0,1.4317269E0,0E0,7.674861E-1,2.999767E-1,1.1363724E0,0E0,1.544312E0,7.4014864E0,8.192174E0,2.8947067E-1,1.2021464E-1,4.0357857E1,3.3002481E0,0E0,0E0,0E0,0E0,0E0,0E0,0E0,0E0,0E0,0E0,0E0,0E0,0E0,0E0,0E0,0E0,0E0,0E0,0E0,0E0,0E0,0E0,0E0,0E0,0E0,0E0,0E0,0E0,0E0,0E0,0E0,0E0,0E0,0E0,0E0,0E0,0E0,0E0,0E0,0E0,0E0,0E0,0E0,0E0,0E0,0E0,0E0,0E0],"parents":[2147483647,0,0,1,1,2,2,3,3,4,4,5,5,6,6,7,7,8,8,9,9,10,10,11,11,12,12,13,13,14,14,15,15,16,16,17,17,18,18,19,19,20,20,21,21,22,22,23,23,24,24,25,25,26,26,27,27,28,28,29,29,30,30,31,31,32,32,33,33,34,34,37,37,38,38,39,39,40,40,41,41,42,42,45,45,47,47,48,48,50,50,52,52,53,53,54,54,56,56,57,57,58,58,59,59,60,60,61,61,62,62],"right_children":[2,4,6,8,10,12,14,16,18,20,22,24,26,28,30,32,34,36,38,40,42,44,46,48,50,52,54,56,58,60,62,64,66,68,70,-1,-1,72,74,76,78,80,82,-1,-1,84,-1,86,88,-1,90,-1,92,94,96,-1,98,100,102,104,106,108,110,-1,-1,-1,-1,-1,-1,-1,-1,-1,-1,-1,-1,-1,-1,-1,-1,-1,-1,-1,-1,-1,-1,-1,-1,-1,-1,-1,-1,-1,-1,-1,-1,-1,-1,-1,-1,-1,-1,-1,-1,-1,-1,-1,-1,-1,-1,-1,-1],"split_conditions":[4.8869166E0,4.2535834E0,5.797334E0,3.9140003E0,5.3E0,2.968636E1,1E0,4.5518665E1,1.2245293E1,2.1372566E2,1.7262636E2,1.9787094E2,3.3121956E1,5.9119163E0,1.0000001E0,-2.2151668E0,-9.6725005E-1,1.1966953E1,2.371845E2,1.4360832E2,2.3664352E1,9.2147514E1,4.8494163E0,1E-1,2.1372566E2,1E-1,1.6000001E0,2.1749483E1,1.1657749E1,1.7151622E2,8.549417E0,-7.1318345E0,1.0966713E1,6.03443E1,1.1726277E1,-1.7853145E-1,1.0611376E0,1.1693304E2,1.9813087E1,4.8139997E0,1E-1,2.2101183E1,2.780403E1,-9.452497E-2,8.583954E-1,6.5999994E0,2.6023552E-1,1.5034041E1,1.2397806E1,4.267217E-1,2.5634348E2,3.2182217E-3,5.3160825E0,2.5659647E2,1.5600001E1,8.980594E-1,5.830666E0,4E-1,1.2274417E1,1.01265E1,1.5916084E1,1.2363803E2,5.9000006E0,-4.856246E-2,8.675343E-2,4.6775783E-3,-1.2583995E-1,1.0885407E-1,-9.8122366E-2,2.2677475E-1,2.433384E-2,6.5932386E-2,-3.3304068E-1,-8.80337E-2,2.9833717E-4,-2.1355964E-1,8.702075E-1,1.3297103E-1,1.3695722E0,-1.5584529E-2,-3.8872477E-1,1.6998535E-1,3.309578E-3,-4.0135816E-1,-1.4869004E-1,-3.6364812E-1,4.6183237E-1,1.9695082E-1,-4.2920482E-1,-1.5800387E-1,-3.7199967E-2,6.177299E-2,4.33194E-1,2.0563696E-1,3.3944156E-2,-9.1844805E-2,1.5455604E-1,-2.5833625E-2,-5.1045287E-1,-5.7072163E-2,-2.2370435E-1,1.9027208E-1,5.4431433E-4,2.8735077E-1,1.0796019E0,-1.1574301E-1,-1.3110138E-2,6.6939473E-1,5.4625258E-2,-4.0945526E-2,1.4987981E-2],"split_indices":[0,0,0,0,1,2,1,3,2,3,3,3,2,0,1,0,0,2,3,3,2,3,0,1,3,1,1,2,0,3,0,0,2,3,2,0,0,3,2,0,1,2,2,0,0,1,0,2,2,0,3,0,0,3,1,0,0,1,0,0,0,3,1,0,0,0,0,0,0,0,0,0,0,0,0,0,0,0,0,0,0,0,0,0,0,0,0,0,0,0,0,0,0,0,0,0,0,0,0,0,0,0,0,0,0,0,0,0,0,0,0],"split_type":[0,0,0,0,0,0,0,0,0,0,0,0,0,0,0,0,0,0,0,0,0,0,0,0,0,0,0,0,0,0,0,0,0,0,0,0,0,0,0,0,0,0,0,0,0,0,0,0,0,0,0,0,0,0,0,0,0,0,0,0,0,0,0,0,0,0,0,0,0,0,0,0,0,0,0,0,0,0,0,0,0,0,0,0,0,0,0,0,0,0,0,0,0,0,0,0,0,0,0,0,0,0,0,0,0,0,0,0,0,0,0],"sum_hessian":[1.614E3,5.41E2,1.073E3,4.66E2,7.5E1,8.9E1,9.84E2,4.29E2,3.7E1,5.4E1,2.1E1,6.6E1,2.3E1,4.98E2,4.86E2,7.1E1,3.58E2,3E0,3.4E1,2.7E1,2.7E1,3E0,1.8E1,2.8E1,3.8E1,5E0,1.8E1,5E0,4.93E2,7E0,4.79E2,2.4E1,4.7E1,7.1E1,2.87E2,2E0,1E0,2.2E1,1.2E1,1.5E1,1.2E1,8E0,1.9E1,2E0,1E0,1.6E1,2E0,6E0,2.2E1,2E0,3.6E1,1E0,4E0,4E0,1.4E1,3E0,2E0,1.75E2,3.18E2,3E0,4E0,8.8E1,3.91E2,7E0,1.7E1,6E0,4.1E1,1.7E1,5.4E1,2.1E1,2.66E2,4E0,1.8E1,4E0,8E0,1.3E1,2E0,4E0,8E0,6E0,2E0,5E0,1.4E1,4E0,1.2E1,2E0,4E0,3E0,1.9E1,1.8E1,1.8E1,1E0,3E0,2E0,2E0,1.3E1,1E0,1E0,1E0,1.47E2,2.8E1,2.1E1,2.97E2,1E0,2E0,2E0,2E0,1E1,7.8E1,2.31E2,1.6E2],"tree_param":{"num_deleted":"0","num_feature":"4","num_nodes":"111","size_leaf_vector":"1"}},{"base_weights":[7.2460305E-3,4.6926025E-1,4.942946E-3,-4.3723296E-2,2.9795238E-1,1.1540756E-3,2.9121834E-1,-1.5561792E-1,6.0578283E-2,1.0785865E-2,-1.2466606E-1,4.9330723E-1,6.265507E-2,3.2408472E-2,-2.795094E-1,-4.0768467E-2,3.9542675E-2,-3.497062E-1,-9.696853E-2,-9.937724E-2,6.3605684E-1,-1.1314537E-1,3.9859217E-1,-2.17726E-2,-1.04006626E-1,-1.8262222E-2,-6.439222E-1,7.391091E-1,2.4439476E-2,-6.031204E-1,1.2569775E-1,1.574868E-1,-1.3923968E-1,6.56868E-2,-1.10406555E-1,7.481802E-1,1.6241662E-1,1.2587468E-2,-3.2689592E-1,-4.2591907E-2,6.261049E-1,-9.454227E-3,1.1060258E-1,-2.5274125E-1,2.0874809E-1,7.940751E-1,7.402085E-2,-1.6051072E-1,1.0636486E-2,-2.2706844E-1,-2.8359462E-2,-4.4391334E-2,1.8305598E-1,-6.97878E-2,8.232015E-2,-1.0792234E-1,-3.0920256E-2,6.406678E-2,2.4050748E-1,7.287219E-2,2.1529199E-4,-3.7337318E-2,5.7335567E-2,-2.9889608E-2,-1.17213555E-1,2.2613683E-1,5.5610385E-2],"categories":[],"categories_nodes":[],"categories_segments":[],"categories_sizes":[],"default_left":[0,0,0,0,0,0,0,0,0,0,0,0,0,0,0,0,0,0,0,0,0,0,0,0,0,0,0,0,0,0,0,0,0,0,0,0,0,0,0,0,0,0,0,0,0,0,0,0,0,0,0,0,0,0,0,0,0,0,0,0,0,0,0,0,0,0,0],"id":17,"left_children":[1,3,5,7,-1,9,11,13,-1,15,17,19,21,-1,23,25,27,29,31,33,35,37,39,-1,-1,41,43,45,47,49,51,53,55,-1,-1,57,59,61,63,-1,65,-1,-1,-1,-1,-1,-1,-1,-1,-1,-1,-1,-1,-1,-1,-1,-1,-1,-1,-1,-1,-1,-1,-1,-1,-1,-1],"loss_changes":[1.7161337E0,2.1935005E0,1.743798E0,1.6885863E-1,0E0,1.9257989E0,9.390838E-1,1.6084895E-1,0E0,2.1898382E0,6.7042494E-1,9.9386954E-1,6.947356E-1,0E0,1.6544044E-2,7.16927E0,9.998211E0,1.5215001E0,1.1190528E0,3.3713612E-1,3.5643864E-1,2.1911848E-1,5.808318E-1,0E0,0E0,2.631845E0,5.6403136E0,1.8133968E1,5.744291E0,5.541129E-1,7.532375E-1,7.479757E-1,6.6481173E-1,0E0,0E0,2.9053211E-2,3.8871452E-2,1.7058714E-1,4.5817792E-3,0E0,2.9097557E-2,0E0,0E0,0E0,0E0,0E0,0E0,0E0,0E0,0E0,0E0,0E0,0E0,0E0,0E0,0E0,0E0,0E0,0E0,0E0,0E0,0E0,0E0,0E0,0E0,0E0,0E0],"parents":[2147483647,0,0,1,1,2,2,3,3,5,5,6,6,7,7,9,9,10,10,11,11,12,12,14,14,15,15,16,16,17,17,18,18,19,19,20,20,21,21,22,22,25,25,26,26,27,27,28,28,29,29,30,30,31,31,32,32,35,35,36,36,37,37,38,38,40,40],"right_children":[2,4,6,8,-1,10,12,14,-1,16,18,20,22,-1,24,26,28,30,32,34,36,38,40,-1,-1,42,44,46,48,50,52,54,56,-1,-1,58,60,62,64,-1,66,-1,-1,-1,-1,-1,-1,-1,-1,-1,-1,-1,-1,-1,-1,-1,-1,-1,-1,-1,-1,-1,-1,-1,-1,-1,-1],"split_conditions":[-8.040166E0,5.18211E1,2.1045248E1,1.6075521E1,2.9795238E-1,3.034862E2,1.3896187E1,1.255879E1,6.0578283E-2,1.5963719E2,1.1525623E1,1.0182337E1,1.7414476E1,3.2408472E-2,1.3039754E1,1.5446115E2,1.648404E2,3.3521655E2,1.3556282E1,1E-1,6E-1,1.5617529E1,7.690808E1,-2.17726E-2,-1.04006626E-1,1.5209558E2,1.1099999E1,2.424417E0,1.6798756E2,1.6501501E1,1.1568166E1,3.191538E2,3.0967538E2,6.56868E-2,-1.10406555E-1,2.1734833E1,2.2014E1,2.1734833E1,2.1734833E1,-4.2591907E-2,2.1734833E1,-9.454227E-3,1.1060258E-1,-2.5274125E-1,2.0874809E-1,7.940751E-1,7.402085E-2,-1.6051072E-1,1.0636486E-2,-2.2706844E-1,-2.8359462E-2,-4.4391334E-2,1.8305598E-1,-6.97878E-2,8.232015E-2,-1.0792234E-1,-3.0920256E-2,6.406678E-2,2.4050748E-1,7.287219E-2,2.1529199E-4,-3.7337318E-2,5.7335567E-2,-2.9889608E-2,-1.17213555E-1,2.2613683E-1,5.5610385E-2],"split_indices":[0,3,0,2,0,3,2,2,0,3,2,2,2,0,2,3,3,3,2,1,1,2,3,0,0,3,1,0,3,0,0,3,3,0,0,0,0,0,0,0,0,0,0,0,0,0,0,0,0,0,0,0,0,0,0,0,0,0,0,0,0,0,0,0,0,0,0],"split_type":[0,0,0,0,0,0,0,0,0,0,0,0,0,0,0,0,0,0,0,0,0,0,0,0,0,0,0,0,0,0,0,0,0,0,0,0,0,0,0,0,0,0,0,0,0,0,0,0,0,0,0,0,0,0,0,0,0,0,0,0,0,0,0,0,0,0,0],"sum_hessian":[1.614E3,7E0,1.607E3,4E0,3E0,1.587E3,2E1,3E0,1E0,1.475E3,1.12E2,1E1,1E1,1E0,2E0,5.28E2,9.47E2,1.1E1,1.01E2,2E0,8E0,7E0,3E0,1E0,1E0,5.1E2,1.8E1,1.9E1,9.28E2,7E0,4E0,1.4E1,8.7E1,1E0,1E0,6E0,2E0,5E0,2E0,1E0,2E0,4.94E2,1.6E1,1.6E1,2E0,3E0,1.6E1,1.7E1,9.11E2,5E0,2E0,3E0,1E0,3E0,1.1E1,1.1E1,7.6E1,1E0,5E0,1E0,1E0,3E0,2E0,1E0,1E0,1E0,1E0],"tree_param":{"num_deleted":"0","num_feature":"4","num_nodes":"67","size_leaf_vector":"1"}},{"base_weights":[5.8415458E-3,-2.7824533E-1,9.397871E-3,-4.5039293E-1,1.5688303E-1,2.7356768E-1,3.8179469E-3,-2.3874088E-1,-9.106097E-1,4.4641185E-1,-2.3695138E-1,-5.2527666E-1,7.903792E-3,-5.800067E-1,4.7051102E-2,-3.4690008E-1,1.0842849E-2,1.3839781E-2,7.853013E-1,-2.2869666E-1,2.2057738E-2,-3.3272624E-1,5.1387596E-1,3.2086637E-2,-4.4002526E-2,-1.9184612E-1,-4.239075E-2,-8.270989E-2,2.0058464E-1,1.6612609E-1,-1.4951834E-1,1.0053028E0,3.3016926E-1,2.2058703E-1,-2.1936266E-1,-5.012099E-2,2.719743E-1,1.7726673E-2,7.779185E-1,1.6823721E0,-5.4439764E-2,8.209095E-2,2.8694872E-2,-1.5802503E-1,5.692835E-2,-4.4160124E-2,3.3702025E-1,-4.6611787E-3,-7.710609E-2,3.207858E-2,-5.4633025E-2,-3.197775E-3,3.519236E-2,6.151323E-1,6.5114506E-2,-1.1825717E-1,8.7532467E-1,-7.335714E-2,1.6555549E-3],"categories":[],"categories_nodes":[],"categories_segments":[],"categories_sizes":[],"default_left":[0,0,0,0,0,0,0,0,0,0,0,0,0,0,0,0,0,0,0,0,0,0,0,0,0,0,0,0,0,0,0,0,0,0,0,0,0,0,0,0,0,0,0,0,0,0,0,0,0,0,0,0,0,0,0,0,0,0,0],"id":18,"left_children":[1,3,5,7,-1,9,11,13,15,17,19,21,23,25,27,-1,-1,29,31,-1,33,-1,35,37,39,-1,-1,-1,41,-1,43,-1,45,-1,47,49,-1,51,53,55,57,-1,-1,-1,-1,-1,-1,-1,-1,-1,-1,-1,-1,-1,-1,-1,-1,-1,-1],"loss_changes":[1.634258E0,2.9939852E0,2.3515356E0,1.4384992E0,0E0,3.0177057E0,3.385205E0,1.2951934E0,1.2049918E0,3.653985E0,1.2414975E0,7.8499565E0,1.9508033E0,6.620431E-2,4.5172563E-1,0E0,0E0,1.141188E0,1.5241902E1,0E0,1.366617E0,0E0,1.1528609E0,1.1338938E1,8.992769E0,0E0,0E0,0E0,1.9820973E-2,0E0,1.3798267E0,0E0,5.088006E0,0E0,4.2060107E-2,8.165926E-2,0E0,2.9438493E0,1.3829352E1,8.846158E0,5.6087284E0,0E0,0E0,0E0,0E0,0E0,0E0,0E0,0E0,0E0,0E0,0E0,0E0,0E0,0E0,0E0,0E0,0E0,0E0],"parents":[2147483647,0,0,1,1,2,2,3,3,5,5,6,6,7,7,8,8,9,9,10,10,11,11,12,12,13,13,14,14,17,17,18,18,20,20,22,22,23,23,24,24,28,28,30,30,32,32,34,34,35,35,37,37,38,38,39,39,40,40],"right_children":[2,4,6,8,-1,10,12,14,16,18,20,22,24,26,28,-1,-1,30,32,-1,34,-1,36,38,40,-1,-1,-1,42,-1,44,-1,46,-1,48,50,-1,52,54,56,58,-1,-1,-1,-1,-1,-1,-1,-1,-1,-1,-1,-1,-1,-1,-1,-1,-1,-1],"split_conditions":[9.085988E0,1.718067E1,1.024578E1,1.3196588E2,1.5688303E-1,1.5661919E1,1.0594036E1,8.654986E0,1.4000001E0,7.9719055E1,1.6501501E1,3E-1,2.7999995E0,1.3464002E1,3.0650587E1,-3.4690008E-1,1.0842849E-2,-2.2151668E0,8.471885E1,-2.2869666E-1,1.852025E1,-3.3272624E-1,7.8785834E0,2.6E0,1.7209663E1,-1.9184612E-1,-4.239075E-2,-8.270989E-2,-3.2630835E0,1.6612609E-1,3.2233346E-1,1.0053028E0,2.0332909E2,2.2058703E-1,9.531505E0,2.3556669E0,2.719743E-1,1.5011917E1,1.4071062E2,2.753583E0,4.1E0,8.209095E-2,2.8694872E-2,-1.5802503E-1,5.692835E-2,-4.4160124E-2,3.3702025E-1,-4.6611787E-3,-7.710609E-2,3.207858E-2,-5.4633025E-2,-3.197775E-3,3.519236E-2,6.151323E-1,6.5114506E-2,-1.1825717E-1,8.7532467E-1,-7.335714E-2,1.6555549E-3],"split_indices":[2,0,2,3,0,0,2,2,1,3,0,1,1,0,3,0,0,0,3,0,0,0,0,1,3,0,0,0,0,0,0,0,3,0,2,0,0,0,3,0,1,0,0,0,0,0,0,0,0,0,0,0,0,0,0,0,0,0,0],"split_type":[0,0,0,0,0,0,0,0,0,0,0,0,0,0,0,0,0,0,0,0,0,0,0,0,0,0,0,