{"learner":{"attributes":{"scikit_learn":"{\"_estimator_type\": \"regressor\"}"},"feature_names":["pm25_lag_1","pm25_lag_2","pm25_lag_3","temperature_2m_mean","precipitation_sum","wind_speed_10m_max","wind_direction_10m_dominant"],"feature_types":["float","float","float","float","float","float","float"],"gradient_booster":{"model":{"gbtree_model_param":{"num_parallel_tree":"1","num_trees":"100"},"iteration_indptr":[0,1,2,3,4,5,6,7,8,9,10,11,12,13,14,15,16,17,18,19,20,21,22,23,24,25,26,27,28,29,30,31,32,33,34,35,36,37,38,39,40,41,42,43,44,45,46,47,48,49,50,51,52,53,54,55,56,57,58,59,60,61,62,63,64,65,66,67,68,69,70,71,72,73,74,75,76,77,78,79,80,81,82,83,84,85,86,87,88,89,90,91,92,93,94,95,96,97,98,99,100],"tree_info":[0,0,0,0,0,0,0,0,0,0,0,0,0,0,0,0,0,0,0,0,0,0,0,0,0,0,0,0,0,0,0,0,0,0,0,0,0,0,0,0,0,0,0,0,0,0,0,0,0,0,0,0,0,0,0,0,0,0,0,0,0,0,0,0,0,0,0,0,0,0,0,0,0,0,0,0,0,0,0,0,0,0,0,0,0,0,0,0,0,0,0,0,0,0,0,0,0,0,0,0],"trees":[{"base_weights":[1.1527704E-7,-3.6540982E-1,3.8186548E0,-8.789614E-1,6.663021E-1,4.5825086E0,1.4086396E-1,-1.4637747E0,-6.1273193E-1,1.0336347E0,-4.693364E-1,3.8718758E0,8.119737E0,1.4210734E0,-3.7826306E-1,-1.5582348E0,-7.992668E-1,-4.2695937E-1,-1.0641344E0,-7.877022E-2,1.2637937E0,7.517369E-1,-6.87083E-1,-2.5862494E-1,4.30483E0,1.1158386E1,3.166011E0,1.9441004E-1,7.797404E-1,2.1297596E-1,-1.5067035E0,-1.4469306E0,-5.529002E-1,-4.161494E-1,-3.9950642E-1,-6.270996E-1,-4.339481E-2,-2.3304701E-1,-1.131131E0,-2.6949584E-1,1.2226778E0,1.6243241E0,5.7876897E-1,-1.838975E-1,9.374285E-1,-8.048356E-1,7.237889E-1,1.3164101E0,-4.0401107E-1,5.7256002E0,2.636045E0,5.873269E-1,3.545049E0,5.0229273E0,-4.1086558E-1,-6.2173106E-2,1.03990324E-1,6.5045565E-1,-4.7873953E-1,-1.3267311E-1,-4.8312187E-1,-4.5065892E-1,-2.3127145E-1,5.0032693E-1,-1.629483E-1,-3.4971866E-1,-1.335292E-1,-2.6812893E-1,1.9152801E-2,-2.4543963E-1,4.813979E-2,-3.6640853E-1,-1.4061238E-1,7.545546E-3,-2.766438E-1,1.0732688E-1,3.8582206E-1,3.8816556E-1,7.4282914E-1,4.25043E-1,2.8590882E-2,3.3722993E-2,3.4953564E-1,-1.4629227E-1,-3.7945974E-1,6.951025E-1,-1.872534E-2,5.601025E-1,9.81025E-2,9.7593516E-1,2.0926945E0,1.1354516E0,4.2758492E-1,7.8826874E-2,1.776723E0,-2.128975E-1,7.282688E-2,-1.4989749E-1,3.151318E-1,-2.0687701E-1,8.63269E-2],"categories":[],"categories_nodes":[],"categories_segments":[],"categories_sizes":[],"default_left":[0,0,0,0,0,0,0,0,0,0,0,0,0,0,0,0,0,0,0,0,0,0,0,0,0,0,0,0,0,0,0,0,0,0,0,0,0,0,0,0,0,0,0,0,0,0,0,0,0,0,0,0,0,0,0,0,0,0,0,0,0,0,0,0,0,0,0,0,0,0,0,0,0,0,0,0,0,0,0,0,0,0,0,0,0,0,0,0,0,0,0,0,0,0,0,0,0,0,0,0,0],"id":0,"left_children":[1,3,5,7,9,11,13,15,17,19,21,23,25,27,29,31,33,35,37,39,41,43,45,47,49,51,53,55,-1,57,59,61,-1,-1,63,65,67,69,71,73,75,77,79,-1,81,83,85,87,-1,89,91,-1,-1,93,95,-1,-1,97,99,-1,-1,-1,-1,-1,-1,-1,-1,-1,-1,-1,-1,-1,-1,-1,-1,-1,-1,-1,-1,-1,-1,-1,-1,-1,-1,-1,-1,-1,-1,-1,-1,-1,-1,-1,-1,-1,-1,-1,-1,-1,-1],"loss_changes":[2.4126023E3,8.366687E2,4.2355786E2,1.6320514E2,2.1949255E2,2.8277026E2,1.8481506E1,1.9405762E1,6.0426697E1,1.0174344E2,3.481562E1,1.9067493E2,2.6572522E2,1.1055376E1,1.3664453E1,6.4299316E0,9.551603E0,3.9584396E1,1.1484879E1,1.7456652E1,8.031378E1,5.6430073E0,1.8857254E1,2.0624193E1,2.1251929E2,4.9562622E1,6.1841393E1,3.775452E-1,0E0,4.54796E0,6.051922E-2,6.7250977E0,0E0,0E0,8.924097E0,3.2713898E1,1.628912E1,4.0453386E0,1.10828705E1,1.1753606E1,3.338909E-2,5.7309937E1,4.645887E1,0E0,3.2503052E0,1.42669525E1,1.141802E1,2.113288E0,0E0,1.3493433E2,5.8587646E1,0E0,0E0,2.4134003E1,9.534637E-1,0E0,0E0,4.665102E0,1.1681299E0,0E0,0E0,0E0,0E0,0E0,0E0,0E0,0E0,0E0,0E0,0E0,0E0,0E0,0E0,0E0,0E0,0E0,0E0,0E0,0E0,0E0,0E0,0E0,0E0,0E0,0E0,0E0,0E0,0E0,0E0,0E0,0E0,0E0,0E0,0E0,0E0,0E0,0E0,0E0,0E0,0E0,0E0],"parents":[2147483647,0,0,1,1,2,2,3,3,4,4,5,5,6,6,7,7,8,8,9,9,10,10,11,11,12,12,13,13,14,14,15,15,16,16,17,17,18,18,19,19,20,20,21,21,22,22,23,23,24,24,25,25,26,26,27,27,29,29,30,30,31,31,34,34,35,35,36,36,37,37,38,38,39,39,40,40,41,41,42,42,44,44,45,45,46,46,47,47,49,49,50,50,53,53,54,54,57,57,58,58],"right_children":[2,4,6,8,10,12,14,16,18,20,22,24,26,28,30,32,34,36,38,40,42,44,46,48,50,52,54,56,-1,58,60,62,-1,-1,64,66,68,70,72,74,76,78,80,-1,82,84,86,88,-1,90,92,-1,-1,94,96,-1,-1,98,100,-1,-1,-1,-1,-1,-1,-1,-1,-1,-1,-1,-1,-1,-1,-1,-1,-1,-1,-1,-1,-1,-1,-1,-1,-1,-1,-1,-1,-1,-1,-1,-1,-1,-1,-1,-1,-1,-1,-1,-1,-1,-1],"split_conditions":[5.8E0,2.21E0,2.3872192E2,9.3E-1,2.4715714E2,1.258E1,1E-1,6.3E0,2.4998422E2,7.417453E1,1.3049689E1,5.5811295E1,2.0808498E1,2.690731E2,2.7299393E2,2.7076794E2,1.8767886E2,1.71E0,1.2496719E1,1.7701502E1,2.0932933E2,5.452499E-1,1.7553585E1,1.1620809E1,1.5E0,7.620057E1,2.8460497E1,7.7E0,7.797404E-1,2.1E0,6.18E0,2.7534704E1,-5.529002E-1,-4.161494E-1,6.4000006E0,8.628478E1,5.0011944E1,1.1525623E1,3.2023815E1,8.58275E0,2.91E0,3.97E0,1.4000001E0,-1.838975E-1,2.624308E2,2.7817087E2,2.7243765E2,4.82076E1,-4.0401107E-1,1.3108577E2,1.8702829E2,5.873269E-1,3.545049E0,2.2545315E1,2.432E1,-6.2173106E-2,1.03990324E-1,1.859845E1,4.6E0,-1.3267311E-1,-4.8312187E-1,-4.5065892E-1,-2.3127145E-1,5.0032693E-1,-1.629483E-1,-3.4971866E-1,-1.335292E-1,-2.6812893E-1,1.9152801E-2,-2.4543963E-1,4.813979E-2,-3.6640853E-1,-1.4061238E-1,7.545546E-3,-2.766438E-1,1.0732688E-1,3.8582206E-1,3.8816556E-1,7.4282914E-1,4.25043E-1,2.8590882E-2,3.3722993E-2,3.4953564E-1,-1.4629227E-1,-3.7945974E-1,6.951025E-1,-1.872534E-2,5.601025E-1,9.81025E-2,9.7593516E-1,2.0926945E0,1.1354516E0,4.2758492E-1,7.8826874E-2,1.776723E0,-2.128975E-1,7.282688E-2,-1.4989749E-1,3.151318E-1,-2.0687701E-1,8.63269E-2],"split_indices":[0,0,6,0,6,0,4,4,6,6,5,6,5,6,6,6,6,0,5,3,6,3,3,5,4,6,5,0,0,4,0,5,0,0,4,6,6,5,5,3,0,0,4,0,6,6,6,6,0,6,6,0,0,5,0,0,0,5,4,0,0,0,0,0,0,0,0,0,0,0,0,0,0,0,0,0,0,0,0,0,0,0,0,0,0,0,0,0,0,0,0,0,0,0,0,0,0,0,0,0,0],"split_type":[0,0,0,0,0,0,0,0,0,0,0,0,0,0,0,0,0,0,0,0,0,0,0,0,0,0,0,0,0,0,0,0,0,0,0,0,0,0,0,0,0,0,0,0,0,0,0,0,0,0,0,0,0,0,0,0,0,0,0,0,0,0,0,0,0,0,0,0,0,0,0,0,0,0,0,0,0,0,0,0,0,0,0,0,0,0,0,0,0,0,0,0,0,0,0,0,0,0,0,0,0],"sum_hessian":[1.727E3,1.577E3,1.5E2,1.053E3,5.24E2,1.24E2,2.6E1,3.28E2,7.25E2,3.96E2,1.28E2,1.05E2,1.9E1,7E0,1.9E1,2.86E2,4.2E1,5.15E2,2.1E2,6.8E1,3.28E2,1.9E1,1.09E2,1E1,9.5E1,1.1E1,8E0,4E0,3E0,1.3E1,6E0,2.1E2,7.6E1,1.6E1,2.6E1,3.38E2,1.77E2,1.6E1,1.94E2,6E1,8E0,2.14E2,1.14E2,2E0,1.7E1,1.01E2,8E0,4E0,6E0,5E1,4.5E1,1E0,1E1,5E0,3E0,1E0,3E0,8E0,5E0,1E0,5E0,1.93E2,1.7E1,1E0,2.5E1,8.4E1,2.54E2,1.9E1,1.58E2,6E0,1E1,1.7E2,2.4E1,4.2E1,1.8E1,1E0,7E0,1.56E2,5.8E1,4.1E1,7.3E1,4E0,1.3E1,6.1E1,4E1,2E0,6E0,2E0,2E0,1.8E1,3.2E1,2.2E1,2.3E1,1E0,4E0,2E0,1E0,2E0,6E0,4E0,1E0],"tree_param":{"num_deleted":"0","num_feature":"7","num_nodes":"101","size_leaf_vector":"1"}},{"base_weights":[6.0143517E-3,-2.561617E-1,2.7458012E0,-5.378263E-1,6.880816E-1,3.51501E0,7.953383E-1,-8.6706924E-1,-2.3521651E-1,1.0333257E0,-4.664808E-2,3.10298E0,8.277515E0,4.047754E0,1.7527911E-1,-7.635759E-1,-1.2175419E0,-2.205869E-3,-5.6910074E-1,1.2848724E0,1.5242754E-1,5.024998E-1,-2.9691753E-1,-4.147008E-2,3.4877622E0,3.313594E0,2.748391E0,1.7235907E0,1.3382666E0,2.901066E0,-5.673866E-2,-1.0734088E0,-5.966592E-1,-1.2734138E0,-4.5896105E-2,3.216701E-1,-3.5485855E-1,-6.5075535E-1,1.6267456E-1,6.707745E-1,1.9450791E0,9.2976713E-1,-2.7187565E-1,1.2560678E0,2.1542199E-1,-1.1022E-1,-1.1825256E0,1.2745576E0,-6.2176347E-1,4.2813425E0,2.2352998E0,7.392269E-2,1.0500747E0,2.722832E-2,5.171545E-1,2.1605714E-1,1.0894227E0,-5.078588E-1,8.878232E-1,-3.3181122E-1,4.1912735E-2,-2.9834944E-1,-1.286997E-1,-3.4274527E-1,-4.214886E-1,3.219188E-1,-1.23369895E-1,-1.5530714E-1,2.7898854E-1,-1.1916785E-1,2.2469208E-1,-2.317542E-1,-8.723387E-2,-1.5231495E-1,1.4149992E-1,-1.2485668E-2,3.1979138E-1,1.0433352E0,4.7299322E-1,-7.242039E-2,6.375227E-1,-1.8498129E-1,2.1616562E-1,7.060561E-2,4.979687E-1,2.159808E-1,-1.021548E-1,1.4709501E-1,-1.0086587E-1,-3.692384E-1,-8.325414E-2,9.261149E-2,4.4808203E-1,-3.0012253E-1,1.4069875E-1,1.5481759E0,8.9017916E-1,7.770205E-1,-8.804817E-3,-1.8847395E-1,1.7531985E-1,5.431642E-1,-1.0099763E-1],"categories":[],"categories_nodes":[],"categories_segments":[],"categories_sizes":[],"default_left":[0,0,0,0,0,0,0,0,0,0,0,0,0,0,0,0,0,0,0,0,0,0,0,0,0,0,0,0,0,0,0,0,0,0,0,0,0,0,0,0,0,0,0,0,0,0,0,0,0,0,0,0,0,0,0,0,0,0,0,0,0,0,0,0,0,0,0,0,0,0,0,0,0,0,0,0,0,0,0,0,0,0,0,0,0,0,0,0,0,0,0,0,0,0,0,0,0,0,0,0,0,0,0],"id":1,"left_children":[1,3,5,7,9,11,13,15,17,19,21,23,25,27,29,31,33,35,37,39,41,43,45,47,49,-1,51,-1,53,55,57,59,61,63,65,67,69,71,73,75,77,79,81,83,85,87,89,91,93,95,97,-1,-1,-1,-1,-1,-1,99,101,-1,-1,-1,-1,-1,-1,-1,-1,-1,-1,-1,-1,-1,-1,-1,-1,-1,-1,-1,-1,-1,-1,-1,-1,-1,-1,-1,-1,-1,-1,-1,-1,-1,-1,-1,-1,-1,-1,-1,-1,-1,-1,-1,-1],"loss_changes":[1.241937E3,4.200548E2,2.2375171E2,1.2094873E2,9.21272E1,1.8624304E2,8.802487E1,2.018039E1,4.940084E1,5.4536163E1,1.622909E1,1.2234735E2,9.2071106E1,2.4507652E1,2.4196981E1,2.273529E1,8.517075E0,4.2945045E1,1.5701347E1,7.653812E1,1.872313E1,7.7337217E0,1.3262268E1,9.956658E0,7.988367E1,0E0,6.6620445E0,0E0,1.767602E0,2.1630535E0,1.579088E1,6.3689575E0,1.9317078E1,5.477905E-1,3.3028564E0,1.00554344E2,8.715525E0,1.0075455E1,5.8323975E0,2.8479443E1,4.646936E1,2.8511147E1,1.3102669E1,3.7312737E0,8.098547E0,9.393883E0,2.7001572E-1,3.8519287E-1,4.186281E0,4.7078552E1,2.9802795E1,0E0,0E0,0E0,0E0,0E0,0E0,3.6545072E0,1.4167844E1,0E0,0E0,0E0,0E0,0E0,0E0,0E0,0E0,0E0,0E0,0E0,0E0,0E0,0E0,0E0,0E0,0E0,0E0,0E0,0E0,0E0,0E0,0E0,0E0,0E0,0E0,0E0,0E0,0E0,0E0,0E0,0E0,0E0,0E0,0E0,0E0,0E0,0E0,0E0,0E0,0E0,0E0,0E0,0E0],"parents":[2147483647,0,0,1,1,2,2,3,3,4,4,5,5,6,6,7,7,8,8,9,9,10,10,11,11,12,12,13,13,14,14,15,15,16,16,17,17,18,18,19,19,20,20,21,21,22,22,23,23,24,24,26,26,28,28,29,29,30,30,31,31,32,32,33,33,34,34,35,35,36,36,37,37,38,38,39,39,40,40,41,41,42,42,43,43,44,44,45,45,46,46,47,47,48,48,49,49,50,50,57,57,58,58],"right_children":[2,4,6,8,10,12,14,16,18,20,22,24,26,28,30,32,34,36,38,40,42,44,46,48,50,-1,52,-1,54,56,58,60,62,64,66,68,70,72,74,76,78,80,82,84,86,88,90,92,94,96,98,-1,-1,-1,-1,-1,-1,100,102,-1,-1,-1,-1,-1,-1,-1,-1,-1,-1,-1,-1,-1,-1,-1,-1,-1,-1,-1,-1,-1,-1,-1,-1,-1,-1,-1,-1,-1,-1,-1,-1,-1,-1,-1,-1,-1,-1,-1,-1,-1,-1,-1,-1],"split_conditions":[5.8E0,2.77E0,2.1992397E2,1.33E0,2.327489E2,2.0859644E2,1.5226764E1,2.6615402E2,2.3007375E2,2.2682856E1,1.678156E1,6.475855E1,1.7313717E1,2.3872192E2,9.2E-1,1.0678013E2,3.2217484E1,1.0078583E1,1.7205667E1,1.5266339E2,1.82E0,2.4464873E2,2.9009784E2,1.1013882E1,7.1702504E0,3.313594E0,2.02E0,1.7235907E0,3.2E0,5.95E0,9.27E0,4.63E0,1.6199999E1,3.0414844E2,3.3121956E1,1.1930447E2,2.1366083E1,2.87E0,1.71E0,2.7744167E0,1.55E0,2.4675106E1,5.09E0,1.0195251E1,1.2904882E1,3E-1,9.711917E0,-2.7766666E-1,5.3238007E1,1.5000001E0,2.6405453E1,7.392269E-2,1.0500747E0,2.722832E-2,5.171545E-1,2.1605714E-1,1.0894227E0,6.91E0,3.3999994E0,-3.3181122E-1,4.1912735E-2,-2.9834944E-1,-1.286997E-1,-3.4274527E-1,-4.214886E-1,3.219188E-1,-1.23369895E-1,-1.5530714E-1,2.7898854E-1,-1.1916785E-1,2.2469208E-1,-2.317542E-1,-8.723387E-2,-1.5231495E-1,1.4149992E-1,-1.2485668E-2,3.1979138E-1,1.0433352E0,4.7299322E-1,-7.242039E-2,6.375227E-1,-1.8498129E-1,2.1616562E-1,7.060561E-2,4.979687E-1,2.159808E-1,-1.021548E-1,1.4709501E-1,-1.0086587E-1,-3.692384E-1,-8.325414E-2,9.261149E-2,4.4808203E-1,-3.0012253E-1,1.4069875E-1,1.5481759E0,8.9017916E-1,7.770205E-1,-8.804817E-3,-1.8847395E-1,1.7531985E-1,5.431642E-1,-1.0099763E-1],"split_indices":[0,0,6,0,6,6,5,6,6,5,5,6,5,6,2,6,5,3,3,6,2,6,6,5,3,0,2,0,1,0,0,1,5,6,5,6,3,2,0,3,1,5,2,3,5,4,3,3,6,4,5,0,0,0,0,0,0,2,4,0,0,0,0,0,0,0,0,0,0,0,0,0,0,0,0,0,0,0,0,0,0,0,0,0,0,0,0,0,0,0,0,0,0,0,0,0,0,0,0,0,0,0,0],"split_type":[0,0,0,0,0,0,0,0,0,0,0,0,0,0,0,0,0,0,0,0,0,0,0,0,0,0,0,0,0,0,0,0,0,0,0,0,0,0,0,0,0,0,0,0,0,0,0,0,0,0,0,0,0,0,0,0,0,0,0,0,0,0,0,0,0,0,0,0,0,0,0,0,0,0,0,0,0,0,0,0,0,0,0,0,0,0,0,0,0,0,0,0,0,0,0,0,0,0,0,0,0,0,0],"sum_hessian":[1.727E3,1.577E3,1.5E2,1.215E3,3.62E2,1.07E2,4.3E1,5.81E2,6.34E2,2.46E2,1.16E2,1E2,7E0,6E0,3.7E1,4.51E2,1.3E2,3.74E2,2.6E2,1.91E2,5.5E1,3.6E1,8E1,1.1E1,8.9E1,4E0,3E0,3E0,3E0,2E0,3.5E1,1.56E2,2.95E2,1.24E2,6E0,1.95E2,1.79E2,2.34E2,2.6E1,1E2,9.1E1,1.9E1,3.6E1,9E0,2.7E1,6.7E1,1.3E1,3E0,8E0,5.3E1,3.6E1,1E0,2E0,1E0,2E0,1E0,1E0,2.4E1,1.1E1,1.52E2,4E0,8.6E1,2.09E2,6.7E1,5.7E1,1E0,5E0,8.2E1,1.13E2,1.73E2,6E0,1.74E2,6E1,8E0,1.8E1,3.6E1,6.4E1,1.6E1,7.5E1,1E1,9E0,2.7E1,9E0,3E0,6E0,1.4E1,1.3E1,1.8E1,4.9E1,1.2E1,1E0,1E0,2E0,6E0,2E0,3E1,2.3E1,3.1E1,5E0,2.2E1,2E0,6E0,5E0],"tree_param":{"num_deleted":"0","num_feature":"7","num_nodes":"103","size_leaf_vector":"1"}},{"base_weights":[1.1930376E-2,-2.928636E-1,1.2616404E0,-5.384245E-1,5.2021246E-2,8.2927614E-1,2.9113076E0,-7.496255E-1,-3.9374775E-1,1.3166064E-1,-5.4838157E-1,1.1567749E0,-7.0367984E-2,1.3763914E0,4.096077E0,-7.660116E-1,4.6539325E-1,6.647406E-1,-4.1748112E-1,-4.5867404E-1,1.9512732E-1,-6.7995764E-2,-1.0267675E0,2.9957447E0,9.3331903E-1,1.4273487E0,-2.7666155E-1,4.400661E0,3.535695E-1,2.3081996E0,2.9193878E0,-1.0038781E0,-7.1058035E-1,3.7607417E-1,-4.5048654E-2,-8.984542E-2,4.764639E-1,-3.2990226E-1,-6.759736E-1,-6.9384634E-1,6.8976045E-1,4.3001002E-1,-2.681299E-2,6.466194E-1,-1.5519778E-1,-1.0684468E0,-2.3993365E-1,-5.3686064E-2,3.9520473E0,1.2917284E-2,1.1349624E0,7.3118484E-1,7.7278453E-1,1.5111422E-2,-6.8786466E-1,5.468729E0,7.9763716E-1,-8.951053E-1,9.938344E-1,3.741013E0,8.9588225E-2,-8.5802615E-2,-3.0339718E-1,-2.2977133E-1,-1.4940529E-1,3.4074105E-2,-4.073553E-2,1.2154832E-1,-1.1066407E-1,-2.763421E-2,-1.5078056E-1,-2.1871422E-1,1.6113386E-2,1.6617442E-2,-3.0948648E-1,7.197099E-2,3.0049965E-1,5.4552604E-2,2.71394E-1,1.5451542E-1,-6.218565E-2,5.155129E-2,2.2428022E-1,-1.4770208E-1,6.1283684E-3,-3.3822593E-1,-1.5735255E-1,-2.197913E-2,-8.599102E-2,-3.5099232E-1,4.357781E-1,1.4224118E0,3.8017732E-1,-1.5457627E-1,1.6209868E-1,5.365716E-1,1.8090488E-1,8.143507E-2,3.02437E-1,-3.3889607E-2,4.7690636E-1,-2.5318816E-1,-3.6393236E-2,2.8269625E-1,1.8556641E0,2.3144066E-2,3.3579266E-1,-3.384729E-1,1.4549944E-1,-2.485964E-1,4.8550287E-1,4.110586E-1,1.3909898E0,-6.9681525E-2,3.513912E-1],"categories":[],"categories_nodes":[],"categories_segments":[],"categories_sizes":[],"default_left":[0,0,0,0,0,0,0,0,0,0,0,0,0,0,0,0,0,0,0,0,0,0,0,0,0,0,0,0,0,0,0,0,0,0,0,0,0,0,0,0,0,0,0,0,0,0,0,0,0,0,0,0,0,0,0,0,0,0,0,0,0,0,0,0,0,0,0,0,0,0,0,0,0,0,0,0,0,0,0,0,0,0,0,0,0,0,0,0,0,0,0,0,0,0,0,0,0,0,0,0,0,0,0,0,0,0,0,0,0,0,0,0,0,0,0],"id":2,"left_children":[1,3,5,7,9,11,13,15,17,19,21,23,25,27,29,31,33,35,37,39,41,43,45,47,49,51,53,55,57,-1,59,61,63,-1,65,67,-1,69,71,73,75,77,79,81,83,85,87,89,91,93,95,97,-1,99,101,103,105,107,109,111,113,-1,-1,-1,-1,-1,-1,-1,-1,-1,-1,-1,-1,-1,-1,-1,-1,-1,-1,-1,-1,-1,-1,-1,-1,-1,-1,-1,-1,-1,-1,-1,-1,-1,-1,-1,-1,-1,-1,-1,-1,-1,-1,-1,-1,-1,-1,-1,-1,-1,-1,-1,-1,-1,-1],"loss_changes":[6.585718E2,1.1774743E2,2.3937982E2,2.4516235E1,2.7757504E1,7.963214E1,1.2165875E2,6.9066772E0,1.2436325E1,1.927239E1,1.5557253E1,7.85679E1,2.2949652E1,9.742932E1,1.4265002E2,3.5718536E0,2.068091E0,7.807927E0,1.0507629E1,1.3982584E1,2.4147692E1,2.28141E0,8.5865784E-1,6.1451904E1,3.302089E1,5.3130264E0,7.8089623E0,2.6424149E1,2.0876654E1,0E0,7.174094E1,2.6115417E-2,2.7584534E0,0E0,7.2996244E-2,1.1163241E0,0E0,1.4573181E1,4.64769E0,1.0686253E1,1.0225115E0,2.6338165E1,2.3478958E1,6.3310385E-2,1.9048054E0,4.3514633E-1,2.351895E-3,1.1788154E1,2.789824E1,9.471012E0,4.9683487E1,6.1757207E-1,0E0,8.04458E0,2.28541E0,1.36388855E1,6.089326E-1,3.4429827E0,2.0689766E1,4.46073E1,3.0573487E0,0E0,0E0,0E0,0E0,0E0,0E0,0E0,0E0,0E0,0E0,0E0,0E0,0E0,0E0,0E0,0E0,0E0,0E0,0E0,0E0,0E0,0E0,0E0,0E0,0E0,0E0,0E0,0E0,0E0,0E0,0E0,0E0,0E0,0E0,0E0,0E0,0E0,0E0,0E0,0E0,0E0,0E0,0E0,0E0,0E0,0E0,0E0,0E0,0E0,0E0,0E0,0E0,0E0,0E0],"parents":[2147483647,0,0,1,1,2,2,3,3,4,4,5,5,6,6,7,7,8,8,9,9,10,10,11,11,12,12,13,13,14,14,15,15,16,16,17,17,18,18,19,19,20,20,21,21,22,22,23,23,24,24,25,25,26,26,27,27,28,28,30,30,31,31,32,32,34,34,35,35,37,37,38,38,39,39,40,40,41,41,42,42,43,43,44,44,45,45,46,46,47,47,48,48,49,49,50,50,51,51,53,53,54,54,55,55,56,56,57,57,58,58,59,59,60,60],"right_children":[2,4,6,8,10,12,14,16,18,20,22,24,26,28,30,32,34,36,38,40,42,44,46,48,50,52,54,56,58,-1,60,62,64,-1,66,68,-1,70,72,74,76,78,80,82,84,86,88,90,92,94,96,98,-1,100,102,104,106,108,110,112,114,-1,-1,-1,-1,-1,-1,-1,-1,-1,-1,-1,-1,-1,-1,-1,-1,-1,-1,-1,-1,-1,-1,-1,-1,-1,-1,-1,-1,-1,-1,-1,-1,-1,-1,-1,-1,-1,-1,-1,-1,-1,-1,-1,-1,-1,-1,-1,-1,-1,-1,-1,-1,-1,-1],"split_conditions":[3.53E0,1.71E0,8.23E0,9.3E-1,2.7817087E2,2.327489E2,6.59E0,3.8329437E1,4E-1,5.3238007E1,1.7533146E1,1.31E0,1.2904882E1,1.3797912E1,3.67E0,4.2E-1,3.928126E1,1.25E0,2.5659647E2,1.4834835E1,2.0353188E2,7.7E-1,9.000001E0,1.82025E0,7.753509E1,5.8E0,2.650303E2,2.1050673E2,9.27E0,2.3081996E0,2.1992397E2,-1.1630834E0,2.5189713E1,3.7607417E-1,5.3E-1,3.618167E0,4.764639E-1,9.711917E0,3.2023815E1,-1.9589168E0,6E-1,1.7102966E2,1E-1,1.9E0,1.1772334E1,2.97E0,2.24E0,1.64E0,2.1749483E1,3.27E0,1.5E0,4.03E0,7.7278453E-1,1.0900002E1,4.95E0,1.0383987E1,8.57E0,2.6576681E1,1.8193361E1,5.51E0,1.53E1,-8.5802615E-2,-3.0339718E-1,-2.2977133E-1,-1.4940529E-1,3.4074105E-2,-4.073553E-2,1.2154832E-1,-1.1066407E-1,-2.763421E-2,-1.5078056E-1,-2.1871422E-1,1.6113386E-2,1.6617442E-2,-3.0948648E-1,7.197099E-2,3.0049965E-1,5.4552604E-2,2.71394E-1,1.5451542E-1,-6.218565E-2,5.155129E-2,2.2428022E-1,-1.4770208E-1,6.1283684E-3,-3.3822593E-1,-1.5735255E-1,-2.197913E-2,-8.599102E-2,-3.5099232E-1,4.357781E-1,1.4224118E0,3.8017732E-1,-1.5457627E-1,1.6209868E-1,5.365716E-1,1.8090488E-1,8.143507E-2,3.02437E-1,-3.3889607E-2,4.7690636E-1,-2.5318816E-1,-3.6393236E-2,2.8269625E-1,1.8556641E0,2.3144066E-2,3.3579266E-1,-3.384729E-1,1.4549944E-1,-2.485964E-1,4.8550287E-1,4.110586E-1,1.3909898E0,-6.9681525E-2,3.513912E-1],"split_indices":[0,0,0,0,6,6,1,5,2,6,5,1,5,5,2,0,5,0,6,3,6,1,4,3,6,0,6,6,0,0,6,3,5,0,0,3,0,3,5,3,4,6,4,0,3,0,0,2,5,1,4,0,0,4,2,5,0,5,5,2,1,0,0,0,0,0,0,0,0,0,0,0,0,0,0,0,0,0,0,0,0,0,0,0,0,0,0,0,0,0,0,0,0,0,0,0,0,0,0,0,0,0,0,0,0,0,0,0,0,0,0,0,0,0,0],"split_type":[0,0,0,0,0,0,0,0,0,0,0,0,0,0,0,0,0,0,0,0,0,0,0,0,0,0,0,0,0,0,0,0,0,0,0,0,0,0,0,0,0,0,0,0,0,0,0,0,0,0,0,0,0,0,0,0,0,0,0,0,0,0,0,0,0,0,0,0,0,0,0,0,0,0,0,0,0,0,0,0,0,0,0,0,0,0,0,0,0,0,0,0,0,0,0,0,0,0,0,0,0,0,0,0,0,0,0,0,0,0,0,0,0,0,0],"sum_hessian":[1.727E3,1.389E3,3.38E2,8.11E2,5.78E2,2.69E2,6.9E1,3.28E2,4.83E2,5.11E2,6.7E1,1.97E2,7.2E1,3.1E1,3.8E1,3.24E2,4E0,1E1,4.73E2,4.9E1,4.62E2,3.4E1,3.3E1,2E1,1.77E2,8E0,6.4E1,7E0,2.4E1,8E0,3E1,5.8E1,2.66E2,1E0,3E0,6E0,4E0,3.55E2,1.18E2,4.1E1,8E0,2.24E2,2.38E2,3E0,3.1E1,3.1E1,2E0,5E0,1.5E1,3.2E1,1.45E2,6E0,2E0,3.8E1,2.6E1,5E0,2E0,8E0,1.6E1,2.3E1,7E0,1E0,5.7E1,2.09E2,5.7E1,1E0,2E0,2E0,4E0,1.5E2,2.05E2,1.1E2,8E0,1.3E1,2.8E1,4E0,4E0,1.48E2,7.6E1,5.9E1,1.79E2,1E0,2E0,1E1,2.1E1,2.7E1,4E0,1E0,1E0,3E0,2E0,1.1E1,4E0,1.6E1,1.6E1,6.4E1,8.1E1,3E0,3E0,3.6E1,2E0,2E1,6E0,1E0,4E0,1E0,1E0,7E0,1E0,4E0,1.2E1,7E0,1.6E1,6E0,1E0],"tree_param":{"num_deleted":"0","num_feature":"7","num_nodes":"115","size_leaf_vector":"1"}},{"base_weights":[1.4480687E-2,-1.2820335E-1,1.5054802E0,-3.331871E-1,2.3289257E-1,1.17914E0,3.2703671E0,-4.973693E-1,-2.1772541E-1,3.8347012E-1,-1.8946913E-1,3.091431E0,9.7467697E-1,5.515295E0,1.4332496E0,-4.4952136E-1,-6.9833374E-1,-1.6490686E-1,-5.1109016E-1,2.0120595E-2,5.398269E-1,-5.8548146E-1,-3.1505834E-2,6.6571575E-1,4.221074E0,1.2372105E0,-1.6349237E-1,1.7500166E0,3.9786804E-1,2.8889716E0,3.0351833E-1,-6.3068163E-1,-3.5202014E-1,1.20200835E-1,-7.214557E-1,-3.082666E-1,7.163697E-2,-1.25837065E-2,-6.270083E-1,-6.8466954E-2,1.8328118E0,1.0179484E0,2.541647E-1,9.2909254E-2,-6.14169E-1,-5.165067E-1,9.707491E-2,2.3980717E-1,1.9672466E-2,8.509459E-1,5.2026258E0,4.2722926E0,1.0588124E0,1.3732311E-1,-6.466857E-1,1.418644E-1,3.9787962E0,1.0062402E0,-2.4793325E-1,-9.5018305E-2,-2.0764476E-1,1.7942673E-1,-1.1572073E-1,5.5639442E-2,-1.5490652E-3,-1.5274104E-1,-2.3357086E-1,-1.454375E-1,-5.1201005E-2,1.1761212E-1,-1.1627053E-1,-2.3651864E-1,3.167191E-1,-3.1942832E-1,-1.5703139E-1,-7.3425226E-2,1.043666E-1,7.979675E-1,3.573046E-2,1.4630185E-1,6.885766E-1,2.1289138E-1,-6.7776383E-4,-1.9295739E-1,8.6361736E-2,1.6534628E-1,-1.7702676E-1,1.4815286E-1,-3.6124267E-2,3.5573253E-1,2.719313E-2,1.7768286E0,2.4029182E-1,-3.4368828E-2,1.6192942E0,-1.0092327E-2,3.974997E-1,-2.0149507E-1,9.403379E-2,1.2367452E-1,-2.4917506E-1,3.4443998E-1,1.3618919E0,2.214041E-2,4.3620285E-1],"categories":[],"categories_nodes":[],"categories_segments":[],"categories_sizes":[],"default_left":[0,0,0,0,0,0,0,0,0,0,0,0,0,0,0,0,0,0,0,0,0,0,0,0,0,0,0,0,0,0,0,0,0,0,0,0,0,0,0,0,0,0,0,0,0,0,0,0,0,0,0,0,0,0,0,0,0,0,0,0,0,0,0,0,0,0,0,0,0,0,0,0,0,0,0,0,0,0,0,0,0,0,0,0,0,0,0,0,0,0,0,0,0,0,0,0,0,0,0,0,0,0,0,0,0],"id":3,"left_children":[1,3,5,7,9,11,13,15,17,19,21,23,25,27,29,31,33,35,37,39,41,43,45,47,49,51,53,-1,-1,55,57,59,61,63,65,67,69,71,73,75,77,79,81,-1,83,85,87,-1,-1,89,91,93,95,97,99,-1,101,103,-1,-1,-1,-1,-1,-1,-1,-1,-1,-1,-1,-1,-1,-1,-1,-1,-1,-1,-1,-1,-1,-1,-1,-1,-1,-1,-1,-1,-1,-1,-1,-1,-1,-1,-1,-1,-1,-1,-1,-1,-1,-1,-1,-1,-1,-1,-1],"loss_changes":[3.6781085E2,1.1687927E2,8.311276E1,1.8981163E1,3.6450825E1,4.742491E1,8.6951706E1,3.6766129E0,9.104315E0,2.3963875E1,9.427422E0,3.0072266E1,3.546157E1,5.5887756E0,2.2147186E1,5.7481995E0,1.5629616E0,1.711316E1,5.1928463E0,2.0679966E1,4.0032738E1,1.294466E0,6.8475733E0,3.4860086E-1,2.2036499E1,4.7455917E1,3.431902E0,0E0,0E0,1.3917187E1,7.9780474E0,2.038643E0,7.342142E0,2.5502987E-2,5.252037E-1,7.5440865E0,2.8253962E1,1.5750922E1,2.7523556E0,9.112946E0,8.187454E0,7.338637E1,2.172533E1,0E0,1.284688E0,2.1321363E0,7.5669317E0,0E0,0E0,6.562309E-1,1.427475E1,2.5302208E1,2.679786E1,2.347706E0,2.0950274E0,0E0,1.1381264E0,2.3977966E0,0E0,0E0,0E0,0E0,0E0,0E0,0E0,0E0,0E0,0E0,0E0,0E0,0E0,0E0,0E0,0E0,0E0,0E0,0E0,0E0,0E0,0E0,0E0,0E0,0E0,0E0,0E0,0E0,0E0,0E0,0E0,0E0,0E0,0E0,0E0,0E0,0E0,0E0,0E0,0E0,0E0,0E0,0E0,0E0,0E0,0E0,0E0],"parents":[2147483647,0,0,1,1,2,2,3,3,4,4,5,5,6,6,7,7,8,8,9,9,10,10,11,11,12,12,13,13,14,14,15,15,16,16,17,17,18,18,19,19,20,20,21,21,22,22,23,23,24,24,25,25,26,26,29,29,30,30,31,31,32,32,33,33,34,34,35,35,36,36,37,37,38,38,39,39,40,40,41,41,42,42,44,44,45,45,46,46,49,49,50,50,51,51,52,52,53,53,54,54,56,56,57,57],"right_children":[2,4,6,8,10,12,14,16,18,20,22,24,26,28,30,32,34,36,38,40,42,44,46,48,50,52,54,-1,-1,56,58,60,62,64,66,68,70,72,74,76,78,80,82,-1,84,86,88,-1,-1,90,92,94,96,98,100,-1,102,104,-1,-1,-1,-1,-1,-1,-1,-1,-1,-1,-1,-1,-1,-1,-1,-1,-1,-1,-1,-1,-1,-1,-1,-1,-1,-1,-1,-1,-1,-1,-1,-1,-1,-1,-1,-1,-1,-1,-1,-1,-1,-1,-1,-1,-1,-1,-1],"split_conditions":[5.8E0,2.12E0,1.258E1,1.07E0,2.4715714E2,1.1874544E1,1.7873554E1,2.7678317E2,7.4999995E0,1.26571495E2,1.37E0,1.84E0,2.327489E2,7.1702504E0,1.7179019E2,1.1085661E2,-2.6589172E0,1.1000001E0,8.5E-1,2.1764E1,1.8627666E2,-8.040166E0,3.9139998E0,1.82E0,6.07E0,1.4E0,8.02E0,1.7500166E0,3.9786804E-1,1E-1,7.1702504E0,1.2904882E1,1.1759717E2,6.2E-1,1.4764389E1,1.5E0,2.1910707E2,1.21E0,4.2681665E0,8.000001E-1,1.82E0,1.6927615E2,1.4000001E0,9.2909254E-2,3.8329437E1,-3.8985002E0,1.8486622E1,2.3980717E-1,1.9672466E-2,5.95E0,5.61E0,1.494167E-1,1.08673004E2,5.1181664E0,1E-1,1.418644E-1,1.403E1,5.6327496E0,-2.4793325E-1,-9.5018305E-2,-2.0764476E-1,1.7942673E-1,-1.1572073E-1,5.5639442E-2,-1.5490652E-3,-1.5274104E-1,-2.3357086E-1,-1.454375E-1,-5.1201005E-2,1.1761212E-1,-1.1627053E-1,-2.3651864E-1,3.167191E-1,-3.1942832E-1,-1.5703139E-1,-7.3425226E-2,1.043666E-1,7.979675E-1,3.573046E-2,1.4630185E-1,6.885766E-1,2.1289138E-1,-6.7776383E-4,-1.9295739E-1,8.6361736E-2,1.6534628E-1,-1.7702676E-1,1.4815286E-1,-3.6124267E-2,3.5573253E-1,2.719313E-2,1.7768286E0,2.4029182E-1,-3.4368828E-2,1.6192942E0,-1.0092327E-2,3.974997E-1,-2.0149507E-1,9.403379E-2,1.2367452E-1,-2.4917506E-1,3.4443998E-1,1.3618919E0,2.214041E-2,4.3620285E-1],"split_indices":[0,0,0,0,6,5,5,6,4,6,2,2,6,3,6,6,3,4,1,3,6,3,3,2,0,1,0,0,0,4,3,5,6,0,5,0,6,2,3,4,2,6,4,0,5,3,5,0,0,0,1,3,6,3,4,0,0,3,0,0,0,0,0,0,0,0,0,0,0,0,0,0,0,0,0,0,0,0,0,0,0,0,0,0,0,0,0,0,0,0,0,0,0,0,0,0,0,0,0,0,0,0,0,0,0],"split_type":[0,0,0,0,0,0,0,0,0,0,0,0,0,0,0,0,0,0,0,0,0,0,0,0,0,0,0,0,0,0,0,0,0,0,0,0,0,0,0,0,0,0,0,0,0,0,0,0,0,0,0,0,0,0,0,0,0,0,0,0,0,0,0,0,0,0,0,0,0,0,0,0,0,0,0,0,0,0,0,0,0,0,0,0,0,0,0,0,0,0,0,0,0,0,0,0,0,0,0,0,0,0,0,0,0],"sum_hessian":[1.727E3,1.577E3,1.5E2,1.006E3,5.71E2,1.28E2,2.2E1,4.14E2,5.92E2,4.21E2,1.5E2,1.1E1,1.17E2,9E0,1.3E1,3.37E2,7.7E1,5.03E2,8.9E1,1.27E2,2.94E2,4.2E1,1.08E2,4E0,7E0,9.5E1,2.2E1,8E0,1E0,5E0,8E0,1.16E2,2.21E2,2E0,7.5E1,3.13E2,1.9E2,1.7E1,7.2E1,1.22E2,5E0,1.09E2,1.85E2,1E0,4.1E1,2.2E1,8.6E1,3E0,1E0,2E0,5E0,4E0,9.1E1,1.4E1,8E0,2E0,3E0,5E0,3E0,2E1,9.6E1,7E0,2.14E2,1E0,1E0,1.8E1,5.7E1,1.36E2,1.77E2,1.12E2,7.8E1,1E1,7E0,1.2E1,6E1,8.6E1,3.6E1,3E0,2E0,7.8E1,3.1E1,6.6E1,1.19E2,4E1,1E0,1E0,2.1E1,3E1,5.6E1,1E0,1E0,4E0,1E0,1E0,3E0,1.8E1,7.3E1,2E0,1.2E1,1E0,7E0,1E0,2E0,2E0,3E0],"tree_param":{"num_deleted":"0","num_feature":"7","num_nodes":"105","size_leaf_vector":"1"}},{"base_weights":[1.5600066E-2,-1.8270774E-1,6.091135E-1,-3.4953484E-1,-1.0400486E-1,4.08067E-1,1.6458539E0,-3.593645E-1,3.8041633E-1,3.747544E-2,-2.0921052E-1,5.4530793E-1,-1.2803891E-1,2.7981424E0,1.0224332E0,-5.3729564E-1,-3.242839E-1,3.3702114E-1,7.1380856E-3,-1.7402528E-1,3.847845E-1,-2.7018085E-1,-4.3019082E-2,7.465692E-1,1.6787197E-2,1.1375607E0,-2.9613382E-1,5.0078875E-1,4.1431684E0,-9.828236E-2,1.7214388E0,-5.623527E-1,-1.929995E-1,-2.3891434E-1,-3.959766E-1,1.2358252E-1,-3.3505715E-2,5.326794E-1,-3.2172203E-1,-2.2848949E-1,8.8450634E-1,-2.9896945E-1,1.2221335E-1,5.6355846E-1,-1.3364722E-1,1.1266108E0,4.348558E-1,-7.402238E-2,9.8734885E-1,-1.3499805E-1,2.1826074E0,-4.0489507E-1,8.770881E-1,1.5093597E0,-4.2315188E-1,2.065068E0,6.2231307E0,-5.7699305E-1,1.0350896E0,3.2064593E0,4.8457366E-1,-1.7454223E-1,-4.1901242E-2,-1.10179216E-1,3.1105911E-2,-7.7453285E-2,1.7306939E-1,-5.199656E-2,-1.3286021E-1,4.632111E-2,9.29103E-3,2.4284877E-1,-3.3067464E-4,-4.383442E-2,-1.8396035E-1,-1.3470711E-1,2.9556753E-2,1.2368137E0,2.1073087E-1,4.3541696E-2,-9.89003E-2,3.3346596E-1,-1.400821E-1,8.0327235E-2,8.388264E-1,-5.1976796E-2,1.9433852E-1,1.889778E-1,6.3470465E-1,1.0319479E-1,7.204856E-1,2.9178724E-1,-5.373934E-2,3.8333532E-1,5.2251987E-2,-1.539819E-1,8.648286E-2,7.410928E-1,1.5476997E-1,-4.5531335E-1,-4.851156E-2,3.8949072E-2,3.001721E-1,1.3820894E-1,4.9690545E-1,-1.9848765E-1,1.0759069E-2,7.989979E-4,1.1143378E0,7.462729E-1,2.1659515E0,1.0668407E-1,-2.9567912E-1,4.422536E-1,-1.7405324E-1,1.3303957E0,6.5035695E-1,5.2286553E-1,-5.5488944E-2],"categories":[],"categories_nodes":[],"categories_segments":[],"categories_sizes":[],"default_left":[0,0,0,0,0,0,0,0,0,0,0,0,0,0,0,0,0,0,0,0,0,0,0,0,0,0,0,0,0,0,0,0,0,0,0,0,0,0,0,0,0,0,0,0,0,0,0,0,0,0,0,0,0,0,0,0,0,0,0,0,0,0,0,0,0,0,0,0,0,0,0,0,0,0,0,0,0,0,0,0,0,0,0,0,0,0,0,0,0,0,0,0,0,0,0,0,0,0,0,0,0,0,0,0,0,0,0,0,0,0,0,0,0,0,0,0,0,0,0],"id":4,"left_children":[1,3,5,7,9,11,13,15,17,19,21,23,25,27,29,31,33,-1,35,37,39,41,43,45,47,49,51,53,55,57,59,61,63,65,67,69,-1,71,73,75,77,79,81,83,85,87,89,91,93,95,97,99,101,103,105,107,109,111,113,115,117,-1,-1,-1,-1,-1,-1,-1,-1,-1,-1,-1,-1,-1,-1,-1,-1,-1,-1,-1,-1,-1,-1,-1,-1,-1,-1,-1,-1,-1,-1,-1,-1,-1,-1,-1,-1,-1,-1,-1,-1,-1,-1,-1,-1,-1,-1,-1,-1,-1,-1,-1,-1,-1,-1,-1,-1,-1,-1],"loss_changes":[2.0349403E2,1.6979832E1,8.957991E1,3.1144142E0,1.3135995E1,2.6851364E1,4.742433E1,2.3849564E0,1.6560276E0,2.7759918E1,5.1155453E0,3.0834991E1,1.6292433E1,7.208519E1,3.6988354E1,4.6085358E-1,2.0169296E0,0E0,8.298426E-2,2.4700201E1,4.4026794E1,4.216238E0,7.606619E0,2.4387535E1,7.2121263E0,1.2263596E1,8.904402E0,9.957286E0,5.1984344E1,1.09058275E1,5.1712547E1,4.2035103E-1,3.4829122E-1,2.6633778E0,1.8651657E0,3.781367E-3,0E0,6.0590343E0,9.891644E0,4.731865E0,4.3680916E1,4.7513447E0,1.5673732E1,1.1138248E1,3.826469E0,4.4845398E1,2.008483E1,8.425103E0,1.4306698E0,9.485345E-1,1.1231422E0,1.6533367E1,4.2374897E-1,7.6494217E-3,6.805067E-1,3.0605522E1,8.102905E0,5.6854267E0,5.1107597E0,6.9691772E0,1.4644627E1,0E0,0E0,0E0,0E0,0E0,0E0,0E0,0E0,0E0,0E0,0E0,0E0,0E0,0E0,0E0,0E0,0E0,0E0,0E0,0E0,0E0,0E0,0E0,0E0,0E0,0E0,0E0,0E0,0E0,0E0,0E0,0E0,0E0,0E0,0E0,0E0,0E0,0E0,0E0,0E0,0E0,0E0,0E0,0E0,0E0,0E0,0E0,0E0,0E0,0E0,0E0,0E0,0E0,0E0,0E0,0E0,0E0,0E0],"parents":[2147483647,0,0,1,1,2,2,3,3,4,4,5,5,6,6,7,7,8,8,9,9,10,10,11,11,12,12,13,13,14,14,15,15,16,16,18,18,19,19,20,20,21,21,22,22,23,23,24,24,25,25,26,26,27,27,28,28,29,29,30,30,31,31,32,32,33,33,34,34,35,35,37,37,38,38,39,39,40,40,41,41,42,42,43,43,44,44,45,45,46,46,47,47,48,48,49,49,50,50,51,51,52,52,53,53,54,54,55,55,56,56,57,57,58,58,59,59,60,60],"right_children":[2,4,6,8,10,12,14,16,18,20,22,24,26,28,30,32,34,-1,36,38,40,42,44,46,48,50,52,54,56,58,60,62,64,66,68,70,-1,72,74,76,78,80,82,84,86,88,90,92,94,96,98,100,102,104,106,108,110,112,114,116,118,-1,-1,-1,-1,-1,-1,-1,-1,-1,-1,-1,-1,-1,-1,-1,-1,-1,-1,-1,-1,-1,-1,-1,-1,-1,-1,-1,-1,-1,-1,-1,-1,-1,-1,-1,-1,-1,-1,-1,-1,-1,-1,-1,-1,-1,-1,-1,-1,-1,-1,-1,-1,-1,-1,-1,-1,-1,-1],"split_conditions":[3.1E0,1.07E0,8.23E0,3.8329437E1,8.58275E0,5.3E0,4.52025E0,4.7E-1,3.928126E1,4.52025E0,1.6759834E1,2.327489E2,1.2620554E1,1.3108577E2,5.09E0,1.4909833E1,7.961918E0,3.3702114E-1,6.2744174E0,1.3104198E1,1.1000001E0,2.8E0,8.799049E1,7.5285835E0,1.7068167E1,1.0086427E1,1.870775E1,1.6327497E1,6.45E0,1.23E1,1.8702829E2,5.6999993E0,4.2E-1,7.64525E0,6.2E-1,5.3E-1,-3.3505715E-2,2.7E0,2.2461807E1,2.19718E1,4.5806665E0,6.2E-1,2E-1,2.3795427E1,5.8E0,4.52025E0,2.2897649E2,3.17E0,2.52E0,4.5E0,6.59E0,1.5463244E1,5.8E0,8.57E0,9.27E0,2.1015E0,1.1720751E1,3E-1,2.31E0,3.67E0,3E-1,-1.7454223E-1,-4.1901242E-2,-1.10179216E-1,3.1105911E-2,-7.7453285E-2,1.7306939E-1,-5.199656E-2,-1.3286021E-1,4.632111E-2,9.29103E-3,2.4284877E-1,-3.3067464E-4,-4.383442E-2,-1.8396035E-1,-1.3470711E-1,2.9556753E-2,1.2368137E0,2.1073087E-1,4.3541696E-2,-9.89003E-2,3.3346596E-1,-1.400821E-1,8.0327235E-2,8.388264E-1,-5.1976796E-2,1.9433852E-1,1.889778E-1,6.3470465E-1,1.0319479E-1,7.204856E-1,2.9178724E-1,-5.373934E-2,3.8333532E-1,5.2251987E-2,-1.539819E-1,8.648286E-2,7.410928E-1,1.5476997E-1,-4.5531335E-1,-4.851156E-2,3.8949072E-2,3.001721E-1,1.3820894E-1,4.9690545E-1,-1.9848765E-1,1.0759069E-2,7.989979E-4,1.1143378E0,7.462729E-1,2.1659515E0,1.0668407E-1,-2.9567912E-1,4.422536E-1,-1.7405324E-1,1.3303957E0,6.5035695E-1,5.2286553E-1,-5.5488944E-2],"split_indices":[0,0,0,5,3,1,3,0,5,3,3,6,5,6,1,3,3,0,3,5,4,0,6,3,3,5,3,5,1,0,6,4,0,3,1,0,0,1,5,5,3,2,4,5,2,3,6,0,2,0,1,5,0,0,0,3,5,4,2,2,4,0,0,0,0,0,0,0,0,0,0,0,0,0,0,0,0,0,0,0,0,0,0,0,0,0,0,0,0,0,0,0,0,0,0,0,0,0,0,0,0,0,0,0,0,0,0,0,0,0,0,0,0,0,0,0,0,0,0],"split_type":[0,0,0,0,0,0,0,0,0,0,0,0,0,0,0,0,0,0,0,0,0,0,0,0,0,0,0,0,0,0,0,0,0,0,0,0,0,0,0,0,0,0,0,0,0,0,0,0,0,0,0,0,0,0,0,0,0,0,0,0,0,0,0,0,0,0,0,0,0,0,0,0,0,0,0,0,0,0,0,0,0,0,0,0,0,0,0,0,0,0,0,0,0,0,0,0,0,0,0,0,0,0,0,0,0,0,0,0,0,0,0,0,0,0,0,0,0,0,0],"sum_hessian":[1.727E3,1.295E3,4.32E2,4.14E2,8.81E2,3.63E2,6.9E1,4.09E2,5E0,3.76E2,5.05E2,2.89E2,7.4E1,2.3E1,4.6E1,6.5E1,3.44E2,1E0,4E0,2.34E2,1.42E2,3.69E2,1.36E2,2.09E2,8E1,8E0,6.6E1,9E0,1.4E1,1.8E1,2.8E1,6E1,5E0,1.59E2,1.85E2,2E0,2E0,4E1,1.94E2,6.4E1,7.8E1,3.44E2,2.5E1,1.7E1,1.19E2,9.3E1,1.16E2,7.4E1,6E0,4E0,4E0,6.1E1,5E0,4E0,5E0,8E0,6E0,1.3E1,5E0,1.2E1,1.6E1,5.7E1,3E0,3E0,2E0,1.56E2,3E0,3.3E1,1.52E2,1E0,1E0,2.6E1,1.4E1,1.22E2,7.2E1,3.8E1,2.6E1,3E0,7.5E1,2.2E1,3.22E2,9E0,1.6E1,1.6E1,1E0,1.14E2,5E0,6.3E1,3E1,1.12E2,4E0,6E0,6.8E1,4E0,2E0,2E0,2E0,3E0,1E0,1E1,5.1E1,1E0,4E0,1E0,3E0,3E0,2E0,4E0,4E0,2E0,4E0,4E0,9E0,4E0,1E0,4E0,8E0,5E0,1.1E1],"tree_param":{"num_deleted":"0","num_feature":"7","num_nodes":"119","size_leaf_vector":"1"}},{"base_weights":[1.8164124E-2,-5.617886E-2,9.3244314E-1,-1.2594247E-1,2.4141923E-1,2.1317937E0,6.2658066E-1,-8.921715E-2,-3.5461828E-1,3.4168154E-1,-4.9133E-1,2.6063733E0,4.713102E-1,9.594242E-1,-1.9889833E-1,-3.8860878E-1,-4.735781E-2,-2.523227E-1,-5.259376E-1,-3.5009414E-1,4.1745123E-1,-1.098443E0,-1.1670864E-1,1.1670386E0,3.1398714E0,6.0354406E-1,-4.8313953E-2,4.0001044E-1,1.6222464E0,-3.238447E-1,7.2545093E-1,-8.116066E-2,-5.431302E-1,9.6563734E-2,-1.4854461E-1,-1.6786958E-1,-1.8498404E-1,-3.4359702E-1,-6.5125185E-1,4.6666208E-1,-8.5798967E-1,1.7437263E0,3.4067285E-1,-1.3458124E0,2.5718227E-1,1.243222E0,-3.701855E-1,3.9961793E-2,4.6617916E-1,1.1051674E0,4.2715725E-1,-3.2304097E-2,2.3019752E-1,3.2312777E0,9.936736E-2,-4.2561136E-2,2.2232795E0,-1.7305158E-1,-3.5560217E-1,4.0150095E-2,2.6341367E-1,2.0812745E-1,-8.4885255E-2,-2.1061595E-1,-1.2313112E-1,-1.6038831E-2,9.091595E-2,2.857902E-1,-4.7368284E-2,7.012099E-2,-7.4501425E-2,-1.4114648E-1,1.7012852E-1,-2.348363E-1,-1.1921334E-1,-1.0311457E-1,4.5235735E-1,-2.963202E-1,1.8268783E-1,7.741515E-1,1.0122009E-1,1.7422467E-1,1.1705509E-2,-1.8488863E-1,-4.900602E-1,-1.6014934E-2,1.3174696E-1,4.2518926E-1,1.0814932E-1,2.6546198E-1,-1.6466077E-1,-5.7560135E-2,1.3308846E0,1.9485584E-1,-2.1962138E-1,3.30267E-1,-4.218571E-1,1.1919647E0,4.3846548E-1,-7.225149E-3,-1.9223066E-1],"categories":[],"categories_nodes":[],"categories_segments":[],"categories_sizes":[],"default_left":[0,0,0,0,0,0,0,0,0,0,0,0,0,0,0,0,0,0,0,0,0,0,0,0,0,0,0,0,0,0,0,0,0,0,0,0,0,0,0,0,0,0,0,0,0,0,0,0,0,0,0,0,0,0,0,0,0,0,0,0,0,0,0,0,0,0,0,0,0,0,0,0,0,0,0,0,0,0,0,0,0,0,0,0,0,0,0,0,0,0,0,0,0,0,0,0,0,0,0,0,0],"id":5,"left_children":[1,3,5,7,9,11,13,15,17,19,21,23,25,27,29,31,33,35,37,39,41,43,45,47,49,51,-1,53,55,57,59,61,63,65,67,-1,69,71,73,75,77,79,81,83,85,87,89,-1,-1,-1,-1,-1,-1,91,93,95,97,99,-1,-1,-1,-1,-1,-1,-1,-1,-1,-1,-1,-1,-1,-1,-1,-1,-1,-1,-1,-1,-1,-1,-1,-1,-1,-1,-1,-1,-1,-1,-1,-1,-1,-1,-1,-1,-1,-1,-1,-1,-1,-1,-1],"loss_changes":[1.17504944E2,3.3228065E1,4.6352974E1,1.0852421E1,2.250189E1,1.9260414E1,2.9040146E1,1.3992748E1,3.0043068E0,1.4193531E1,8.286989E0,1.1693298E1,6.825315E-1,2.7160477E1,3.8152502E0,6.464424E0,1.431517E1,2.2550702E0,1.2843208E0,1.1600717E1,2.4048634E1,5.040884E0,8.733285E0,2.5928774E0,7.8243103E0,7.8153586E-1,0E0,3.5429356E1,3.4115173E1,3.4322894E0,2.4359846E-1,7.5457363E0,1.6308575E0,1.259363E1,6.090996E0,0E0,2.5781713E0,3.6180174E0,9.5789146E-1,9.79965E0,3.8370714E0,1.4427525E1,1.6633945E1,1.5120335E0,1.9298826E-1,1.0371065E-1,5.19511E0,0E0,0E0,0E0,0E0,0E0,0E0,1.7350788E1,1.8314785E1,1.7140495E1,2.7517334E1,1.7264376E0,0E0,0E0,0E0,0E0,0E0,0E0,0E0,0E0,0E0,0E0,0E0,0E0,0E0,0E0,0E0,0E0,0E0,0E0,0E0,0E0,0E0,0E0,0E0,0E0,0E0,0E0,0E0,0E0,0E0,0E0,0E0,0E0,0E0,0E0,0E0,0E0,0E0,0E0,0E0,0E0,0E0,0E0,0E0],"parents":[2147483647,0,0,1,1,2,2,3,3,4,4,5,5,6,6,7,7,8,8,9,9,10,10,11,11,12,12,13,13,14,14,15,15,16,16,17,17,18,18,19,19,20,20,21,21,22,22,23,23,24,24,25,25,27,27,28,28,29,29,30,30,31,31,32,32,33,33,34,34,36,36,37,37,38,38,39,39,40,40,41,41,42,42,43,43,44,44,45,45,46,46,53,53,54,54,55,55,56,56,57,57],"right_children":[2,4,6,8,10,12,14,16,18,20,22,24,26,28,30,32,34,36,38,40,42,44,46,48,50,52,-1,54,56,58,60,62,64,66,68,-1,70,72,74,76,78,80,82,84,86,88,90,-1,-1,-1,-1,-1,-1,92,94,96,98,100,-1,-1,-1,-1,-1,-1,-1,-1,-1,-1,-1,-1,-1,-1,-1,-1,-1,-1,-1,-1,-1,-1,-1,-1,-1,-1,-1,-1,-1,-1,-1,-1,-1,-1,-1,-1,-1,-1,-1,-1,-1,-1,-1],"split_conditions":[6.18E0,3.1E0,1.57908325E1,2.7940073E2,5.8E0,4E-1,2.2412659E2,5.182058E1,1.9513195E1,9E-1,1.4319415E2,1.84E0,8.099999E0,6.59E0,3.7612675E1,1.4021525E1,8.58275E0,5.5E-1,1.17E0,5.3E-1,1.02E0,1.2880668E1,1.7102966E2,1.1212135E1,4.52025E0,7.13E0,-4.8313953E-2,1.4E0,8.23E0,6.9999995E0,8.23E0,-1.9589168E0,3.2710228E1,4.52025E0,5.5811295E1,-1.6786958E-1,7.7E-1,1.12E0,2.2E0,2.0431387E1,5.51E0,7.5285835E0,1.4000002E0,9.124816E1,3.5E0,4.15E0,1.4021525E1,3.9961793E-2,4.6617916E-1,1.1051674E0,4.2715725E-1,-3.2304097E-2,2.3019752E-1,1.494167E-1,2.1E0,3.4744174E0,3.67E0,2.7299393E2,-3.5560217E-1,4.0150095E-2,2.6341367E-1,2.0812745E-1,-8.4885255E-2,-2.1061595E-1,-1.2313112E-1,-1.6038831E-2,9.091595E-2,2.857902E-1,-4.7368284E-2,7.012099E-2,-7.4501425E-2,-1.4114648E-1,1.7012852E-1,-2.348363E-1,-1.1921334E-1,-1.0311457E-1,4.5235735E-1,-2.963202E-1,1.8268783E-1,7.741515E-1,1.0122009E-1,1.7422467E-1,1.1705509E-2,-1.8488863E-1,-4.900602E-1,-1.6014934E-2,1.3174696E-1,4.2518926E-1,1.0814932E-1,2.6546198E-1,-1.6466077E-1,-5.7560135E-2,1.3308846E0,1.9485584E-1,-2.1962138E-1,3.30267E-1,-4.218571E-1,1.1919647E0,4.3846548E-1,-7.225149E-3,-1.9223066E-1],"split_indices":[0,0,5,6,2,4,6,6,5,2,6,2,4,1,5,5,3,0,0,2,2,3,6,5,3,0,0,1,0,4,0,3,6,3,6,0,1,0,0,5,0,3,4,6,0,0,5,0,0,0,0,0,0,3,4,3,2,6,0,0,0,0,0,0,0,0,0,0,0,0,0,0,0,0,0,0,0,0,0,0,0,0,0,0,0,0,0,0,0,0,0,0,0,0,0,0,0,0,0,0,0],"split_type":[0,0,0,0,0,0,0,0,0,0,0,0,0,0,0,0,0,0,0,0,0,0,0,0,0,0,0,0,0,0,0,0,0,0,0,0,0,0,0,0,0,0,0,0,0,0,0,0,0,0,0,0,0,0,0,0,0,0,0,0,0,0,0,0,0,0,0,0,0,0,0,0,0,0,0,0,0,0,0,0,0,0,0,0,0,0,0,0,0,0,0,0,0,0,0,0,0,0,0,0,0],"sum_hessian":[1.727E3,1.598E3,1.29E2,1.295E3,3.03E2,2.5E1,1.04E2,1.117E3,1.78E2,2.67E2,3.6E1,1.9E1,6E0,7.4E1,3E1,1.36E2,9.81E2,1.13E2,6.5E1,2.6E1,2.41E2,1.3E1,2.3E1,6E0,1.3E1,5E0,1E0,4.1E1,3.3E1,2.7E1,3E0,4.6E1,9E1,4.05E2,5.76E2,1.9E1,9.4E1,2.8E1,3.7E1,1E1,1.6E1,1.2E1,2.29E2,1.1E1,2E0,3E0,2E1,2E0,4E0,9E0,4E0,1E0,4E0,3E0,3.8E1,9E0,2.4E1,2.4E1,3E0,1E0,2E0,9E0,3.7E1,3.9E1,5.1E1,2.35E2,1.7E2,4E0,5.72E2,1.2E1,8.2E1,2.5E1,3E0,2.3E1,1.4E1,6E0,4E0,1.5E1,1E0,7E0,5E0,1.27E2,1.02E2,4E0,7E0,1E0,1E0,2E0,1E0,2E0,1.8E1,1E0,2E0,2.3E1,1.5E1,5E0,4E0,6E0,1.8E1,1.9E1,5E0],"tree_param":{"num_deleted":"0","num_feature":"7","num_nodes":"101","size_leaf_vector":"1"}},{"base_weights":[1.6014239E-2,-6.957045E-2,4.4958714E-1,-1.4504746E-1,2.735988E-2,1.3032446E0,3.008035E-1,-2.963054E-1,-1.1060743E-1,1.02520205E-1,-2.0910728E-1,9.264548E-1,2.1680148E0,-6.5013874E-1,3.9326954E-1,-1.6162865E-2,-3.633134E-1,-5.7587214E-2,-2.5148124E-1,-2.3928337E-2,3.3610526E-1,2.7362833E0,-2.8625697E-1,2.1067665E0,3.4783787E-1,3.8695693E-1,2.4855306E0,-8.447696E-1,2.5923407E-1,6.633856E-1,-5.307635E-2,3.8033977E-1,-2.0420398E-1,-3.0030128E-1,-5.2918136E-1,4.5601353E-2,-1.9082366E-1,2.3738135E-1,-2.8759798E-1,1.0251801E-1,-3.4839362E-1,6.7976E-1,-1.843196E-1,1.3089317E-1,1.0072513E0,-8.904192E-1,-1.01498924E-1,2.7616444E0,4.3403876E-1,-6.601759E-2,9.5296437E-1,1.0607493E-2,1.6352314E-1,1.0120295E0,1.6230828E0,-9.952071E-1,-4.2321333E-1,8.124667E-2,9.23289E-1,-1.3115494E-1,7.1482444E-1,1.896104E-1,-4.6563383E-2,-1.3143507E-1,2.907356E-2,-1.305818E-2,-9.8488316E-2,-1.7794877E-1,2.0093126E-2,-4.6415642E-2,5.7714973E-2,-7.0420414E-2,4.357918E-2,1.9577762E-1,-1.0673894E-1,-9.518211E-2,5.0248932E-2,-1.1383449E-1,5.7846926E-2,-1.7799915E-1,1.1838918E-2,3.517168E-1,1.1219429E-3,-1.1679575E-2,-1.8545777E-1,2.966463E-1,-2.924322E-1,4.7475576E-1,-5.2731622E-2,-3.1078864E-2,9.7693515E-1,1.8765379E-2,1.6110526E-1,5.1264163E-2,-4.71854E-1,4.6586543E-1,1.1825704E-1,9.436909E-2,7.577494E-1,-3.2208914E-1,-1.0493331E-1,2.4717057E-2,-1.563637E-1,2.1579424E-1,-1.441343E-1,7.3041147E-1,2.3311724E-1,1.8743795E-1,-6.434548E-2,4.1598064E-1,1.03312405E-2],"categories":[],"categories_nodes":[],"categories_segments":[],"categories_sizes":[],"default_left":[0,0,0,0,0,0,0,0,0,0,0,0,0,0,0,0,0,0,0,0,0,0,0,0,0,0,0,0,0,0,0,0,0,0,0,0,0,0,0,0,0,0,0,0,0,0,0,0,0,0,0,0,0,0,0,0,0,0,0,0,0,0,0,0,0,0,0,0,0,0,0,0,0,0,0,0,0,0,0,0,0,0,0,0,0,0,0,0,0,0,0,0,0,0,0,0,0,0,0,0,0,0,0,0,0,0,0,0,0,0,0],"id":6,"left_children":[1,3,5,7,9,11,13,15,17,19,21,23,25,27,29,31,33,35,37,39,41,43,45,47,49,51,53,55,-1,57,59,61,63,65,67,69,71,73,75,77,79,81,83,-1,-1,85,87,89,91,93,95,-1,-1,-1,97,99,101,103,105,107,109,-1,-1,-1,-1,-1,-1,-1,-1,-1,-1,-1,-1,-1,-1,-1,-1,-1,-1,-1,-1,-1,-1,-1,-1,-1,-1,-1,-1,-1,-1,-1,-1,-1,-1,-1,-1,-1,-1,-1,-1,-1,-1,-1,-1,-1,-1,-1,-1,-1,-1],"loss_changes":[6.415252E1,1.0568287E1,3.5805904E1,4.197199E0,1.1271713E1,1.1676567E1,2.1710564E1,2.8098984E0,4.9375696E0,1.4215094E1,3.555039E1,2.0438583E1,5.8243713E0,7.2138224E0,2.6921253E1,2.314431E0,1.1057396E0,6.6492176E0,3.2640305E0,1.2877309E1,3.0350348E1,4.25025E0,1.6653198E1,9.755665E0,5.57248E0,1.4751151E-1,2.1823273E0,8.471718E-1,0E0,2.0955666E1,5.190065E0,1.4460534E0,1.521591E0,6.3262177E-1,1.2603006E0,8.056884E0,3.1480274E0,3.4340096E0,2.3355303E0,9.909591E0,8.38345E0,3.396441E1,4.2653575E0,0E0,0E0,6.5121727E0,1.4787129E1,1.0261528E1,1.19430125E-1,5.2662787E0,2.404848E0,0E0,0E0,0E0,7.474312E0,3.3310223E-1,3.8978302E-1,1.6115143E1,1.9325714E1,5.047475E0,3.6087985E0,0E0,0E0,0E0,0E0,0E0,0E0,0E0,0E0,0E0,0E0,0E0,0E0,0E0,0E0,0E0,0E0,0E0,0E0,0E0,0E0,0E0,0E0,0E0,0E0,0E0,0E0,0E0,0E0,0E0,0E0,0E0,0E0,0E0,0E0,0E0,0E0,0E0,0E0,0E0,0E0,0E0,0E0,0E0,0E0,0E0,0E0,0E0,0E0,0E0,0E0],"parents":[2147483647,0,0,1,1,2,2,3,3,4,4,5,5,6,6,7,7,8,8,9,9,10,10,11,11,12,12,13,13,14,14,15,15,16,16,17,17,18,18,19,19,20,20,21,21,22,22,23,23,24,24,25,25,26,26,27,27,29,29,30,30,31,31,32,32,33,33,34,34,35,35,36,36,37,37,38,38,39,39,40,40,41,41,42,42,45,45,46,46,47,47,48,48,49,49,50,50,54,54,55,55,56,56,57,57,58,58,59,59,60,60],"right_children":[2,4,6,8,10,12,14,16,18,20,22,24,26,28,30,32,34,36,38,40,42,44,46,48,50,52,54,56,-1,58,60,62,64,66,68,70,72,74,76,78,80,82,84,-1,-1,86,88,90,92,94,96,-1,-1,-1,98,100,102,104,106,108,110,-1,-1,-1,-1,-1,-1,-1,-1,-1,-1,-1,-1,-1,-1,-1,-1,-1,-1,-1,-1,-1,-1,-1,-1,-1,-1,-1,-1,-1,-1,-1,-1,-1,-1,-1,-1,-1,-1,-1,-1,-1,-1,-1,-1,-1,-1,-1,-1,-1,-1],"split_conditions":[3.97E0,1.71E0,1.2620554E1,7.620057E1,4.6E0,6.45E0,6.03443E1,-9.297498E-1,2.6559424E2,9.0000004E-1,9.09833E-1,4.37E0,1.84E0,1.7701502E1,2.1534506E2,1.4021525E1,1.23E0,1.2720252E1,1.191812E1,2E-1,2.327489E2,9.2E-1,5.4598336E0,2.2620972E2,1.6626501E1,8.57E0,4.09E0,5.09E0,2.5923407E-1,1.687398E1,1.6932753E1,-2.2568333E0,-3.8985002E0,1.1159999E1,1.9007753E1,1.1000001E0,1.82515E1,2.7817087E2,3.2217484E1,1.25E0,2.06E0,2.52E0,2.7E0,1.3089317E-1,1.0072513E0,3E-1,1.76E0,8.64E0,4.03E0,1.5249419E1,4.8E0,1.0607493E-2,1.6352314E-1,1.0120295E0,1.9582686E2,5.5811295E1,4.7E0,4E-1,1.53E0,4.29E0,2.52E0,1.896104E-1,-4.6563383E-2,-1.3143507E-1,2.907356E-2,-1.305818E-2,-9.8488316E-2,-1.7794877E-1,2.0093126E-2,-4.6415642E-2,5.7714973E-2,-7.0420414E-2,4.357918E-2,1.9577762E-1,-1.0673894E-1,-9.518211E-2,5.0248932E-2,-1.1383449E-1,5.7846926E-2,-1.7799915E-1,1.1838918E-2,3.517168E-1,1.1219429E-3,-1.1679575E-2,-1.8545777E-1,2.966463E-1,-2.924322E-1,4.7475576E-1,-5.2731622E-2,-3.1078864E-2,9.7693515E-1,1.8765379E-2,1.6110526E-1,5.1264163E-2,-4.71854E-1,4.6586543E-1,1.1825704E-1,9.436909E-2,7.577494E-1,-3.2208914E-1,-1.0493331E-1,2.4717057E-2,-1.563637E-1,2.1579424E-1,-1.441343E-1,7.3041147E-1,2.3311724E-1,1.8743795E-1,-6.434548E-2,4.1598064E-1,1.03312405E-2],"split_indices":[0,0,5,6,4,0,6,3,6,4,3,0,2,3,6,5,0,3,5,4,6,2,3,6,3,0,1,1,0,5,3,3,3,5,3,4,3,6,5,1,2,1,4,0,0,2,0,5,0,3,0,0,0,0,6,6,0,4,1,0,2,0,0,0,0,0,0,0,0,0,0,0,0,0,0,0,0,0,0,0,0,0,0,0,0,0,0,0,0,0,0,0,0,0,0,0,0,0,0,0,0,0,0,0,0,0,0,0,0,0,0],"split_type":[0,0,0,0,0,0,0,0,0,0,0,0,0,0,0,0,0,0,0,0,0,0,0,0,0,0,0,0,0,0,0,0,0,0,0,0,0,0,0,0,0,0,0,0,0,0,0,0,0,0,0,0,0,0,0,0,0,0,0,0,0,0,0,0,0,0,0,0,0,0,0,0,0,0,0,0,0,0,0,0,0,0,0,0,0,0,0,0,0,0,0,0,0,0,0,0,0,0,0,0,0,0,0,0,0,0,0,0,0,0,0],"sum_hessian":[1.727E3,1.443E3,2.84E2,8.11E2,6.32E2,4.1E1,2.43E2,1.49E2,6.62E2,4.8E2,1.52E2,3E1,1.1E1,2.1E1,2.22E2,2.9E1,1.2E2,4.82E2,1.8E2,3.12E2,1.68E2,3E0,1.49E2,9E0,2.1E1,2E0,9E0,1.9E1,2E0,1.38E2,8.4E1,9E0,2E1,8.9E1,3.1E1,2.72E2,2.1E2,1.2E1,1.68E2,2.25E2,8.7E1,1.01E2,6.7E1,1E0,2E0,3.4E1,1.15E2,6E0,3E0,1.3E1,8E0,1E0,1E0,3E0,6E0,1.3E1,6E0,4.3E1,9.5E1,7.7E1,7E0,6E0,3E0,1.1E1,9E0,9E0,8E1,2.8E1,3E0,1.15E2,1.57E2,1.86E2,2.4E1,7E0,5E0,1.58E2,1E1,3.5E1,1.9E2,5.3E1,3.4E1,5.8E1,4.3E1,5.1E1,1.6E1,1E0,3.3E1,4E0,1.11E2,1E0,5E0,1E0,2E0,1.2E1,1E0,3E0,5E0,3E0,3E0,1.1E1,2E0,1E0,5E0,2E1,2.3E1,7E0,8.8E1,7E0,7E1,3E0,4E0],"tree_param":{"num_deleted":"0","num_feature":"7","num_nodes":"111","size_leaf_vector":"1"}},{"base_weights":[1.4630371E-2,-2.9792301E-2,5.6091666E-1,-4.550991E-2,4.207487E-1,1.0861994E0,2.5038072E-1,3.655654E-2,-1.18402295E-1,1.4310373E-1,1.1330854E0,3.586939E-1,2.004483E0,8.581491E-1,-1.0983063E-1,-9.052975E-2,2.4021792E-1,2.993786E-1,-1.39113E-1,-3.671308E-2,6.862255E-1,2.9329714E-1,2.0509439E0,7.041211E-1,-1.3710954E0,1.0334342E0,3.4532578E0,3.7985408E-1,2.443753E0,5.3081036E-1,-3.5341483E-1,-3.0372122E-2,-4.2714274E-1,1.1387743E0,1.59183E-1,-1.8212909E-1,5.763081E-1,-1.07500866E-1,-3.662542E-1,-2.0064224E-1,6.797655E-1,2.7990228E-1,8.280051E-2,-6.509769E-2,1.4500326E-1,7.56902E-1,1.0661453E0,4.5613036E-1,9.611863E-1,-6.3269013E-1,-1.7619212E-1,2.192781E0,1.457104E-1,1.1931022E0,-3.1948276E-2,1.0680426E0,-7.5923306E-1,8.07331E-1,1.4394772E-1,-1.846657E-1,7.54524E-1,2.553453E-2,-7.146934E-1,1.7673282E-2,-8.1836544E-2,-6.175362E-2,-2.553498E-1,8.1726635E-1,-1.6247113E-1,-2.4629751E-2,1.394042E-1,-8.581221E-2,-1.6635401E-2,-1.23456165E-1,2.531524E-1,-3.588108E-2,3.2558376E-1,-2.7106658E-2,-2.447735E-1,2.2922164E-2,-1.7561492E-1,-2.3045683E-2,3.2317874E-1,4.2993665E-2,-1.4810193E-2,-4.1769557E-2,2.3595715E-2,-5.262065E-3,4.2996618E-1,4.1429672E-1,-7.11191E-2,-1.3752574E-1,5.823927E-2,9.016371E-3,7.8579456E-1,3.166535E-1,-1.4553265E-1,9.057619E-2,6.029776E-1,-5.8736247E-1,1.09852165E-1,3.6609554E-1,9.325882E-2,-8.014583E-2,3.789216E-1,-2.809421E-1,1.2196375E-1],"categories":[],"categories_nodes":[],"categories_segments":[],"categories_sizes":[],"default_left":[0,0,0,0,0,0,0,0,0,0,0,0,0,0,0,0,0,0,0,0,0,0,0,0,0,0,0,0,0,0,0,0,0,0,0,0,0,0,0,0,0,0,0,0,0,0,0,0,0,0,0,0,0,0,0,0,0,0,0,0,0,0,0,0,0,0,0,0,0,0,0,0,0,0,0,0,0,0,0,0,0,0,0,0,0,0,0,0,0,0,0,0,0,0,0,0,0,0,0,0,0,0,0,0,0,0,0],"id":7,"left_children":[1,3,5,7,9,11,13,15,17,19,21,23,25,27,29,31,33,35,37,39,41,43,45,47,49,51,53,55,57,59,61,63,65,67,69,71,73,75,77,79,81,-1,83,85,-1,-1,87,89,-1,-1,91,93,95,-1,-1,97,99,-1,-1,-1,101,103,105,-1,-1,-1,-1,-1,-1,-1,-1,-1,-1,-1,-1,-1,-1,-1,-1,-1,-1,-1,-1,-1,-1,-1,-1,-1,-1,-1,-1,-1,-1,-1,-1,-1,-1,-1,-1,-1,-1,-1,-1,-1,-1,-1,-1],"loss_changes":[4.195095E1,1.1342351E1,2.0933525E1,9.25253E0,1.0517793E1,3.1347706E1,1.8265034E1,1.8864256E1,7.128071E0,3.9316902E0,1.0960564E1,1.7695875E1,2.5974731E1,2.2581709E1,8.458247E0,9.079204E0,2.0206774E1,5.305366E0,5.568535E0,3.7773933E0,1.411891E0,6.4447147E-1,5.643139E-1,1.3417031E1,4.0368414E0,1.4089006E1,1.5338875E1,2.0408562E1,2.1091843E0,4.3113046E0,5.357595E0,8.283954E0,6.2055874E0,6.2749588E1,1.9055622E1,1.8158796E-1,6.9541817E0,1.0047262E1,1.1711968E1,2.8161259E0,1.8871946E0,0E0,3.906574E-2,5.357807E-2,0E0,0E0,1.6163154E0,1.5072832E1,0E0,0E0,4.0253872E-1,5.4561405E0,5.677319E0,0E0,0E0,1.0938713E1,1.4206519E1,0E0,0E0,0E0,2.3071613E0,7.5816627E0,5.3540936E0,0E0,0E0,0E0,0E0,0E0,0E0,0E0,0E0,0E0,0E0,0E0,0E0,0E0,0E0,0E0,0E0,0E0,0E0,0E0,0E0,0E0,0E0,0E0,0E0,0E0,0E0,0E0,0E0,0E0,0E0,0E0,0E0,0E0,0E0,0E0,0E0,0E0,0E0,0E0,0E0,0E0,0E0,0E0,0E0],"parents":[2147483647,0,0,1,1,2,2,3,3,4,4,5,5,6,6,7,7,8,8,9,9,10,10,11,11,12,12,13,13,14,14,15,15,16,16,17,17,18,18,19,19,20,20,21,21,22,22,23,23,24,24,25,25,26,26,27,27,28,28,29,29,30,30,31,31,32,32,33,33,34,34,35,35,36,36,37,37,38,38,39,39,40,40,42,42,43,43,46,46,47,47,50,50,51,51,52,52,55,55,56,56,60,60,61,61,62,62],"right_children":[2,4,6,8,10,12,14,16,18,20,22,24,26,28,30,32,34,36,38,40,42,44,46,48,50,52,54,56,58,60,62,64,66,68,70,72,74,76,78,80,82,-1,84,86,-1,-1,88,90,-1,-1,92,94,96,-1,-1,98,100,-1,-1,-1,102,104,106,-1,-1,-1,-1,-1,-1,-1,-1,-1,-1,-1,-1,-1,-1,-1,-1,-1,-1,-1,-1,-1,-1,-1,-1,-1,-1,-1,-1,-1,-1,-1,-1,-1,-1,-1,-1,-1,-1,-1,-1,-1,-1,-1,-1],"split_conditions":[6.18E0,2.0053583E1,4.7139997E0,8.58275E0,3.9E0,1.5494714E2,1.8266158E2,4.52025E0,1.1013882E1,1.2000002E0,3E-1,1.406713E2,3.99525E0,1.7505107E2,4E-1,3.7681663E0,4.74525E0,1.43E0,3.33E0,2.85E0,2.87E0,4.15E0,2.6000001E0,1.368148E2,9.09E0,4.09E0,2.1992397E2,1.5649193E2,5.61E0,2.54E0,2.42E0,2.2545315E1,1.8E0,1.67E0,2.1E0,8.7E-1,9.085988E0,3.3E0,3.2E0,2.63E0,1.72E0,2.7990228E-1,2.12E0,2.73E0,1.4500326E-1,7.56902E-1,4.09E0,1.6327497E1,9.611863E-1,-6.3269013E-1,1.23E1,1.84E0,2.5681665E0,1.1931022E0,-3.1948276E-2,4E-1,1.3041083E1,8.07331E-1,1.4394772E-1,-1.846657E-1,2.9E0,2.24E0,1.6932753E1,1.7673282E-2,-8.1836544E-2,-6.175362E-2,-2.553498E-1,8.1726635E-1,-1.6247113E-1,-2.4629751E-2,1.394042E-1,-8.581221E-2,-1.6635401E-2,-1.23456165E-1,2.531524E-1,-3.588108E-2,3.2558376E-1,-2.7106658E-2,-2.447735E-1,2.2922164E-2,-1.7561492E-1,-2.3045683E-2,3.2317874E-1,4.2993665E-2,-1.4810193E-2,-4.1769557E-2,2.3595715E-2,-5.262065E-3,4.2996618E-1,4.1429672E-1,-7.11191E-2,-1.3752574E-1,5.823927E-2,9.016371E-3,7.8579456E-1,3.166535E-1,-1.4553265E-1,9.057619E-2,6.029776E-1,-5.8736247E-1,1.09852165E-1,3.6609554E-1,9.325882E-2,-8.014583E-2,3.789216E-1,-2.809421E-1,1.2196375E-1],"split_indices":[0,3,3,3,0,6,6,3,5,4,4,6,3,6,4,3,3,0,0,2,1,1,4,6,0,1,6,6,2,1,2,5,4,2,0,1,5,0,1,0,1,0,2,1,0,0,0,5,0,0,0,2,3,0,0,4,3,0,0,0,2,2,3,0,0,0,0,0,0,0,0,0,0,0,0,0,0,0,0,0,0,0,0,0,0,0,0,0,0,0,0,0,0,0,0,0,0,0,0,0,0,0,0,0,0,0,0],"split_type":[0,0,0,0,0,0,0,0,0,0,0,0,0,0,0,0,0,0,0,0,0,0,0,0,0,0,0,0,0,0,0,0,0,0,0,0,0,0,0,0,0,0,0,0,0,0,0,0,0,0,0,0,0,0,0,0,0,0,0,0,0,0,0,0,0,0,0,0,0,0,0,0,0,0,0,0,0,0,0,0,0,0,0,0,0,0,0,0,0,0,0,0,0,0,0,0,0,0,0,0,0,0,0,0,0,0,0],"sum_hessian":[1.727E3,1.598E3,1.29E2,1.545E3,5.3E1,4.7E1,8.2E1,7.27E2,8.18E2,3.9E1,1.4E1,2.7E1,2E1,3E1,5.2E1,4.48E2,2.79E2,3.8E1,7.8E2,3E1,9E0,8E0,6E0,2.3E1,4E0,1.3E1,7E0,2.4E1,6E0,1.4E1,3.8E1,3.81E2,6.7E1,2.2E1,2.57E2,1.4E1,2.4E1,6.86E2,9.4E1,2.5E1,5E0,6E0,3E0,3E0,5E0,3E0,3E0,2.2E1,1E0,2E0,2E0,5E0,8E0,6E0,1E0,1.5E1,9E0,5E0,1E0,2E0,1.2E1,1.9E1,1.9E1,2.79E2,1.02E2,4.5E1,2.2E1,1.1E1,1.1E1,1.44E2,1.13E2,7E0,7E0,5E0,1.9E1,6.8E2,6E0,5.9E1,3.5E1,1.5E1,1E1,2E0,3E0,2E0,1E0,2E0,1E0,1E0,2E0,9E0,1.3E1,1E0,1E0,1E0,4E0,3E0,5E0,9E0,6E0,4E0,5E0,5E0,7E0,1.6E1,3E0,1.6E1,3E0],"tree_param":{"num_deleted":"0","num_feature":"7","num_nodes":"107","size_leaf_vector":"1"}},{"base_weights":[1.4002015E-2,-2.2643058E-2,3.9686242E-1,-3.398296E-2,3.2458398E-1,8.1001735E-1,1.5850796E-1,-1.575442E-1,3.5143017E-3,1.115607E-1,1.0697064E0,2.487267E-1,1.5801293E0,7.304269E-1,1.09434985E-1,5.1136136E-2,-2.5229788E-1,7.242869E-2,-1.2176297E-1,-2.0943077E-2,5.1116633E-1,1.0710792E-1,1.6044616E0,4.7306177E-1,-1.1021621E0,9.902235E-1,2.5624247E0,3.5366908E-1,-3.2633495E-1,-4.941818E-2,6.575507E-1,-2.9322815E-1,1.196177E-1,2.8945786E-1,-4.3466527E-2,-1.0193471E-1,-5.102571E-1,-2.0684989E-1,5.393953E-1,6.930913E-1,6.50062E-2,-2.0151615E-2,5.024128E-2,6.0222113E-1,8.0040413E-1,2.9543105E-1,8.170083E-1,-5.0615215E-1,-1.4976327E-1,1.5983099E0,1.8234847E-1,8.8630456E-1,-2.7156034E-2,1.7654425E-1,8.518689E-1,-8.261327E-1,6.551553E-3,-2.6691865E-2,5.62175E-1,4.5780223E-2,6.402751E-1,-7.580307E-2,-3.1332543E-1,5.5075455E-1,-3.2831773E-2,1.6165791E-2,1.9540744E-1,-1.7911013E-2,2.0291477E-1,-3.8243975E-2,5.826669E-2,-2.134693E-1,2.341612E-2,6.699476E-2,-1.5901868E-1,-8.239016E-2,3.2482186E-1,5.0238743E-2,2.258357E-1,3.4394935E-2,-1.2588681E-2,-4.4727447E-3,3.231435E-1,3.199045E-2,5.4995644E-1,-1.168969E-1,4.9503423E-2,6.835414E-1,5.3547133E-2,-1.9014227E-1,2.3964109E-1,-2.382769E-2,1.4130881E-1,3.473505E-1,-1.584705E-2,-3.6519325E-1,-3.050304E-2,1.8511029E-1,-1.3906635E-1],"categories":[],"categories_nodes":[],"categories_segments":[],"categories_sizes":[],"default_left":[0,0,0,0,0,0,0,0,0,0,0,0,0,0,0,0,0,0,0,0,0,0,0,0,0,0,0,0,0,0,0,0,0,0,0,0,0,0,0,0,0,0,0,0,0,0,0,0,0,0,0,0,0,0,0,0,0,0,0,0,0,0,0,0,0,0,0,0,0,0,0,0,0,0,0,0,0,0,0,0,0,0,0,0,0,0,0,0,0,0,0,0,0,0,0,0,0,0,0],"id":8,"left_children":[1,3,5,7,9,11,13,15,17,19,21,23,25,-1,27,29,31,33,35,37,39,41,43,45,47,49,51,53,55,57,59,61,63,65,67,69,71,73,75,77,79,-1,-1,-1,81,83,-1,-1,85,87,89,-1,-1,91,93,95,97,-1,-1,-1,-1,-1,-1,-1,-1,-1,-1,-1,-1,-1,-1,-1,-1,-1,-1,-1,-1,-1,-1,-1,-1,-1,-1,-1,-1,-1,-1,-1,-1,-1,-1,-1,-1,-1,-1,-1,-1,-1,-1],"loss_changes":[2.4252735E1,6.2244368E0,1.4741684E1,7.084729E0,7.817084E0,2.3381092E1,1.056867E1,7.0521717E0,1.0144438E1,2.128676E0,5.490448E0,1.05220995E1,1.0790245E1,0E0,1.0332683E1,6.861987E0,3.764615E0,1.9078285E1,3.160205E0,3.340866E0,7.666211E-1,6.384968E-2,6.611862E-1,1.078738E1,2.5331454E0,7.568676E0,8.585442E0,5.3207088E0,5.8285694E0,7.5461893E0,1.1604862E1,6.468136E0,1.0028777E1,2.247183E1,5.8259835E0,3.0357842E0,2.4241643E0,3.4552083E0,3.835741E0,9.3575954E-2,2.605215E-2,0E0,0E0,0E0,9.1858125E-1,7.9335546E0,0E0,0E0,2.9083446E-1,8.28467E0,4.531276E0,0E0,0E0,3.5802398E0,4.4900446E0,3.8437052E0,6.599845E0,0E0,0E0,0E0,0E0,0E0,0E0,0E0,0E0,0E0,0E0,0E0,0E0,0E0,0E0,0E0,0E0,0E0,0E0,0E0,0E0,0E0,0E0,0E0,0E0,0E0,0E0,0E0,0E0,0E0,0E0,0E0,0E0,0E0,0E0,0E0,0E0,0E0,0E0,0E0,0E0,0E0,0E0],"parents":[2147483647,0,0,1,1,2,2,3,3,4,4,5,5,6,6,7,7,8,8,9,9,10,10,11,11,12,12,14,14,15,15,16,16,17,17,18,18,19,19,20,20,21,21,22,22,23,23,24,24,25,25,26,26,27,27,28,28,29,29,30,30,31,31,32,32,33,33,34,34,35,35,36,36,37,37,38,38,39,39,40,40,44,44,45,45,48,48,49,49,50,50,53,53,54,54,55,55,56,56],"right_children":[2,4,6,8,10,12,14,16,18,20,22,24,26,-1,28,30,32,34,36,38,40,42,44,46,48,50,52,54,56,58,60,62,64,66,68,70,72,74,76,78,80,-1,-1,-1,82,84,-1,-1,86,88,90,-1,-1,92,94,96,98,-1,-1,-1,-1,-1,-1,-1,-1,-1,-1,-1,-1,-1,-1,-1,-1,-1,-1,-1,-1,-1,-1,-1,-1,-1,-1,-1,-1,-1,-1,-1,-1,-1,-1,-1,-1,-1,-1,-1,-1,-1,-1],"split_conditions":[5.8E0,2.0053583E1,4.7139997E0,1.1930447E2,3.9E0,1.5494714E2,3.5E-1,1.4154915E1,2.5188284E2,1.2000002E0,2E-1,1.406713E2,3.99525E0,7.304269E-1,2.7999997E0,3.27E0,3.42E0,6.9848332E0,4.03E0,1.8808131E2,2.87E0,4.15E0,2.82E0,1.368148E2,9.09E0,4.95E0,2.1992397E2,1.091E1,5.7000003E0,1.4044615E1,2E-1,3.07E0,4.525006E-2,4.52025E0,6.59E0,1.7068167E1,2.916889E1,1.08673004E2,1.3207634E1,1.82E0,2.12E0,-2.0151615E-2,5.024128E-2,6.0222113E-1,4.09E0,2.7999997E0,8.170083E-1,-5.0615215E-1,1.23E1,2.1534506E2,7.25E0,8.8630456E-1,-2.7156034E-2,1.8448023E1,2.2412659E2,2.0743118E2,2.511758E1,-2.6691865E-2,5.62175E-1,4.5780223E-2,6.402751E-1,-7.580307E-2,-3.1332543E-1,5.5075455E-1,-3.2831773E-2,1.6165791E-2,1.9540744E-1,-1.7911013E-2,2.0291477E-1,-3.8243975E-2,5.826669E-2,-2.134693E-1,2.341612E-2,6.699476E-2,-1.5901868E-1,-8.239016E-2,3.2482186E-1,5.0238743E-2,2.258357E-1,3.4394935E-2,-1.2588681E-2,-4.4727447E-3,3.231435E-1,3.199045E-2,5.4995644E-1,-1.168969E-1,4.9503423E-2,6.835414E-1,5.3547133E-2,-1.9014227E-1,2.3964109E-1,-2.382769E-2,1.4130881E-1,3.473505E-1,-1.584705E-2,-3.6519325E-1,-3.050304E-2,1.8511029E-1,-1.3906635E-1],"split_indices":[0,3,3,6,0,6,2,5,6,4,4,6,3,0,4,1,0,3,0,6,1,0,1,6,0,1,6,0,4,5,4,0,3,3,1,3,5,6,5,0,2,0,0,0,0,4,0,0,0,6,1,0,0,5,6,6,5,0,0,0,0,0,0,0,0,0,0,0,0,0,0,0,0,0,0,0,0,0,0,0,0,0,0,0,0,0,0,0,0,0,0,0,0,0,0,0,0,0,0],"split_type":[0,0,0,0,0,0,0,0,0,0,0,0,0,0,0,0,0,0,0,0,0,0,0,0,0,0,0,0,0,0,0,0,0,0,0,0,0,0,0,0,0,0,0,0,0,0,0,0,0,0,0,0,0,0,0,0,0,0,0,0,0,0,0,0,0,0,0,0,0,0,0,0,0,0,0,0,0,0,0,0,0,0,0,0,0,0,0,0,0,0,0,0,0,0,0,0,0,0,0],"sum_hessian":[1.727E3,1.577E3,1.5E2,1.528E3,4.9E1,5.4E1,9.6E1,3.55E2,1.173E3,3.9E1,1E1,3.2E1,2.2E1,1E0,9.5E1,1.11E2,2.44E2,7.57E2,4.16E2,3E1,9E0,4E0,6E0,2.8E1,4E0,1.5E1,7E0,6.1E1,3.4E1,9.6E1,1.5E1,2.2E2,2.4E1,2.63E2,4.94E2,3.97E2,1.9E1,2.3E1,7E0,6E0,3E0,1E0,3E0,3E0,3E0,2.7E1,1E0,2E0,2E0,8E0,7E0,6E0,1E0,4.6E1,1.5E1,1.3E1,2.1E1,9.5E1,1E0,1.2E1,3E0,2.1E2,1E1,2E0,2.2E1,1.6E2,1.03E2,4.84E2,1E1,3.66E2,3.1E1,1.4E1,5E0,1E1,1.3E1,3E0,4E0,1E0,5E0,2E0,1E0,1E0,2E0,2.5E1,2E0,1E0,1E0,5E0,3E0,3E0,4E0,2.5E1,2.1E1,1.1E1,4E0,8E0,5E0,9E0,1.2E1],"tree_param":{"num_deleted":"0","num_feature":"7","num_nodes":"99","size_leaf_vector":"1"}},{"base_weights":[1.3433961E-2,2.5471672E-3,8.2036597E-1,-3.498935E-2,1.0802915E-1,1.6575739E0,2.633501E-1,-8.011188E-2,3.2988276E-2,2.7857223E-1,-1.01041004E-1,1.0004203E0,7.915223E-1,-2.86809E-1,6.619905E-1,5.4282747E-2,-1.182444E-1,2.063869E-1,-9.404572E-2,1.6307499E-1,1.3449395E0,5.3075767E-1,-2.6031697E-1,8.242779E-2,1.2357328E0,1.6002369E-1,-1.9858184E-1,9.834488E-1,1.4305502E-2,3.6298072E-1,-6.1606597E-2,-2.3639439E-1,-2.5080528E-2,3.0725068E-1,-5.643987E-1,4.420676E-1,-1.3738072E-1,-2.0324506E-1,3.563395E-1,2.0136733E0,-2.4423721E-1,1.2890847E0,1.7251602E-1,-3.7254918E-1,3.1464216E-1,4.2559427E-1,7.5611115E-2,-6.870432E-2,1.990707E-1,6.762307E-2,3.2699233E-1,9.3659595E-2,-5.671753E-2,4.7794834E-2,3.9314196E-1,-3.0011632E-2,2.1134818E-1,-9.289524E-2,3.8863285E-3,-1.8738594E-2,1.5891458E-1,3.970408E-2,2.1299072E-1,-2.4764797E-1,-2.5527715E-3,2.2021429E-1,-1.8372636E-2,-6.2429056E-2,1.912638E-2,2.282633E-2,-2.3954225E-1,2.2077431E-1,2.5831504E-2,7.3290944E-1,-2.4130236E-1,1.4798309E-1,-1.2601936E-1,4.44389E-1,-1.5261856E-1,-3.834018E-1,1.16711415E-1,1.1874395E-1,-1.3709286E-1,-2.3030773E-2,2.0507376E-1],"categories":[],"categories_nodes":[],"categories_segments":[],"categories_sizes":[],"default_left":[0,0,0,0,0,0,0,0,0,0,0,0,0,0,0,0,0,0,0,0,0,0,0,0,0,0,0,0,0,0,0,0,0,0,0,0,0,0,0,0,0,0,0,0,0,0,0,0,0,0,0,0,0,0,0,0,0,0,0,0,0,0,0,0,0,0,0,0,0,0,0,0,0,0,0,0,0,0,0,0,0,0,0,0,0],"id":9,"left_children":[1,3,5,7,9,11,13,15,17,19,21,23,-1,25,27,29,31,33,35,37,39,41,43,-1,45,47,-1,49,51,53,55,57,59,61,63,65,67,69,71,73,75,77,79,81,83,-1,-1,-1,-1,-1,-1,-1,-1,-1,-1,-1,-1,-1,-1,-1,-1,-1,-1,-1,-1,-1,-1,-1,-1,-1,-1,-1,-1,-1,-1,-1,-1,-1,-1,-1,-1,-1,-1,-1,-1],"loss_changes":[1.5178221E1,6.758561E0,1.0289252E1,3.8644028E0,1.6001797E1,3.1615105E0,3.4795997E0,3.8858967E0,1.1099253E1,3.0201809E1,2.0465496E1,8.5577106E-1,0E0,1.2792698E0,1.8597643E0,6.032529E0,6.4883842E0,1.673296E1,6.8213787E0,1.593088E1,2.599747E1,1.0915851E1,1.0570907E1,0E0,5.4211044E-1,9.3556E-1,0E0,2.3881245E-1,3.0134666E-1,8.667871E0,3.6919541E0,4.753274E0,6.897719E0,1.3218622E1,3.621468E0,3.277995E0,3.8536153E0,1.3029581E1,1.5015041E1,2.2533966E1,1.244609E0,5.2458687E0,9.605221E0,9.003267E0,3.9514432E0,0E0,0E0,0E0,0E0,0E0,0E0,0E0,0E0,0E0,0E0,0E0,0E0,0E0,0E0,0E0,0E0,0E0,0E0,0E0,0E0,0E0,0E0,0E0,0E0,0E0,0E0,0E0,0E0,0E0,0E0,0E0,0E0,0E0,0E0,0E0,0E0,0E0,0E0,0E0,0E0],"parents":[2147483647,0,0,1,1,2,2,3,3,4,4,5,5,6,6,7,7,8,8,9,9,10,10,11,11,13,13,14,14,15,15,16,16,17,17,18,18,19,19,20,20,21,21,22,22,24,24,25,25,27,27,28,28,29,29,30,30,31,31,32,32,33,33,34,34,35,35,36,36,37,37,38,38,39,39,40,40,41,41,42,42,43,43,44,44],"right_children":[2,4,6,8,10,12,14,16,18,20,22,24,-1,26,28,30,32,34,36,38,40,42,44,-1,46,48,-1,50,52,54,56,58,60,62,64,66,68,70,72,74,76,78,80,82,84,-1,-1,-1,-1,-1,-1,-1,-1,-1,-1,-1,-1,-1,-1,-1,-1,-1,-1,-1,-1,-1,-1,-1,-1,-1,-1,-1,-1,-1,-1,-1,-1,-1,-1,-1,-1,-1,-1,-1,-1],"split_conditions":[1.258E1,2.93E0,1.757744E1,2.1142147E1,1.5E0,1.6327497E1,2.4993439E1,2.7744167E0,2.1534506E2,1E0,1.82E0,9.09E0,7.915223E-1,2.0808498E1,7.1702504E0,1.3104198E1,1.2061916E1,3.3121956E1,2.1933426E1,1.2845103E2,2.327489E2,3.5E0,1.8041082E1,8.242779E-2,4.0265E0,1.403E1,-1.9858184E-1,1.37E0,1.403E1,8E-1,8.4E0,1.906301E1,2.7E0,1.8969995E2,2.0104895E2,2.5188284E2,2.7E0,8.958911E1,2.1050673E2,7.25E0,3.9139998E0,5.95E0,1.82025E0,2.4390004E0,4.5E0,4.2559427E-1,7.5611115E-2,-6.870432E-2,1.990707E-1,6.762307E-2,3.2699233E-1,9.3659595E-2,-5.671753E-2,4.7794834E-2,3.9314196E-1,-3.0011632E-2,2.1134818E-1,-9.289524E-2,3.8863285E-3,-1.8738594E-2,1.5891458E-1,3.970408E-2,2.1299072E-1,-2.4764797E-1,-2.5527715E-3,2.2021429E-1,-1.8372636E-2,-6.2429056E-2,1.912638E-2,2.282633E-2,-2.3954225E-1,2.2077431E-1,2.5831504E-2,7.3290944E-1,-2.4130236E-1,1.4798309E-1,-1.2601936E-1,4.44389E-1,-1.5261856E-1,-3.834018E-1,1.16711415E-1,1.1874395E-1,-1.3709286E-1,-2.3030773E-2,2.0507376E-1],"split_indices":[0,0,5,5,4,5,5,3,6,4,1,1,0,5,3,5,3,5,5,6,6,4,3,0,3,2,0,1,0,4,4,5,0,6,6,6,2,6,6,1,3,0,3,3,0,0,0,0,0,0,0,0,0,0,0,0,0,0,0,0,0,0,0,0,0,0,0,0,0,0,0,0,0,0,0,0,0,0,0,0,0,0,0,0,0],"split_type":[0,0,0,0,0,0,0,0,0,0,0,0,0,0,0,0,0,0,0,0,0,0,0,0,0,0,0,0,0,0,0,0,0,0,0,0,0,0,0,0,0,0,0,0,0,0,0,0,0,0,0,0,0,0,0,0,0,0,0,0,0,0,0,0,0,0,0,0,0,0,0,0,0,0,0,0,0,0,0,0,0,0,0,0,0],"sum_hessian":[1.727E3,1.705E3,2.2E1,1.258E3,4.47E2,8E0,1.4E1,7.56E2,5.02E2,2.46E2,2.01E2,6E0,2E0,6E0,8E0,1.67E2,5.89E2,2.12E2,2.9E2,2.23E2,2.3E1,4E1,1.61E2,2E0,4E0,3E0,3E0,5E0,3E0,4.5E1,1.22E2,2.59E2,3.3E2,1.88E2,2.4E1,2.1E1,2.69E2,7.7E1,1.46E2,1.6E1,7E0,1.2E1,2.8E1,1.35E2,2.6E1,3E0,1E0,2E0,1E0,1E0,4E0,1E0,2E0,3.8E1,7E0,1.17E2,5E0,2E2,5.9E1,3.1E2,2E1,1.32E2,5.6E1,1.6E1,8E0,1.3E1,8E0,1.99E2,7E1,5.3E1,2.4E1,6E1,8.6E1,1.4E1,2E0,1E0,6E0,1.1E1,1E0,3E0,2.5E1,1.3E1,1.22E2,1.3E1,1.3E1],"tree_param":{"num_deleted":"0","num_feature":"7","num_nodes":"85","size_leaf_vector":"1"}},{"base_weights":[1.1316508E-2,2.70137E-3,6.49843E-1,-3.541134E-3,4.5964378E-1,1.3130966E0,2.0856789E-1,-3.6145133E-1,3.8316627E-3,1.8654877E-1,7.406066E-1,7.836703E-1,6.332179E-1,-2.1051137E-1,5.113442E-1,-2.1987227E-1,-7.940992E-1,3.1420372E-2,-9.210369E-2,-2.2865067E-1,4.7462976E-1,4.773074E-1,4.9646235E-1,6.59422E-2,9.65254E-1,1.4460814E-1,-1.5390092E-1,2.4971877E-1,8.802374E-2,8.332044E-2,-2.9256698E-1,-1.7378677E-2,-8.9099085E-1,1.9433808E-2,4.7117877E-1,-2.0807385E-1,-1.3379747E-3,2.5815168E-2,-1.0870122E-1,4.3402486E-2,5.6050223E-1,1.70729E-1,2.3641497E-1,3.2983553E-1,6.426945E-2,-5.496345E-2,1.6921006E-1,8.93859E-2,-4.5374025E-2,1.20012425E-1,-1.800961E-2,-1.07621595E-1,-1.6895864E-2,-2.9532987E-1,-4.955088E-2,-3.3039905E-2,1.6022254E-2,-1.0387018E-1,1.9761126E-1,1.4322011E-2,-1.18091576E-1,6.033561E-1,-6.2328596E-3,-2.799511E-4,1.1896778E-2,1.8259607E-1,4.7961835E-2,9.8931104E-2,-2.947073E-2],"categories":[],"categories_nodes":[],"categories_segments":[],"categories_sizes":[],"default_left":[0,0,0,0,0,0,0,0,0,0,0,0,0,0,0,0,0,0,0,0,0,0,0,0,0,0,0,0,0,0,0,0,0,0,0,0,0,0,0,0,0,0,0,0,0,0,0,0,0,0,0,0,0,0,0,0,0,0,0,0,0,0,0,0,0,0,0,0,0],"id":10,"left_children":[1,3,5,7,9,11,13,15,17,19,21,23,-1,25,27,29,31,33,35,37,39,-1,41,-1,43,45,-1,-1,47,49,51,-1,53,55,57,59,61,63,-1,-1,65,67,-1,-1,-1,-1,-1,-1,-1,-1,-1,-1,-1,-1,-1,-1,-1,-1,-1,-1,-1,-1,-1,-1,-1,-1,-1,-1,-1],"loss_changes":[9.503962E0,4.867933E0,6.4577074E0,4.4451227E0,1.6266203E0,2.1464615E0,2.0109527E0,1.908032E0,4.372649E0,1.6634682E0,1.493988E0,5.045481E-1,0E0,8.2612926E-1,1.149899E0,6.194707E-1,5.190153E-1,6.7537827E0,3.883858E0,2.1346602E-1,1.455816E-1,0E0,8.152549E-1,0E0,2.6839066E-1,6.533209E-1,0E0,0E0,2.9621375E-1,2.964317E-1,3.2371926E-1,0E0,3.1215715E-1,5.508213E0,5.4397764E0,7.708938E0,8.178726E0,1.1476572E-3,0E0,0E0,1.8437862E-2,2.8905433E-1,0E0,0E0,0E0,0E0,0E0,0E0,0E0,0E0,0E0,0E0,0E0,0E0,0E0,0E0,0E0,0E0,0E0,0E0,0E0,0E0,0E0,0E0,0E0,0E0,0E0,0E0,0E0],"parents":[2147483647,0,0,1,1,2,2,3,3,4,4,5,5,6,6,7,7,8,8,9,9,10,10,11,11,13,13,14,14,15,15,16,16,17,17,18,18,19,19,20,20,22,22,24,24,25,25,28,28,29,29,30,30,32,32,33,33,34,34,35,35,36,36,37,37,40,40,41,41],"right_children":[2,4,6,8,10,12,14,16,18,20,22,24,-1,26,28,30,32,34,36,38,40,-1,42,-1,44,46,-1,-1,48,50,52,-1,54,56,58,60,62,64,-1,-1,66,68,-1,-1,-1,-1,-1,-1,-1,-1,-1,-1,-1,-1,-1,-1,-1,-1,-1,-1,-1,-1,-1,-1,-1,-1,-1,-1,-1],"split_conditions":[1.258E1,2.1366083E1,1.757744E1,1.5556648E1,3.67E0,1.6327497E1,2.4993439E1,2.62E0,4.7E0,1E-1,8.628478E1,9.09E0,6.332179E-1,2.0808498E1,2.8460497E1,1.1159999E1,6.2E-1,4.1E0,8.3E0,2.63E0,7.753509E1,4.773074E-1,1.2620554E1,6.59422E-2,4.0265E0,1.403E1,-1.5390092E-1,2.4971877E-1,7.066084E0,6.2E-1,1.3897332E1,-1.7378677E-2,3.67E0,9.3E-1,8.5E-1,1.73E0,3.5E-1,2.52E0,-1.0870122E-1,4.3402486E-2,2.85E0,1E-1,2.3641497E-1,3.2983553E-1,6.426945E-2,-5.496345E-2,1.6921006E-1,8.93859E-2,-4.5374025E-2,1.20012425E-1,-1.800961E-2,-1.07621595E-1,-1.6895864E-2,-2.9532987E-1,-4.955088E-2,-3.3039905E-2,1.6022254E-2,-1.0387018E-1,1.9761126E-1,1.4322011E-2,-1.18091576E-1,6.033561E-1,-6.2328596E-3,-2.799511E-4,1.1896778E-2,1.8259607E-1,4.7961835E-2,9.8931104E-2,-2.947073E-2],"split_indices":[0,3,5,6,0,5,5,0,4,4,6,1,0,5,5,5,2,4,4,1,6,0,5,0,3,2,0,0,3,0,3,0,1,0,2,2,2,0,0,0,1,4,0,0,0,0,0,0,0,0,0,0,0,0,0,0,0,0,0,0,0,0,0,0,0,0,0,0,0],"split_type":[0,0,0,0,0,0,0,0,0,0,0,0,0,0,0,0,0,0,0,0,0,0,0,0,0,0,0,0,0,0,0,0,0,0,0,0,0,0,0,0,0,0,0,0,0,0,0,0,0,0,0,0,0,0,0,0,0,0,0,0,0,0,0,0,0,0,0,0,0],"sum_hessian":[1.727E3,1.705E3,2.2E1,1.683E3,2.2E1,8E0,1.4E1,3.3E1,1.65E3,1.2E1,1E1,6E0,2E0,6E0,8E0,2.6E1,7E0,1.282E3,3.68E2,5E0,7E0,1E0,9E0,2E0,4E0,3E0,3E0,4E0,4E0,5E0,2.1E1,1E0,6E0,1.249E3,3.3E1,1.61E2,2.07E2,2E0,3E0,2E0,5E0,5E0,4E0,3E0,1E0,2E0,1E0,2E0,2E0,1E0,4E0,1.6E1,5E0,5E0,1E0,2.59E2,9.9E2,6E0,2.7E1,6.8E1,9.3E1,1E0,2.06E2,1E0,1E0,4E0,1E0,3E0,2E0],"tree_param":{"num_deleted":"0","num_feature":"7","num_nodes":"69","size_leaf_vector":"1"}},{"base_weights":[9.36412E-3,-8.8068E-3,2.3279439E-1,4.0806127E-3,-2.4727368E-1,6.2888116E-1,1.3249867E-1,1.6291909E-2,-2.045776E-1,-3.061085E-1,3.3521193E-1,1.0260671E0,3.165107E-1,-1.1720788E0,1.8235956E-1,-6.361945E-2,5.7028726E-2,1.2132473E-1,-3.7862292E-1,-3.781992E-1,3.501519E-2,1.12204336E-1,2.0084697E-1,3.959072E-1,1.485216E0,1.2430831E-1,7.1449435E-1,-5.1791346E-1,7.362285E-2,-2.5033522E-1,2.4337505E-1,-2.6678817E-2,-3.7070817E-1,2.8169602E-1,8.812992E-3,-4.6249586E-1,5.9498143E-1,-9.502177E-1,-1.7907648E-1,-4.7261545E-1,-5.085389E-2,-2.6183182E-1,3.6321947E-1,1.5273006E-1,-1.3563645E-2,1.1958748E-1,1.8970935E-1,4.9047986E-1,1.1049486E-1,-1.14076525E-1,2.6324648E-1,4.096184E-2,2.4745446E-1,4.9863404E-1,3.0879293E-2,-9.2681946E-4,-1.7150548E-1,-3.446818E-2,-2.9821712E-1,1.7872688E-3,2.2958124E-1,-7.5558566E-2,9.70017E-3,2.4793541E-1,-2.238574E-1,-1.9965392E-2,4.6486068E-1,-3.3974266E-1,-6.343629E-2,-1.3724774E-1,-2.237035E-3,1.2805977E-1,-1.563009E-1,-1.4727682E-1,6.5481834E-2,-1.24136634E-1,1.0099698E-2,-5.313993E-4,5.7539474E-2,5.226579E-2,-6.646192E-3,1.6460109E-1,3.699203E-2,7.574473E-2,3.9309037E-1,2.9416054E-1,-4.667827E-2],"categories":[],"categories_nodes":[],"categories_segments":[],"categories_sizes":[],"default_left":[0,0,0,0,0,0,0,0,0,0,0,0,0,0,0,0,0,0,0,0,0,0,0,0,0,0,0,0,0,0,0,0,0,0,0,0,0,0,0,0,0,0,0,0,0,0,0,0,0,0,0,0,0,0,0,0,0,0,0,0,0,0,0,0,0,0,0,0,0,0,0,0,0,0,0,0,0,0,0,0,0,0,0,0,0,0,0],"id":11,"left_children":[1,3,5,7,9,11,13,15,17,19,21,23,25,27,29,31,33,35,37,39,41,43,-1,45,47,49,51,-1,-1,-1,53,55,57,59,61,63,65,67,69,71,73,75,-1,77,-1,79,-1,-1,-1,-1,81,-1,-1,83,85,-1,-1,-1,-1,-1,-1,-1,-1,-1,-1,-1,-1,-1,-1,-1,-1,-1,-1,-1,-1,-1,-1,-1,-1,-1,-1,-1,-1,-1,-1,-1,-1],"loss_changes":[7.0176153E0,4.9150887E0,5.0810294E0,3.871177E0,2.912787E0,2.9010372E0,7.0437174E0,4.675033E0,4.8105655E0,1.8576312E0,5.212524E-1,2.5947018E0,1.1350771E0,3.5665207E0,6.531283E0,5.491974E0,1.0299225E1,8.571093E0,6.103122E0,1.8921824E0,5.2031183E0,4.518176E-2,0E0,3.1640393E-1,4.011402E-1,9.413382E-1,2.0627332E-1,0E0,0E0,0E0,5.2460237E0,5.577902E0,8.177786E0,2.2396591E1,4.8150897E0,5.7360506E0,1.0838091E1,1.6455698E0,2.0034184E0,2.3115377E0,1.8836688E0,5.527652E-1,0E0,3.052017E-2,0E0,3.483402E-2,0E0,0E0,0E0,0E0,3.3176655E-1,0E0,0E0,8.460072E0,9.715191E0,0E0,0E0,0E0,0E0,0E0,0E0,0E0,0E0,0E0,0E0,0E0,0E0,0E0,0E0,0E0,0E0,0E0,0E0,0E0,0E0,0E0,0E0,0E0,0E0,0E0,0E0,0E0,0E0,0E0,0E0,0E0,0E0],"parents":[2147483647,0,0,1,1,2,2,3,3,4,4,5,5,6,6,7,7,8,8,9,9,10,10,11,11,12,12,13,13,14,14,15,15,16,16,17,17,18,18,19,19,20,20,21,21,23,23,24,24,25,25,26,26,30,30,31,31,32,32,33,33,34,34,35,35,36,36,37,37,38,38,39,39,40,40,41,41,43,43,45,45,50,50,53,53,54,54],"right_children":[2,4,6,8,10,12,14,16,18,20,22,24,26,28,30,32,34,36,38,40,42,44,-1,46,48,50,52,-1,-1,-1,54,56,58,60,62,64,66,68,70,72,74,76,-1,78,-1,80,-1,-1,-1,-1,82,-1,-1,84,86,-1,-1,-1,-1,-1,-1,-1,-1,-1,-1,-1,-1,-1,-1,-1,-1,-1,-1,-1,-1,-1,-1,-1,-1,-1,-1,-1,-1,-1,-1,-1,-1],"split_conditions":[6.18E0,1.3500001E1,1.57908325E1,5.8E0,1.6759834E1,4.15E0,1.5990646E1,1.5825063E2,1.7102966E2,2.4100002E1,3E0,1.84E0,2.1050673E2,8.23E0,1.23275E0,1.406713E2,1.938816E2,3.3848333E0,2.2412659E2,3.23E0,2.27E0,3.77E0,2.0084697E-1,3.6E0,9.83E0,1.0383987E1,5.3E0,-5.1791346E-1,7.362285E-2,-2.5033522E-1,1.8266158E2,6.59E0,2.82E0,2.29E0,2.4390004E0,2.19E0,1.2446089E2,1.0900002E1,7.46E0,1.3577499E0,1.9446078E2,2.1153781E2,3.6321947E-1,8.3E-1,-1.3563645E-2,7.13E0,1.8970935E-1,4.9047986E-1,1.1049486E-1,-1.14076525E-1,6.91E0,4.096184E-2,2.4745446E-1,1.0820249E1,4.7139997E0,-9.2681946E-4,-1.7150548E-1,-3.446818E-2,-2.9821712E-1,1.7872688E-3,2.2958124E-1,-7.5558566E-2,9.70017E-3,2.4793541E-1,-2.238574E-1,-1.9965392E-2,4.6486068E-1,-3.3974266E-1,-6.343629E-2,-1.3724774E-1,-2.237035E-3,1.2805977E-1,-1.563009E-1,-1.4727682E-1,6.5481834E-2,-1.24136634E-1,1.0099698E-2,-5.313993E-4,5.7539474E-2,5.226579E-2,-6.646192E-3,1.6460109E-1,3.699203E-2,7.574473E-2,3.9309037E-1,2.9416054E-1,-4.667827E-2],"split_indices":[0,4,5,1,3,1,5,6,6,4,2,2,6,1,3,6,6,3,6,1,0,0,0,1,0,5,1,0,0,0,6,2,1,0,3,2,6,4,1,3,6,6,0,0,0,0,0,0,0,0,0,0,0,3,3,0,0,0,0,0,0,0,0,0,0,0,0,0,0,0,0,0,0,0,0,0,0,0,0,0,0,0,0,0,0,0,0],"split_type":[0,0,0,0,0,0,0,0,0,0,0,0,0,0,0,0,0,0,0,0,0,0,0,0,0,0,0,0,0,0,0,0,0,0,0,0,0,0,0,0,0,0,0,0,0,0,0,0,0,0,0,0,0,0,0,0,0,0,0,0,0,0,0,0,0,0,0,0,0,0,0,0,0,0,0,0,0,0,0,0,0,0,0,0,0,0,0],"sum_hessian":[1.727E3,1.598E3,1.29E2,1.517E3,8.1E1,2.5E1,1.04E2,1.434E3,8.3E1,7.4E1,7E0,1E1,1.5E1,3E0,1.01E2,4.84E2,9.5E2,2.9E1,5.4E1,6.1E1,1.3E1,5E0,2E0,5E0,5E0,1.1E1,4E0,2E0,1E0,5E0,9.6E1,4.33E2,5.1E1,1.67E2,7.83E2,1.3E1,1.6E1,1.3E1,4.1E1,4.7E1,1.4E1,1.1E1,2E0,4E0,1E0,3E0,2E0,4E0,1E0,2E0,9E0,1E0,3E0,4.3E1,5.3E1,4.16E2,1.7E1,3.7E1,1.4E1,1.07E2,6E1,6.4E1,7.19E2,2E0,1.1E1,1E1,6E0,1E1,3E0,1.5E1,2.6E1,2E0,4.5E1,5E0,9E0,7E0,4E0,1E0,3E0,2E0,1E0,2E0,7E0,3.4E1,9E0,8E0,4.5E1],"tree_param":{"num_deleted":"0","num_feature":"7","num_nodes":"87","size_leaf_vector":"1"}},{"base_weights":[7.251695E-3,-3.0257838E-4,3.6231095E-1,5.4177057E-2,-3.586021E-2,6.716837E-1,8.1228495E-2,-1.2496925E-1,1.2707664E-1,-4.429084E-2,3.3334768E-1,1.3803928E0,2.6135558E-1,-1.948429E-1,4.4029832E-1,3.8709387E-2,-3.225675E-1,2.8875372E-1,-5.7645567E-2,-5.9127957E-2,1.0327157E-1,5.009178E-1,-4.346107E-2,2.1597862E-2,4.883023E-1,4.743731E-1,-1.3174358E-1,1.01757966E-1,-3.3556944E-1,7.5609136E-1,3.6445595E-2,2.567619E-1,-1.8005997E-1,-1.4475249E-1,-6.2922025E-1,5.2949816E-1,6.2236123E-2,-1.3217172E-1,1.4702001E-1,-2.3773987E-2,-1.779321E-1,4.6996152E-1,-1.6347252E-1,4.058503E-1,3.5393444E-1,6.54264E-2,-1.0785965E-1,-5.222011E-2,5.918741E-1,-1.1090144E-1,1.500988E-1,1.6469909E-2,-3.8505486E-1,2.992859E-1,7.875979E-2,-1.0205146E-1,1.6279411E-1,-1.4033759E-1,1.12388164E-1,-7.156851E-2,4.3807986E-1,-5.3661957E-2,1.5871334E-1,-1.3409792E-1,-3.1357384E-1,4.0953353E-2,2.8195783E-1,-9.326354E-3,4.0233538E-1,-2.7456624E-2,-1.5895703E-1,-3.388525E-2,1.2864444E-1,-9.284175E-3,2.44762E-1,-1.0966211E-1,2.3739012E-2,-1.0676517E-1,1.8056297E-1,-2.1576478E-1,4.0313218E-2,3.9655425E-2,1.7654376E-1,1.4273644E-2,2.0239808E-1,-6.8966392E-3,7.4441105E-2,-1.5418936E-1,-2.8627995E-2,-9.46371E-3,-3.6459446E-2,1.0878182E-2,6.237917E-2],"categories":[],"categories_nodes":[],"categories_segments":[],"categories_sizes":[],"default_left":[0,0,0,0,0,0,0,0,0,0,0,0,0,0,0,0,0,0,0,0,0,0,0,0,0,0,0,0,0,0,0,0,0,0,0,0,0,0,0,0,0,0,0,0,0,0,0,0,0,0,0,0,0,0,0,0,0,0,0,0,0,0,0,0,0,0,0,0,0,0,0,0,0,0,0,0,0,0,0,0,0,0,0,0,0,0,0,0,0,0,0,0,0],"id":12,"left_children":[1,3,5,7,9,11,13,15,17,19,21,23,25,27,29,31,33,35,37,39,41,43,45,-1,-1,47,49,-1,51,53,55,57,59,61,63,65,67,69,71,73,75,77,79,-1,81,-1,-1,-1,83,-1,85,-1,87,-1,-1,89,91,-1,-1,-1,-1,-1,-1,-1,-1,-1,-1,-1,-1,-1,-1,-1,-1,-1,-1,-1,-1,-1,-1,-1,-1,-1,-1,-1,-1,-1,-1,-1,-1,-1,-1,-1,-1],"loss_changes":[4.634976E0,3.2815661E0,3.075974E0,8.752815E0,3.2052352E0,4.5828834E0,2.068367E0,6.286953E0,1.4232552E1,2.202075E0,1.4740341E0,1.8240767E0,1.0673397E0,1.0156595E0,1.1202488E0,5.1504755E0,4.7073355E0,1.3818392E1,3.4208374E0,3.8263502E0,9.075564E0,1.5246663E0,7.397545E-1,0E0,0E0,7.125648E-1,3.90778E-1,0E0,2.1436477E-1,3.341341E-1,1.0410787E-1,4.786834E0,5.530308E0,1.4050859E0,1.9587412E0,1.9707489E1,1.5795935E1,2.60269E0,4.44394E0,4.2654476E0,1.0108364E1,4.4629145E0,9.035165E0,0E0,7.023654E-1,0E0,0E0,0E0,2.833209E-1,0E0,5.6611963E-2,0E0,2.8697693E-1,0E0,0E0,2.865661E-4,9.594128E-3,0E0,0E0,0E0,0E0,0E0,0E0,0E0,0E0,0E0,0E0,0E0,0E0,0E0,0E0,0E0,0E0,0E0,0E0,0E0,0E0,0E0,0E0,0E0,0E0,0E0,0E0,0E0,0E0,0E0,0E0,0E0,0E0,0E0,0E0,0E0,0E0],"parents":[2147483647,0,0,1,1,2,2,3,3,4,4,5,5,6,6,7,7,8,8,9,9,10,10,11,11,12,12,13,13,14,14,15,15,16,16,17,17,18,18,19,19,20,20,21,21,22,22,25,25,26,26,28,28,29,29,30,30,31,31,32,32,33,33,34,34,35,35,36,36,37,37,38,38,39,39,40,40,41,41,42,42,44,44,48,48,50,50,52,52,55,55,56,56],"right_children":[2,4,6,8,10,12,14,16,18,20,22,24,26,28,30,32,34,36,38,40,42,44,46,-1,-1,48,50,-1,52,54,56,58,60,62,64,66,68,70,72,74,76,78,80,-1,82,-1,-1,-1,84,-1,86,-1,88,-1,-1,90,92,-1,-1,-1,-1,-1,-1,-1,-1,-1,-1,-1,-1,-1,-1,-1,-1,-1,-1,-1,-1,-1,-1,-1,-1,-1,-1,-1,-1,-1,-1,-1,-1,-1,-1,-1,-1],"split_conditions":[1.091E1,6.63275E0,5E-1,1.043277E2,2.1366083E1,8.02E0,7.13E0,1.692383E1,2.2620972E2,4.5E0,1.57908325E1,1.12E0,2.0808498E1,2.31E0,8.57E0,2.994167E-1,1.71E0,2.12E0,2.9548521E1,2.5E0,3.3E0,1.43E0,1.22371765E2,2.1597862E-2,4.883023E-1,7.620057E1,6.1515007E0,1.01757966E-1,-1.7141664E-1,1.53E1,4.2E0,1.753788E1,5.970249E0,9.864268E1,7.1707756E1,2.1142147E1,6.3994164E0,4.3E0,2.2E0,2.47E0,2.2514067E2,7.753509E1,4.58E0,4.058503E-1,1.349999E2,6.54264E-2,-1.0785965E-1,-5.222011E-2,8.57E0,-1.1090144E-1,1.258E1,1.6469909E-2,2.5562534E1,2.992859E-1,7.875979E-2,1.258E1,1.23E1,-1.4033759E-1,1.12388164E-1,-7.156851E-2,4.3807986E-1,-5.3661957E-2,1.5871334E-1,-1.3409792E-1,-3.1357384E-1,4.0953353E-2,2.8195783E-1,-9.326354E-3,4.0233538E-1,-2.7456624E-2,-1.5895703E-1,-3.388525E-2,1.2864444E-1,-9.284175E-3,2.44762E-1,-1.0966211E-1,2.3739012E-2,-1.0676517E-1,1.8056297E-1,-2.1576478E-1,4.0313218E-2,3.9655425E-2,1.7654376E-1,1.4273644E-2,2.0239808E-1,-6.8966392E-3,7.4441105E-2,-1.5418936E-1,-2.8627995E-2,-9.46371E-3,-3.6459446E-2,1.0878182E-2,6.237917E-2],"split_indices":[0,3,4,6,3,1,2,5,6,0,5,2,5,1,2,3,0,2,5,0,1,2,6,0,0,6,3,0,3,0,4,6,3,6,6,5,3,0,2,0,6,6,1,0,6,0,0,0,1,0,0,0,5,0,0,0,0,0,0,0,0,0,0,0,0,0,0,0,0,0,0,0,0,0,0,0,0,0,0,0,0,0,0,0,0,0,0,0,0,0,0,0,0],"split_type":[0,0,0,0,0,0,0,0,0,0,0,0,0,0,0,0,0,0,0,0,0,0,0,0,0,0,0,0,0,0,0,0,0,0,0,0,0,0,0,0,0,0,0,0,0,0,0,0,0,0,0,0,0,0,0,0,0,0,0,0,0,0,0,0,0,0,0,0,0,0,0,0,0,0,0,0,0,0,0,0,0,0,0,0,0,0,0,0,0,0,0,0,0],"sum_hessian":[1.727E3,1.692E3,3.5E1,6.68E2,1.024E3,1.6E1,1.9E1,1.93E2,4.75E2,1.002E3,2.2E1,5E0,1.1E1,1.1E1,8E0,1.06E2,8.7E1,2.53E2,2.22E2,9.11E2,9.1E1,1.5E1,7E0,1E0,4E0,7E0,4E0,2E0,9E0,4E0,4E0,5.3E1,5.3E1,5.6E1,3.1E1,1.22E2,1.31E2,1.63E2,5.9E1,7.03E2,2.08E2,3.8E1,5.3E1,1E0,1.4E1,4E0,3E0,1E0,6E0,2E0,2E0,1E0,8E0,2E0,2E0,2E0,2E0,7E0,4.6E1,5.2E1,1E0,5.4E1,2E0,2.3E1,8E0,6.3E1,5.9E1,1.23E2,8E0,1.49E2,1.4E1,3.1E1,2.8E1,6.98E2,5E0,1.2E2,8.8E1,5E0,3.3E1,1.8E1,3.5E1,8E0,6E0,1E0,5E0,1E0,1E0,5E0,3E0,1E0,1E0,1E0,1E0],"tree_param":{"num_deleted":"0","num_feature":"7","num_nodes":"93","size_leaf_vector":"1"}},{"base_weights":[6.360627E-3,-2.706004E-2,7.7610195E-2,2.3261392E-3,-2.345907E-1,2.9308614E-1,1.7714765E-2,-1.34817185E-2,3.7526092E-1,-6.1412364E-1,-5.3864297E-2,7.204882E-2,8.500614E-1,-2.5656283E-2,2.2846965E-1,5.7920283E-3,-2.523982E-1,-2.0417939E-1,7.0473444E-1,-1.3422932E-2,-8.434085E-1,-1.8823262E-1,3.3580834E-1,5.702402E-1,-9.5106624E-2,1.195784E0,-2.4314387E-1,5.633385E-3,-3.9686352E-1,6.8670475E-1,7.97556E-2,1.3602285E-1,-4.0248018E-2,-5.2856326E-1,-1.2539443E-1,3.4466693E-1,-5.679539E-1,1.51747E0,-1.5833932E-1,-2.6059178E-1,3.5956746E-1,-2.1296488E-1,-1.0292002E0,-4.761041E-1,-4.3428294E-2,5.951911E-1,-3.2220182E-1,2.3073134E-1,5.035272E-1,3.85485E-2,-5.1518816E-1,1.8710315E0,2.5207585E-1,-3.83045E-1,4.566729E-2,6.279526E-2,-1.7894776E-1,-4.9506667E-1,3.1612194E-1,-1.9609848E-1,1.4125572E0,5.583496E-1,-1.20631084E-1,1.0942262E-2,8.061157E-1,5.5363853E-3,-4.4310547E-2,-1.978792E-1,-1.4210152E-2,1.7276677E-1,-6.367562E-2,-2.5556164E-2,2.065063E-1,-2.759495E-1,5.6946233E-2,7.2615314E-1,1.6128783E-1,-1.4709765E-1,1.0980894E-1,4.0023066E-2,-9.7955495E-2,1.6411038E-1,-8.666519E-2,2.9222568E-2,-1.4422362E-1,-4.163619E-1,-9.496103E-2,-3.6644645E-2,-3.2753578E-1,1.0426434E-1,-9.206466E-2,2.4943897E-1,-6.9799036E-2,-1.8689618E-1,1.16030894E-1,1.6435447E-1,-7.024373E-2,-1.1220921E-2,2.8209907E-1,-6.425257E-2,-2.9435417E-1,-1.5044809E-4,6.476995E-1,1.0993595E-2,2.6584572E-1,-6.1049763E-2,1.0371258E-1,5.6853507E-2,-3.0205961E-2,-6.398503E-2,1.1156293E-1,7.6054245E-2,-1.8260077E-1,-6.0411826E-2,1.6672333E-1,-1.0610583E-1,2.679226E-2,6.3771075E-1,8.22815E-2,2.3468144E-1,-4.065513E-2,-1.0772872E-1,1.8973108E-2],"categories":[],"categories_nodes":[],"categories_segments":[],"categories_sizes":[],"default_left":[0,0,0,0,0,0,0,0,0,0,0,0,0,0,0,0,0,0,0,0,0,0,0,0,0,0,0,0,0,0,0,0,0,0,0,0,0,0,0,0,0,0,0,0,0,0,0,0,0,0,0,0,0,0,0,0,0,0,0,0,0,0,0,0,0,0,0,0,0,0,0,0,0,0,0,0,0,0,0,0,0,0,0,0,0,0,0,0,0,0,0,0,0,0,0,0,0,0,0,0,0,0,0,0,0,0,0,0,0,0,0,0,0,0,0,0,0,0,0,0,0,0,0],"id":13,"left_children":[1,3,5,7,9,11,13,15,17,19,21,23,25,27,29,31,33,35,37,39,41,43,45,47,49,51,53,55,57,59,61,63,65,67,69,71,73,75,77,79,81,83,85,87,89,91,93,95,-1,97,99,101,103,-1,105,107,109,111,113,115,117,119,121,-1,-1,-1,-1,-1,-1,-1,-1,-1,-1,-1,-1,-1,-1,-1,-1,-1,-1,-1,-1,-1,-1,-1,-1,-1,-1,-1,-1,-1,-1,-1,-1,-1,-1,-1,-1,-1,-1,-1,-1,-1,-1,-1,-1,-1,-1,-1,-1,-1,-1,-1,-1,-1,-1,-1,-1,-1,-1,-1,-1],"loss_changes":[4.116828E0,7.178518E0,7.1189337E0,6.089009E0,9.981299E0,1.4712233E1,3.9637675E0,4.564834E0,8.162121E0,6.462063E0,5.2991753E0,7.2991934E0,1.3140903E1,4.183618E0,4.988036E0,5.5096493E0,2.5291963E0,3.3902555E0,1.9179447E1,1.3843827E0,3.7632751E0,3.1057012E0,4.62936E0,7.889976E0,3.7254987E0,1.6096512E1,2.745135E0,3.5247214E0,2.1169887E0,1.1811131E1,5.533875E0,6.085036E1,4.2857366E0,1.4189777E0,3.2896483E0,1.0927871E0,2.8410435E0,1.1086407E1,2.6166394E0,2.773375E-1,8.874094E-1,7.9483616E-1,6.206627E0,5.314736E0,5.359869E0,3.9098306E0,1.9469388E0,2.7818427E0,0E0,3.5282497E0,2.034171E0,8.085167E0,1.60672E0,0E0,6.684333E-1,5.3016176E0,1.5734344E0,2.2803235E0,6.079252E-1,4.3637478E-1,7.534607E0,2.747333E0,1.8204637E0,0E0,0E0,0E0,0E0,0E0,0E0,0E0,0E0,0E0,0E0,0E0,0E0,0E0,0E0,0E0,0E0,0E0,0E0,0E0,0E0,0E0,0E0,0E0,0E0,0E0,0E0,0E0,0E0,0E0,0E0,0E0,0E0,0E0,0E0,0E0,0E0,0E0,0E0,0E0,0E0,0E0,0E0,0E0,0E0,0E0,0E0,0E0,0E0,0E0,0E0,0E0,0E0,0E0,0E0,0E0,0E0,0E0,0E0,0E0,0E0],"parents":[2147483647,0,0,1,1,2,2,3,3,4,4,5,5,6,6,7,7,8,8,9,9,10,10,11,11,12,12,13,13,14,14,15,15,16,16,17,17,18,18,19,19,20,20,21,21,22,22,23,23,24,24,25,25,26,26,27,27,28,28,29,29,30,30,31,31,32,32,33,33,34,34,35,35,36,36,37,37,38,38,39,39,40,40,41,41,42,42,43,43,44,44,45,45,46,46,47,47,49,49,50,50,51,51,52,52,54,54,55,55,56,56,57,57,58,58,59,59,60,60,61,61,62,62],"right_children":[2,4,6,8,10,12,14,16,18,20,22,24,26,28,30,32,34,36,38,40,42,44,46,48,50,52,54,56,58,60,62,64,66,68,70,72,74,76,78,80,82,84,86,88,90,92,94,96,-1,98,100,102,104,-1,106,108,110,112,114,116,118,120,122,-1,-1,-1,-1,-1,-1,-1,-1,-1,-1,-1,-1,-1,-1,-1,-1,-1,-1,-1,-1,-1,-1,-1,-1,-1,-1,-1,-1,-1,-1,-1,-1,-1,-1,-1,-1,-1,-1,-1,-1,-1,-1,-1,-1,-1,-1,-1,-1,-1,-1,-1,-1,-1,-1,-1,-1,-1,-1,-1,-1],"split_conditions":[2.65E0,2.19E0,3.1E0,4.29E0,4.239E0,3.1E0,2.7169865E1,3.2489876E1,1.9694992E1,1.25E0,3.2E0,1.43E0,2.138897E1,2.494413E1,2.8460497E1,4.74525E0,5.0098333E0,3.806667E-1,2.6168804E1,2.3586076E2,6.2358345E1,1.7792874E2,2.515376E2,2.6E0,2.7999997E0,1.22515E1,3.14E0,2.4364816E2,1.23E1,1.45E0,9E-1,4.52025E0,1.7E0,2.31E0,5.57025E0,5.95E0,1.6087273E2,2.0644226E2,1.0286916E1,1E-1,3.3848333E0,1.98E0,2.2897649E2,2.21E0,1.944E1,8.57E0,1.53098345E1,1.906301E1,5.035272E-1,2.3000002E0,2.91E0,3.833336E1,1.7015474E1,-3.83045E-1,2.8E0,1.2000002E0,9.27E0,3.33E0,4.874417E0,1.0195251E1,2.73E0,2.878859E2,3.1581665E1,1.0942262E-2,8.061157E-1,5.5363853E-3,-4.4310547E-2,-1.978792E-1,-1.4210152E-2,1.7276677E-1,-6.367562E-2,-2.5556164E-2,2.065063E-1,-2.759495E-1,5.6946233E-2,7.2615314E-1,1.6128783E-1,-1.4709765E-1,1.0980894E-1,4.0023066E-2,-9.7955495E-2,1.6411038E-1,-8.666519E-2,2.9222568E-2,-1.4422362E-1,-4.163619E-1,-9.496103E-2,-3.6644645E-2,-3.2753578E-1,1.0426434E-1,-9.206466E-2,2.4943897E-1,-6.9799036E-2,-1.8689618E-1,1.16030894E-1,1.6435447E-1,-7.024373E-2,-1.1220921E-2,2.8209907E-1,-6.425257E-2,-2.9435417E-1,-1.5044809E-4,6.476995E-1,1.0993595E-2,2.6584572E-1,-6.1049763E-2,1.0371258E-1,5.6853507E-2,-3.0205961E-2,-6.398503E-2,1.1156293E-1,7.6054245E-2,-1.8260077E-1,-6.0411826E-2,1.6672333E-1,-1.0610583E-1,2.679226E-2,6.3771075E-1,8.22815E-2,2.3468144E-1,-4.065513E-2,-1.0772872E-1,1.8973108E-2],"split_indices":[2,2,2,1,3,0,5,5,5,0,0,1,5,5,5,3,3,3,5,6,6,6,6,4,4,3,0,6,2,0,4,3,1,1,3,1,6,6,3,4,3,1,6,0,5,0,3,5,0,4,2,6,5,0,1,4,2,2,3,3,0,6,5,0,0,0,0,0,0,0,0,0,0,0,0,0,0,0,0,0,0,0,0,0,0,0,0,0,0,0,0,0,0,0,0,0,0,0,0,0,0,0,0,0,0,0,0,0,0,0,0,0,0,0,0,0,0,0,0,0,0,0,0],"split_type":[0,0,0,0,0,0,0,0,0,0,0,0,0,0,0,0,0,0,0,0,0,0,0,0,0,0,0,0,0,0,0,0,0,0,0,0,0,0,0,0,0,0,0,0,0,0,0,0,0,0,0,0,0,0,0,0,0,0,0,0,0,0,0,0,0,0,0,0,0,0,0,0,0,0,0,0,0,0,0,0,0,0,0,0,0,0,0,0,0,0,0,0,0,0,0,0,0,0,0,0,0,0,0,0,0,0,0,0,0,0,0,0,0,0,0,0,0,0,0,0,0,0,0],"sum_hessian":[1.727E3,1.176E3,5.51E2,1.031E3,1.45E2,1.19E2,4.32E2,9.9E2,4.1E1,4.6E1,9.9E1,8.6E1,3.3E1,3.59E2,7.3E1,9.17E2,7.3E1,1.5E1,2.6E1,1.3E1,3.3E1,7.4E1,2.5E1,2.1E1,6.5E1,2.5E1,8E0,3.32E2,2.7E1,1.7E1,5.6E1,2.39E2,6.78E2,2.2E1,5.1E1,6E0,9E0,1.3E1,1.3E1,8E0,5E0,8E0,2.5E1,2.4E1,5E1,1.8E1,7E0,1.7E1,4E0,5E1,1.5E1,1.4E1,1.1E1,1E0,7E0,2.54E2,7.8E1,2.4E1,3E0,8E0,9E0,1.6E1,4E1,2.31E2,8E0,4.39E2,2.39E2,1.7E1,5E0,5E0,4.6E1,3E0,3E0,6E0,3E0,6E0,7E0,8E0,5E0,1E0,7E0,4E0,1E0,4E0,4E0,1.6E1,9E0,1.6E1,8E0,2E1,3E1,1.4E1,4E0,5E0,2E0,1E1,7E0,4.7E1,3E0,1E1,5E0,2E0,1.2E1,9E0,2E0,4E0,3E0,1.43E2,1.11E2,7.4E1,4E0,3E0,2.1E1,1E0,2E0,5E0,3E0,5E0,4E0,1.2E1,4E0,1.7E1,2.3E1],"tree_param":{"num_deleted":"0","num_feature":"7","num_nodes":"123","size_leaf_vector":"1"}},{"base_weights":[5.928845E-3,-8.637557E-2,2.2335878E-2,4.601333E-2,-2.3528355E-1,-1.7948273E-1,3.2418057E-2,-8.749823E-2,3.0921677E-1,-4.0462685E-1,-7.28479E-2,-2.9120877E-1,4.4624865E-1,6.5722704E-2,-4.6980016E-2,-1.6481751E-1,2.2231461E-1,1.534029E-2,6.152035E-1,-2.8934756E-1,-9.520886E-1,8.275834E-2,-2.4116288E-1,-4.9748573E-2,-4.5080033E-1,7.998419E-2,6.16334E-1,1.7498586E-1,1.2717502E-2,3.7639134E-2,-1.3015975E-1,-3.2025957E-1,2.198084E-2,7.779332E-1,-4.8147637E-1,1.8178268E-1,-5.420244E-1,9.002125E-1,7.1832575E-2,-3.537249E-1,2.5243667E-1,-1.080921E0,3.111055E-2,-1.4445707E-3,2.8600097E-1,-4.1750324E-1,7.283463E-2,9.090003E-2,-5.1028585E-1,-3.1762952E-1,-7.6528156E-1,-2.927709E-2,1.5950036E-1,1.0285888E-1,6.533834E-1,1.3870606E-1,-4.5331433E-2,-1.601076E-1,1.1436176E-1,-1.6883963E-1,1.7503263E-1,-5.870262E-2,-2.4291296E-1,5.2843925E-2,-5.85949E-2,3.3741897E-1,4.1049365E-2,-2.2218949E-1,8.287646E-3,-5.722299E-2,1.511751E-1,4.317023E-2,-2.1239688E-1,1.7298396E-1,4.9378726E-1,-3.05466E-2,9.430689E-2,-1.347452E-1,-2.308208E-2,-5.3182844E-2,1.1215034E-1,-4.0506762E-1,-1.2202031E-1,2.614193E-2,-1.9299597E-1,-1.7718212E-1,-2.5206514E-2,-4.129949E-2,2.2506653E-1,-2.6919061E-2,1.3175245E-1,-2.1299799E-1,-2.2174217E-2,-6.573258E-2,-1.70345E-1,-2.4705794E-1,-3.616165E-2,1.0580491E-2,-8.1846036E-2,5.562004E-1,2.699501E-2,4.992654E-1,-9.803111E-3,2.5608553E-2,5.814548E-1,-3.7502207E-2,4.5987625E-2,-7.410058E-2,1.4013953E-2,6.0689185E-2,-1.4620374E-2,-8.535288E-2,-3.5047214E-2,1.1362397E-1,-1.8073048E-2],"categories":[],"categories_nodes":[],"categories_segments":[],"categories_sizes":[],"default_left":[0,0,0,0,0,0,0,0,0,0,0,0,0,0,0,0,0,0,0,0,0,0,0,0,0,0,0,0,0,0,0,0,0,0,0,0,0,0,0,0,0,0,0,0,0,0,0,0,0,0,0,0,0,0,0,0,0,0,0,0,0,0,0,0,0,0,0,0,0,0,0,0,0,0,0,0,0,0,0,0,0,0,0,0,0,0,0,0,0,0,0,0,0,0,0,0,0,0,0,0,0,0,0,0,0,0,0,0,0,0,0,0,0,0,0],"id":14,"left_children":[1,3,5,7,9,11,13,15,17,19,21,23,25,27,29,31,33,35,37,39,41,43,45,47,49,51,-1,53,55,57,59,61,63,65,67,69,71,73,75,77,79,81,-1,83,-1,85,87,89,91,93,95,97,-1,99,101,103,105,107,109,111,113,-1,-1,-1,-1,-1,-1,-1,-1,-1,-1,-1,-1,-1,-1,-1,-1,-1,-1,-1,-1,-1,-1,-1,-1,-1,-1,-1,-1,-1,-1,-1,-1,-1,-1,-1,-1,-1,-1,-1,-1,-1,-1,-1,-1,-1,-1,-1,-1,-1,-1,-1,-1,-1,-1],"loss_changes":[2.6188843E0,5.1561184E0,2.9928622E0,4.9116135E0,3.3539324E0,5.0236855E0,3.702498E0,2.2644105E0,4.216911E0,3.5111752E0,1.6961732E0,2.2896743E0,6.3149605E0,5.70821E0,2.9188788E0,2.1847637E0,7.804304E0,2.4177582E0,3.497244E0,1.868103E0,1.4722948E0,2.4937544E0,1.7468925E0,1.6657331E0,1.2645941E0,5.09081E-1,0E0,1.1043522E1,4.8697667E0,3.14367E0,2.496756E0,2.3416471E0,1.2068951E0,2.2917538E0,1.2078876E0,2.4961865E0,7.849182E-1,2.6707582E0,4.1104656E-1,1.1804118E0,3.79269E-1,1.0848703E0,0E0,1.8755817E0,0E0,1.1049142E0,1.8143557E0,1.2975862E0,4.7040153E-1,5.4110026E-1,2.7626276E-1,1.5109813E-1,0E0,6.168836E0,2.9181114E1,1.9992805E1,7.235595E0,1.0538882E0,2.146811E0,1.0858579E0,1.1731135E0,0E0,0E0,0E0,0E0,0E0,0E0,0E0,0E0,0E0,0E0,0E0,0E0,0E0,0E0,0E0,0E0,0E0,0E0,0E0,0E0,0E0,0E0,0E0,0E0,0E0,0E0,0E0,0E0,0E0,0E0,0E0,0E0,0E0,0E0,0E0,0E0,0E0,0E0,0E0,0E0,0E0,0E0,0E0,0E0,0E0,0E0,0E0,0E0,0E0,0E0,0E0,0E0,0E0,0E0],"parents":[2147483647,0,0,1,1,2,2,3,3,4,4,5,5,6,6,7,7,8,8,9,9,10,10,11,11,12,12,13,13,14,14,15,15,16,16,17,17,18,18,19,19,20,20,21,21,22,22,23,23,24,24,25,25,27,27,28,28,29,29,30,30,31,31,32,32,33,33,34,34,35,35,36,36,37,37,38,38,39,39,40,40,41,41,43,43,45,45,46,46,47,47,48,48,49,49,50,50,51,51,53,53,54,54,55,55,56,56,57,57,58,58,59,59,60,60],"right_children":[2,4,6,8,10,12,14,16,18,20,22,24,26,28,30,32,34,36,38,40,42,44,46,48,50,52,-1,54,56,58,60,62,64,66,68,70,72,74,76,78,80,82,-1,84,-1,86,88,90,92,94,96,98,-1,100,102,104,106,108,110,112,114,-1,-1,-1,-1,-1,-1,-1,-1,-1,-1,-1,-1,-1,-1,-1,-1,-1,-1,-1,-1,-1,-1,-1,-1,-1,-1,-1,-1,-1,-1,-1,-1,-1,-1,-1,-1,-1,-1,-1,-1,-1,-1,-1,-1,-1,-1,-1,-1,-1,-1,-1,-1,-1,-1],"split_conditions":[8.3E-1,6.2E-1,3.2710228E1,1.18E0,7.3E-1,2.4E0,2.4595123E2,1.42E0,8.064E0,1.9E0,1.933639E1,1.4512064E1,3.37E0,5.2681665E0,4E-1,6.2E-1,2.02E0,5.3223333E0,1.2124416E1,1.645775E1,1.72E0,4.8E0,1.37E0,2.42E0,4E-1,1.6811918E1,6.16334E-1,4.52025E0,1.55E0,5.1181664E0,8.7E0,1.07E0,8.5E-1,5.5E-1,2.4214934E2,4.2E-1,3E-1,2.1E0,2.2461807E1,2.1992397E2,1.678156E1,2.0158493E2,3.111055E-2,3.3E0,2.8600097E-1,2.2550165E2,9E-1,2.62E0,1.2313893E1,3.07E0,2.9947151E1,3.67E0,1.5950036E-1,8.5E-1,2.31E0,1.52E0,3.33E0,3.27E0,2.9009784E2,1.2E0,1.58E1,-5.870262E-2,-2.4291296E-1,5.2843925E-2,-5.85949E-2,3.3741897E-1,4.1049365E-2,-2.2218949E-1,8.287646E-3,-5.722299E-2,1.511751E-1,4.317023E-2,-2.1239688E-1,1.7298396E-1,4.9378726E-1,-3.05466E-2,9.430689E-2,-1.347452E-1,-2.308208E-2,-5.3182844E-2,1.1215034E-1,-4.0506762E-1,-1.2202031E-1,2.614193E-2,-1.9299597E-1,-1.7718212E-1,-2.5206514E-2,-4.129949E-2,2.2506653E-1,-2.6919061E-2,1.3175245E-1,-2.1299799E-1,-2.2174217E-2,-6.573258E-2,-1.70345E-1,-2.4705794E-1,-3.616165E-2,1.0580491E-2,-8.1846036E-2,5.562004E-1,2.699501E-2,4.992654E-1,-9.803111E-3,2.5608553E-2,5.814548E-1,-3.7502207E-2,4.5987625E-2,-7.410058E-2,1.4013953E-2,6.0689185E-2,-1.4620374E-2,-8.535288E-2,-3.5047214E-2,1.1362397E-1,-1.8073048E-2],"split_indices":[1,1,6,2,1,4,6,0,3,0,5,5,0,3,4,2,0,3,3,3,2,4,2,1,4,3,0,3,1,3,4,0,2,2,6,1,1,4,5,6,5,6,0,4,0,6,0,0,5,2,5,1,0,1,1,1,2,2,6,2,4,0,0,0,0,0,0,0,0,0,0,0,0,0,0,0,0,0,0,0,0,0,0,0,0,0,0,0,0,0,0,0,0,0,0,0,0,0,0,0,0,0,0,0,0,0,0,0,0,0,0,0,0,0,0],"split_type":[0,0,0,0,0,0,0,0,0,0,0,0,0,0,0,0,0,0,0,0,0,0,0,0,0,0,0,0,0,0,0,0,0,0,0,0,0,0,0,0,0,0,0,0,0,0,0,0,0,0,0,0,0,0,0,0,0,0,0,0,0,0,0,0,0,0,0,0,0,0,0,0,0,0,0,0,0,0,0,0,0,0,0,0,0,0,0,0,0,0,0,0,0,0,0,0,0,0,0,0,0,0,0,0,0,0,0,0,0,0,0,0,0,0,0],"sum_hessian":[1.727E3,2.6E2,1.467E3,1.38E2,1.22E2,6.9E1,1.398E3,9.2E1,4.6E1,5.9E1,6.3E1,5.9E1,1E1,9.85E2,4.13E2,7.4E1,1.8E1,2.4E1,2.2E1,5E1,9E0,3.3E1,3E1,2.4E1,3.5E1,9E0,1E0,3.21E2,6.64E2,2.05E2,2.08E2,4E1,3.4E1,1E1,8E0,1.9E1,5E0,1.4E1,8E0,4.5E1,5E0,8E0,1E0,3.1E1,2E0,1.9E1,1.1E1,1.9E1,5E0,2.6E1,9E0,8E0,1E0,2.8E2,4.1E1,2.09E2,4.55E2,5.7E1,1.48E2,1.85E2,2.3E1,3.3E1,7E0,2E1,1.4E1,6E0,4E0,5E0,3E0,9E0,1E1,1E0,4E0,1.1E1,3E0,5E0,3E0,3.3E1,1.2E1,1E0,4E0,5E0,3E0,2.8E1,3E0,1.2E1,7E0,9E0,2E0,1.3E1,6E0,3E0,2E0,2E1,6E0,8E0,1E0,7E0,1E0,1E0,2.79E2,1.6E1,2.5E1,2.04E2,5E0,3.25E2,1.3E2,4E1,1.7E1,9.6E1,5.2E1,5.6E1,1.29E2,1.2E1,1.1E1],"tree_param":{"num_deleted":"0","num_feature":"7","num_nodes":"115","size_leaf_vector":"1"}},{"base_weights":[5.146971E-3,-5.017445E-3,1.301297E-1,2.998054E-3,-1.9124104E-1,4.2213294E-1,1.09322794E-1,2.3084721E-1,-5.471339E-3,-4.4130188E-1,-6.806575E-3,2.8413138E-1,-1.6321756E-2,-1.3635607E-1,4.1317195E-1,-2.9704913E-2,6.0711697E-2,-1.4821728E-1,-7.680751E-1,5.5933976E-1,-8.749015E-2,5.989554E-1,9.6113876E-2,-2.3161852E-1,1.2912436E-1,-1.9414449E-1,1.355753E-1,5.281286E-1,-3.1520526E-3,-4.132086E-2,2.5247E-1,1.2946272E-1,-1.6862011E-1,-2.0643522E-1,8.9092545E-2,-3.1531045E-1,-1.05132595E-1,-3.1003423E-2,2.2525412E-1,-3.320742E-1,5.4556936E-2,-1.7148264E-2,9.3202263E-1,-7.9960954E-1,3.9112857E-1,-4.4363308E-1,2.5797537E-1,5.7044274E-1,-4.341279E-2,-2.610501E-2,-1.6420126E-1,1.6570037E-2,2.2145094E-1,1.1911223E-1,-8.082657E-2,-3.5713797E-3,-4.01927E-2,3.270349E-1,2.615186E-2,2.9739723E-2,2.0190121E-1,-7.134166E-2,1.0873651E-1,2.233431E-1,-6.362658E-2,-1.3127409E-1,7.870779E-2,-1.20454095E-1,7.517985E-2,4.562471E-2,-7.4133664E-2,1.8202257E-1,-1.5384923E-1,3.58266E-1,1.3057097E-2,-3.3988193E-1,-9.1907255E-2,4.154898E-1,8.989085E-2,-2.1837734E-1,1.4367144E-2,-8.8617496E-2,1.0568456E-1,2.4304557E-1,4.6727028E-2,-1.13491E-1,5.4574452E-2],"categories":[],"categories_nodes":[],"categories_segments":[],"categories_sizes":[],"default_left":[0,0,0,0,0,0,0,0,0,0,0,0,0,0,0,0,0,0,0,0,0,0,0,0,0,0,0,0,0,0,0,0,0,0,0,0,0,0,0,0,0,0,0,0,0,0,0,0,0,0,0,0,0,0,0,0,0,0,0,0,0,0,0,0,0,0,0,0,0,0,0,0,0,0,0,0,0,0,0,0,0,0,0,0,0,0,0],"id":15,"left_children":[1,3,5,7,9,-1,11,13,15,17,19,21,23,25,27,29,31,33,35,37,39,41,43,45,47,49,-1,51,53,55,57,59,61,-1,63,-1,65,-1,-1,67,69,71,73,75,77,79,81,83,85,-1,-1,-1,-1,-1,-1,-1,-1,-1,-1,-1,-1,-1,-1,-1,-1,-1,-1,-1,-1,-1,-1,-1,-1,-1,-1,-1,-1,-1,-1,-1,-1,-1,-1,-1,-1,-1,-1],"loss_changes":[2.195863E0,2.3873608E0,3.3002698E0,2.9614906E0,3.0409057E0,0E0,2.8379607E0,3.7386022E0,2.3755038E0,2.567779E0,1.8304063E0,3.1388235E0,2.4097779E0,7.336501E-1,1.7724566E0,3.56349E0,6.2812486E0,2.1112838E0,2.3281198E0,7.121407E-1,1.2341027E0,4.1200604E0,9.561555E0,3.3322785E0,3.52738E0,6.3343465E-1,0E0,2.8397245E0,1.066005E0,2.8384366E0,5.8587737E0,4.9779334E0,3.4665189E0,0E0,2.5265682E0,0E0,7.256624E-1,0E0,0E0,6.266061E-1,7.142509E-1,2.7851675E0,2.976531E0,1.132657E0,2.0400863E0,3.1090503E0,6.259224E-1,1.1660662E0,2.6344619E0,0E0,0E0,0E0,0E0,0E0,0E0,0E0,0E0,0E0,0E0,0E0,0E0,0E0,0E0,0E0,0E0,0E0,0E0,0E0,0E0,0E0,0E0,0E0,0E0,0E0,0E0,0E0,0E0,0E0,0E0,0E0,0E0,0E0,0E0,0E0,0E0,0E0,0E0],"parents":[2147483647,0,0,1,1,2,2,3,3,4,4,6,6,7,7,8,8,9,9,10,10,11,11,12,12,13,13,14,14,15,15,16,16,17,17,18,18,19,19,20,20,21,21,22,22,23,23,24,24,25,25,27,27,28,28,29,29,30,30,31,31,32,32,34,34,36,36,39,39,40,40,41,41,42,42,43,43,44,44,45,45,46,46,47,47,48,48],"right_children":[2,4,6,8,10,-1,12,14,16,18,20,22,24,26,28,30,32,34,36,38,40,42,44,46,48,50,-1,52,54,56,58,60,62,-1,64,-1,66,-1,-1,68,70,72,74,76,78,80,82,84,86,-1,-1,-1,-1,-1,-1,-1,-1,-1,-1,-1,-1,-1,-1,-1,-1,-1,-1,-1,-1,-1,-1,-1,-1,-1,-1,-1,-1,-1,-1,-1,-1,-1,-1,-1,-1,-1,-1],"split_conditions":[6.18E0,7.46E0,3.5E-1,1.0383987E1,1.8767886E2,4.2213294E-1,4.947333E0,9.085988E0,2.65E0,1.349999E2,1.4021525E1,4.15E0,7.7E0,3.3999994E0,2.62E0,4.29E0,4.37E0,1.3049689E1,8.461917E0,1.5E0,2.1933426E1,1.23275E0,6.45E0,2.2897649E2,9.09E0,1.4000001E0,1.355753E-1,1.43E0,2.9E0,2.37E0,5.452499E-1,6.18E0,1.82515E1,-2.0643522E-1,1.4512064E1,-3.1531045E-1,1.31E0,-3.1003423E-2,2.2525412E-1,4.7E0,1.258E1,1.3896187E1,2.2620972E2,7E-1,1.98E0,1.3314E1,6.45E0,2.038689E2,1.091E1,-2.610501E-2,-1.6420126E-1,1.6570037E-2,2.2145094E-1,1.1911223E-1,-8.082657E-2,-3.5713797E-3,-4.01927E-2,3.270349E-1,2.615186E-2,2.9739723E-2,2.0190121E-1,-7.134166E-2,1.0873651E-1,2.233431E-1,-6.362658E-2,-1.3127409E-1,7.870779E-2,-1.20454095E-1,7.517985E-2,4.562471E-2,-7.4133664E-2,1.8202257E-1,-1.5384923E-1,3.58266E-1,1.3057097E-2,-3.3988193E-1,-9.1907255E-2,4.154898E-1,8.989085E-2,-2.1837734E-1,1.4367144E-2,-8.8617496E-2,1.0568456E-1,2.4304557E-1,4.6727028E-2,-1.13491E-1,5.4574452E-2],"split_indices":[0,2,2,5,6,0,3,5,2,6,5,1,0,4,1,1,1,5,3,0,5,3,1,6,0,4,0,0,0,0,3,2,3,0,5,0,0,0,0,0,2,5,6,4,2,3,0,6,0,0,0,0,0,0,0,0,0,0,0,0,0,0,0,0,0,0,0,0,0,0,0,0,0,0,0,0,0,0,0,0,0,0,0,0,0,0,0],"split_type":[0,0,0,0,0,0,0,0,0,0,0,0,0,0,0,0,0,0,0,0,0,0,0,0,0,0,0,0,0,0,0,0,0,0,0,0,0,0,0,0,0,0,0,0,0,0,0,0,0,0,0,0,0,0,0,0,0,0,0,0,0,0,0,0,0,0,0,0,0,0,0,0,0,0,0,0,0,0,0,0,0,0,0,0,0,0,0],"sum_hessian":[1.727E3,1.598E3,1.29E2,1.533E3,6.5E1,1E0,1.28E2,5.4E1,1.479E3,2.7E1,3.8E1,5.3E1,7.5E1,1.8E1,3.6E1,1.083E3,3.96E2,1.5E1,1.2E1,4E0,3.4E1,1.9E1,3.4E1,3E1,4.5E1,1.7E1,1E0,2.8E1,8E0,1.041E3,4.2E1,3.05E2,9.1E1,4E0,1.1E1,8E0,4E0,1E0,3E0,1.2E1,2.2E1,7E0,1.2E1,8E0,2.6E1,2.1E1,9E0,1.2E1,3.3E1,1.4E1,3E0,9E0,1.9E1,3E0,5E0,7.91E2,2.5E2,6E0,3.6E1,2.9E2,1.5E1,8.1E1,1E1,3E0,8E0,2E0,2E0,1.1E1,1E0,1.7E1,5E0,3E0,4E0,9E0,3E0,4E0,4E0,1E0,2.5E1,1.3E1,8E0,1E0,8E0,7E0,5E0,1.3E1,2E1],"tree_param":{"num_deleted":"0","num_feature":"7","num_nodes":"87","size_leaf_vector":"1"}},{"base_weights":[4.4391146E-3,1.2156994E-2,-1.345315E-1,-6.766413E-2,2.8664785E-2,3.5881305E-1,-1.6260505E-1,-1.7665745E-1,9.594238E-2,-1.7653937E-2,6.9976255E-2,-3.1470707E-1,3.5631454E-3,-2.991036E-1,3.4110725E-2,5.390458E-1,-1.0979693E-1,1.6091974E-1,-3.468887E-2,5.1863164E-1,4.897633E-2,-4.4503236E-1,-5.8542877E-2,-6.719035E-2,5.688785E-1,-1.7957465E-1,-7.800519E-1,5.768026E-1,-5.5313595E-2,3.0851755E-1,2.9720178E0,6.559252E-2,-2.6169246E-1,-1.358629E-1,3.169936E-1,-4.064617E-2,4.0080678E-1,2.9351443E-1,1.4452204E0,2.057301E-2,3.2514343E-1,-2.6619643E-1,-7.0600617E-1,-1.3877684E-1,2.3691171E-1,-1.3565269E-1,2.2361559E-1,3.6502093E-1,1.0272986E-1,4.7365014E-2,-7.070192E-2,-9.444141E-2,-2.9705685E-1,1.8360486E-2,2.1461223E-1,8.54904E-2,-3.5789106E-2,-1.0988355E-1,1.8148324E-1,2.3648648E-1,1.1009215E0,4.4883125E-2,-1.9948731E-1,2.2928145E-2,-1.5554E-1,-7.024358E-2,2.5972527E-1,5.01413E-2,2.8060696E-1,-6.6417237E-3,-6.292313E-2,1.8523544E-1,8.939794E-3,5.299128E-1,5.0678518E-2,1.024835E0,1.1034535E-1,3.016047E-2,-3.8016915E-2,2.3598559E-1,8.577864E-3,7.358439E-2,-1.1126566E-1,-2.4158257E-1,5.7892926E-2,2.9535992E-2,-8.445319E-2,-2.444948E-2,1.11064345E-1,1.5485594E-1,-5.164605E-2,1.2005911E-2,1.1916197E-1,3.9442744E-2,2.4738014E-3],"categories":[],"categories_nodes":[],"categories_segments":[],"categories_sizes":[],"default_left":[0,0,0,0,0,0,0,0,0,0,0,0,0,0,0,0,0,0,0,0,0,0,0,0,0,0,0,0,0,0,0,0,0,0,0,0,0,0,0,0,0,0,0,0,0,0,0,0,0,0,0,0,0,0,0,0,0,0,0,0,0,0,0,0,0,0,0,0,0,0,0,0,0,0,0,0,0,0,0,0,0,0,0,0,0,0,0,0,0,0,0,0,0,0,0],"id":16,"left_children":[1,3,5,7,9,-1,11,13,15,17,19,21,23,25,27,29,31,33,35,37,39,41,43,45,47,49,51,53,55,57,59,61,63,65,67,69,71,73,75,77,79,81,83,85,87,89,91,-1,93,-1,-1,-1,-1,-1,-1,-1,-1,-1,-1,-1,-1,-1,-1,-1,-1,-1,-1,-1,-1,-1,-1,-1,-1,-1,-1,-1,-1,-1,-1,-1,-1,-1,-1,-1,-1,-1,-1,-1,-1,-1,-1,-1,-1,-1,-1],"loss_changes":[1.8550167E0,2.1602836E0,3.5936918E0,5.0277457E0,2.5997605E0,0E0,2.2758281E0,4.371713E0,1.0360694E1,1.9554985E0,6.7394013E0,1.543026E0,1.7981366E0,6.011056E0,3.0892859E0,1.9274357E1,2.095153E0,2.6369886E0,1.5365968E0,6.25072E0,5.382181E0,1.2588797E0,4.3587124E-1,8.2670426E-1,1.3849952E0,1.6841936E0,1.7413692E0,5.9924626E-1,1.2314767E0,7.0225134E0,1.6780872E0,2.3705184E0,3.6860814E0,2.1715307E0,3.2722843E0,1.8073397E0,6.246145E-1,4.6560555E0,1.148418E1,7.362256E0,8.735954E0,1.1618941E0,1.2262926E0,5.017663E-1,1.9995153E-1,8.740206E-1,2.3906857E-1,0E0,9.779964E-3,0E0,0E0,0E0,0E0,0E0,0E0,0E0,0E0,0E0,0E0,0E0,0E0,0E0,0E0,0E0,0E0,0E0,0E0,0E0,0E0,0E0,0E0,0E0,0E0,0E0,0E0,0E0,0E0,0E0,0E0,0E0,0E0,0E0,0E0,0E0,0E0,0E0,0E0,0E0,0E0,0E0,0E0,0E0,0E0,0E0,0E0],"parents":[2147483647,0,0,1,1,2,2,3,3,4,4,6,6,7,7,8,8,9,9,10,10,11,11,12,12,13,13,14,14,15,15,16,16,17,17,18,18,19,19,20,20,21,21,22,22,23,23,24,24,25,25,26,26,27,27,28,28,29,29,30,30,31,31,32,32,33,33,34,34,35,35,36,36,37,37,38,38,39,39,40,40,41,41,42,42,43,43,44,44,45,45,46,46,48,48],"right_children":[2,4,6,8,10,-1,12,14,16,18,20,22,24,26,28,30,32,34,36,38,40,42,44,46,48,50,52,54,56,58,60,62,64,66,68,70,72,74,76,78,80,82,84,86,88,90,92,-1,94,-1,-1,-1,-1,-1,-1,-1,-1,-1,-1,-1,-1,-1,-1,-1,-1,-1,-1,-1,-1,-1,-1,-1,-1,-1,-1,-1,-1,-1,-1,-1,-1,-1,-1,-1,-1,-1,-1,-1,-1,-1,-1,-1,-1,-1,-1],"split_conditions":[1.3500001E1,9E-1,3.5E-1,1.3000001E0,1.87E0,3.5881305E-1,1.1947331E1,2.3514995E2,2.3999999E0,6.2E-1,1.03E0,2.1270746E2,2.86E1,1.95E0,1.3570615E1,2.3000002E0,8.7E-1,1.6610792E1,3.7212578E1,1.5457751E1,7.5E0,2.19E0,4.09E0,1.6811918E1,9E-1,7.1816677E-1,1.22371765E2,6.2E-1,2.1994166E0,1.5990646E1,1.13E0,1.95E0,7E-1,1.71E0,2.9E0,7.1999993E0,4.0192837E1,1.753788E1,1.5722336E1,1.5E0,9.780667E0,2.1868332E1,1.9909184E2,2.2062378E2,1.12E0,1.2318168E1,1.764721E2,3.6502093E-1,1.21E0,4.7365014E-2,-7.070192E-2,-9.444141E-2,-2.9705685E-1,1.8360486E-2,2.1461223E-1,8.54904E-2,-3.5789106E-2,-1.0988355E-1,1.8148324E-1,2.3648648E-1,1.1009215E0,4.4883125E-2,-1.9948731E-1,2.2928145E-2,-1.5554E-1,-7.024358E-2,2.5972527E-1,5.01413E-2,2.8060696E-1,-6.6417237E-3,-6.292313E-2,1.8523544E-1,8.939794E-3,5.299128E-1,5.0678518E-2,1.024835E0,1.1034535E-1,3.016047E-2,-3.8016915E-2,2.3598559E-1,8.577864E-3,7.358439E-2,-1.1126566E-1,-2.4158257E-1,5.7892926E-2,2.9535992E-2,-8.445319E-2,-2.444948E-2,1.11064345E-1,1.5485594E-1,-5.164605E-2,1.2005911E-2,1.1916197E-1,3.9442744E-2,2.4738014E-3],"split_indices":[4,2,2,4,0,0,3,6,4,1,2,6,4,0,5,4,1,5,5,3,4,2,0,3,2,3,6,0,3,5,0,0,2,0,4,4,5,6,3,4,3,5,6,6,2,3,6,0,1,0,0,0,0,0,0,0,0,0,0,0,0,0,0,0,0,0,0,0,0,0,0,0,0,0,0,0,0,0,0,0,0,0,0,0,0,0,0,0,0,0,0,0,0,0,0],"split_type":[0,0,0,0,0,0,0,0,0,0,0,0,0,0,0,0,0,0,0,0,0,0,0,0,0,0,0,0,0,0,0,0,0,0,0,0,0,0,0,0,0,0,0,0,0,0,0,0,0,0,0,0,0,0,0,0,0,0,0,0,0,0,0,0,0,0,0,0,0,0,0,0,0,0,0,0,0,0,0,0,0,0,0,0,0,0,0,0,0,0,0,0,0,0,0],"sum_hessian":[1.727E3,1.637E3,9E1,2.8E2,1.357E3,1E0,8.9E1,1.68E2,1.12E2,6.4E2,7.17E2,4.6E1,4.3E1,1.06E2,6.2E1,3.5E1,7.7E1,5.5E1,5.85E2,3.1E1,6.86E2,3E1,1.6E1,3.9E1,4E0,8.6E1,2E1,8E0,5.4E1,3.3E1,2E0,3.6E1,4.1E1,1.9E1,3.6E1,5.78E2,7E0,2.6E1,5E0,6.23E2,6.3E1,1.9E1,1.1E1,1.3E1,3E0,3.2E1,7E0,1E0,3E0,1.2E1,7.4E1,7E0,1.3E1,2E0,6E0,8E0,4.6E1,1E1,2.3E1,1E0,1E0,3.3E1,3E0,1.8E1,2.3E1,1.8E1,1E0,3E1,6E0,5.22E2,5.6E1,4E0,3E0,1E0,2.5E1,1E0,4E0,4.04E2,2.19E2,2.4E1,3.9E1,3E0,1.6E1,1E1,1E0,5E0,8E0,1E0,2E0,1E0,3.1E1,4E0,3E0,2E0,1E0],"tree_param":{"num_deleted":"0","num_feature":"7","num_nodes":"95","size_leaf_vector":"1"}},{"base_weights":[5.652171E-3,2.940522E-3,2.9561484E-1,8.40165E-3,-1.2729856E-1,6.656162E-1,1.1681303E-1,-5.917595E-2,2.0043656E-2,-1.9196732E-1,1.6604128E-1,2.953929E-1,3.7415218E-2,-8.770322E-3,4.964865E-1,3.380372E-2,-1.6387069E-1,1.3057128E-1,5.6224843E-3,-4.5524415E-2,-3.5299557E-1,3.2370996E-1,-1.5097061E-1,8.195093E-2,-7.4331075E-2,2.0781735E-1,1.56015875E-2,-5.1133085E-2,2.1735425E-1,-1.0751205E-1,-5.286703E-1,3.2580706E-1,-3.6156783E-3,8.057553E-1,1.090106E-3,-1.8079473E-1,2.5662273E-1,-8.8961214E-2,-5.582923E-1,5.2118057E-1,6.149739E-2,-8.276281E-2,-1.5232579E-2,2.3341337E-1,-1.2786484E-1,-3.115665E-2,4.8779186E-2,-2.5439672E-3,1.5191737E-1,-1.05915055E-1,-1.4792385E-2,-2.4921809E-1,1.886071E-2,7.496401E-2,7.891598E-1,3.911901E-2,-5.466383E-2,3.5912338E-1,-3.4510244E-2,4.6182084E-3,-3.8226984E-2,-6.637314E-2,4.4739142E-2,1.2738609E-2,2.2265314E-1,-9.008595E-2,9.276497E-2,-1.9527727E-1,-9.325713E-2,1.880878E-1,1.4709798E-2,8.7743107E-4,2.2622807E-2,1.9917298E-2,7.757136E-2,-8.462842E-2,5.2730087E-3],"categories":[],"categories_nodes":[],"categories_segments":[],"categories_sizes":[],"default_left":[0,0,0,0,0,0,0,0,0,0,0,0,0,0,0,0,0,0,0,0,0,0,0,0,0,0,0,0,0,0,0,0,0,0,0,0,0,0,0,0,0,0,0,0,0,0,0,0,0,0,0,0,0,0,0,0,0,0,0,0,0,0,0,0,0,0,0,0,0,0,0,0,0,0,0,0,0],"id":17,"left_children":[1,3,5,7,9,11,13,15,17,19,21,-1,-1,23,25,27,29,31,33,35,37,39,41,43,-1,-1,-1,45,47,49,51,53,55,57,59,61,63,65,67,69,71,-1,-1,73,75,-1,-1,-1,-1,-1,-1,-1,-1,-1,-1,-1,-1,-1,-1,-1,-1,-1,-1,-1,-1,-1,-1,-1,-1,-1,-1,-1,-1,-1,-1,-1,-1],"loss_changes":[1.3578174E0,1.2194448E0,9.807581E-1,1.2953715E0,1.3407993E0,7.4000406E-1,5.7652235E-1,2.3612843E0,2.2371545E0,1.3280725E0,6.9864774E-1,0E0,0E0,2.3712872E-1,2.2564697E-1,2.0222492E0,2.2869577E0,4.24527E0,4.506867E0,1.3134139E0,1.4138792E0,4.3396223E-1,4.8567027E-2,2.8407902E-1,0E0,0E0,0E0,1.0197725E0,2.6805453E0,1.4117243E0,2.7324023E0,1.0892088E1,2.3453789E0,2.6599846E0,2.275871E0,3.2658762E-1,1.0083522E0,1.1867391E0,1.4146185E-1,2.1897471E-1,3.8537458E-3,0E0,0E0,3.8428009E-3,9.468402E-2,0E0,0E0,0E0,0E0,0E0,0E0,0E0,0E0,0E0,0E0,0E0,0E0,0E0,0E0,0E0,0E0,0E0,0E0,0E0,0E0,0E0,0E0,0E0,0E0,0E0,0E0,0E0,0E0,0E0,0E0,0E0,0E0],"parents":[2147483647,0,0,1,1,2,2,3,3,4,4,5,5,6,6,7,7,8,8,9,9,10,10,13,13,14,14,15,15,16,16,17,17,18,18,19,19,20,20,21,21,22,22,23,23,27,27,28,28,29,29,30,30,31,31,32,32,33,33,34,34,35,35,36,36,37,37,38,38,39,39,40,40,43,43,44,44],"right_children":[2,4,6,8,10,12,14,16,18,20,22,-1,-1,24,26,28,30,32,34,36,38,40,42,44,-1,-1,-1,46,48,50,52,54,56,58,60,62,64,66,68,70,72,-1,-1,74,76,-1,-1,-1,-1,-1,-1,-1,-1,-1,-1,-1,-1,-1,-1,-1,-1,-1,-1,-1,-1,-1,-1,-1,-1,-1,-1,-1,-1,-1,-1,-1,-1],"split_conditions":[2.1764E1,3.2359753E2,1.1085661E2,8.3E-1,6E-1,1.3896187E1,1.7461342E2,6.2E-1,1.1E0,1.5E0,3.5053775E2,2.953929E-1,3.7415218E-2,1.5649193E2,3.87E0,1.23E0,1.71E0,8.58275E0,4E-1,2.21E0,1.52E0,2.4E0,3E-1,2.62E0,-7.4331075E-2,2.0781735E-1,1.56015875E-2,1.42E0,8.064E0,7.1816677E-1,2.82E0,8.461917E0,2.1000001E0,1.1528583E1,1.0199999E1,1.36E0,1E-1,3.398958E2,3.33E0,1.35E0,8.1E-1,-8.276281E-2,-1.5232579E-2,1.21E0,3.87E0,-3.115665E-2,4.8779186E-2,-2.5439672E-3,1.5191737E-1,-1.05915055E-1,-1.4792385E-2,-2.4921809E-1,1.886071E-2,7.496401E-2,7.891598E-1,3.911901E-2,-5.466383E-2,3.5912338E-1,-3.4510244E-2,4.6182084E-3,-3.8226984E-2,-6.637314E-2,4.4739142E-2,1.2738609E-2,2.2265314E-1,-9.008595E-2,9.276497E-2,-1.9527727E-1,-9.325713E-2,1.880878E-1,